252 256
['Ayn_Rand'] -0.071443 -0.322633 -0.046092 -0.103026 -0.044651 0.107546 -0.150886 -0.049307 0.187326 0.171884 -0.045011 -0.082001 0.186956 -0.144821 -0.014887 0.195254 -0.103393 0.143184 0.027065 0.014032 -0.114470 0.029880 -0.090431 -0.027222 0.066421 -0.335214 -0.085393 0.098070 -0.033895 -0.051803 0.016894 -0.170303 0.213034 0.024990 0.083694 -0.019842 0.093660 0.023938 -0.225635 0.051920 -0.251676 0.058863 -0.063731 -0.059857 -0.103651 0.071876 0.237515 0.007232 -0.188594 -0.008082 0.023288 0.055050 0.183727 -0.153972 -0.004571 -0.002539 -0.003625 0.041035 0.132809 0.020860 0.015360 -0.009869 0.408825 -0.269993 0.288636 0.091447 -0.083621 0.038341 -0.043646 0.134678 0.046830 -0.102744 -0.286316 -0.042574 0.008347 0.071369 -0.041262 0.207460 0.088200 0.256858 0.007154 0.133730 0.081051 -0.170776 0.149238 -0.041705 0.093359 0.260564 0.065870 0.142260 -0.137364 -0.170045 -0.003564 0.024848 -0.119781 0.030016 0.213063 0.044180 -0.143217 0.064827 0.048700 -0.031341 -0.023620 0.052885 -0.068913 -0.012591 0.029872 -0.145558 0.166057 0.132659 0.218266 -0.059832 0.037432 0.099902 -0.025469 -0.196442 -0.110269 0.047455 0.366349 0.209601 0.183164 0.215357 -0.180143 -0.110693 -0.267602 0.181108 0.143974 0.074331 -0.282547 0.113890 0.015776 -0.112937 0.023369 0.115632 -0.102558 0.191956 -0.040836 0.026459 0.102181 -0.014145 0.005485 0.089288 -0.146523 -0.132718 -0.188688 0.024068 0.083438 -0.252771 0.239929 -0.092718 0.178725 -0.167660 -0.141692 -0.033838 -0.005930 -0.111760 -0.094127 -0.068048 -0.044993 -0.033850 -0.173376 -0.176540 -0.165181 -0.241027 -0.117093 -0.029389 -0.085289 -0.168652 -0.004902 -0.137174 0.021597 0.142898 -0.266941 0.072814 -0.047138 -0.205139 -0.082912 0.148845 0.158853 0.131559 0.078083 -0.148534 0.097112 -0.257601 0.164896 0.096227 0.069747 0.074143 -0.024026 0.275205 -0.099023 -0.040123 0.211684 0.115109 -0.316365 0.032165 0.102070 0.116121 0.149009 -0.087008 0.063592 0.091003 -0.113149 0.149443 -0.054942 -0.017980 0.060141 0.170627 -0.025305 -0.002412 -0.026851 0.084204 0.076629 -0.086484 0.305901 0.218853 0.026275 -0.272661 0.142245 -0.027673 -0.001413 0.198393 -0.046218 0.095913 -0.056766 -0.367790 -0.147810 0.101963 0.172962 0.118978 0.321243 0.057408 0.094413 -0.333166 0.068200 -0.195962 -0.161255 -0.099225 -0.046511 0.078754 0.065374 0.034072 -0.084666 -0.016234 -0.088782 0.077586 0.115083 0.127558 -0.149872 -0.026261 -0.088785 -0.275566 0.102682 -0.003186 0.016089 0.174319
['Aristotle'] -0.011091 -0.230542 -0.159862 -0.079734 -0.209454 -0.042693 -0.098195 -0.031921 0.248343 0.095577 0.169709 -0.087886 0.047989 -0.088215 -0.032665 0.191173 -0.193335 -0.042944 0.001533 -0.167634 -0.452753 -0.002276 -0.020506 0.159466 0.101147 -0.203666 0.216453 -0.055472 0.031880 -0.130818 -0.053754 -0.162606 -0.006358 -0.000134 0.066260 -0.057234 0.180426 0.118677 -0.333149 0.186488 -0.281213 -0.054179 0.041996 0.150922 0.086045 0.008954 0.261839 0.251284 -0.198690 0.248127 0.064020 0.372809 0.297278 -0.187386 0.233672 -0.095348 0.030205 -0.258878 0.190402 -0.139330 0.050536 0.014213 0.171786 -0.350466 0.023177 -0.062968 -0.186322 0.038157 0.052151 0.284706 0.115778 -0.070450 -0.288223 -0.165243 0.025399 0.102460 -0.051350 0.268424 0.116147 0.345662 -0.035411 0.235894 -0.012191 -0.119427 -0.025739 -0.158273 -0.062309 -0.054767 0.104961 0.127359 0.042611 -0.333540 0.063630 0.025745 -0.073499 -0.118155 0.102800 -0.016955 0.205536 0.088442 0.239712 -0.014505 -0.034660 0.388119 -0.270061 -0.195871 0.028980 -0.052372 0.223772 0.139324 0.193521 0.033972 0.117456 0.012318 0.138638 -0.031003 -0.219884 0.034360 0.400844 0.180036 -0.077809 0.043805 -0.221779 -0.021653 -0.097584 0.012368 0.125776 -0.056946 -0.234615 0.071898 -0.171589 0.005069 -0.109168 0.159331 -0.070267 0.215993 -0.153665 0.001518 -0.240430 -0.250897 -0.076810 0.233416 -0.164302 -0.205995 0.121364 -0.020860 0.052422 -0.236655 0.288436 -0.202251 0.192628 -0.114411 0.046324 0.027769 0.063947 -0.064542 0.200996 -0.228703 -0.080230 0.073948 -0.044521 0.063621 -0.082258 -0.240868 -0.087742 0.003274 -0.272752 -0.213063 -0.183249 -0.066836 0.033560 0.091336 -0.029663 0.079720 0.089533 0.068970 -0.072379 0.113610 0.202036 0.038062 0.360645 -0.299003 0.155639 -0.075589 0.192919 0.021269 0.057995 0.064325 0.093215 0.206740 -0.048537 -0.018162 0.234212 0.066622 -0.325631 -0.117939 0.095120 0.116323 0.000263 -0.132369 0.241271 0.128083 -0.450335 0.170362 -0.139557 0.021798 0.049216 0.174218 0.017372 -0.060906 -0.023899 0.071871 0.163083 -0.183182 0.197667 0.149149 0.309644 -0.114469 0.224032 -0.031792 -0.031098 0.057017 0.071343 -0.120639 -0.122592 0.006844 -0.081843 0.131077 -0.026246 0.329545 0.171205 -0.019666 0.060130 -0.249138 0.021404 0.014204 0.086067 -0.147862 0.077358 0.128160 -0.107259 0.048929 0.080388 0.070542 0.083486 0.215334 0.100442 0.110299 -0.149531 0.118132 0.102188 0.053485 0.069181 -0.066497 0.042229 0.046589
['Andre_Agassi'] -0.175968 -0.027011 -0.301138 -0.137479 -0.039016 -0.063296 0.118264 0.056963 0.192248 0.010657 -0.280394 0.019318 -0.118221 -0.620698 0.071612 0.246451 -0.296103 0.074514 -0.169765 0.313983 -0.221223 -0.081372 -0.146715 -0.018700 0.438269 0.136521 0.172541 0.039158 -0.086269 -0.088992 0.300967 -0.253903 0.184587 -0.151364 0.124831 0.145096 -0.061609 -0.438361 -0.128734 -0.058945 0.026341 0.035757 0.010118 0.069680 -0.173935 -0.463780 0.042721 0.072866 -0.350856 0.039940 -0.022819 0.257353 -0.031841 0.026902 0.391050 -0.235502 0.093634 -0.020550 0.182061 -0.392225 0.401590 0.227374 0.059501 -0.120574 0.070293 -0.028657 0.137507 0.083010 -0.005482 0.210338 0.254097 -0.242229 0.246278 -0.118327 0.047505 -0.112218 0.001187 0.060271 -0.215991 0.299673 0.014277 0.290518 0.394875 0.040306 0.267881 -0.058065 -0.146274 0.206065 -0.213387 -0.079626 0.067519 -0.039293 -0.042676 0.103506 -0.187931 0.115289 0.159554 -0.210434 -0.075222 0.113482 0.035802 -0.036109 -0.387765 0.246432 0.114662 -0.128226 0.050878 0.331565 0.054002 0.003639 0.009672 0.161467 0.167961 0.150292 0.048318 0.100109 -0.162907 0.366292 0.291555 0.412675 -0.052432 0.397367 -0.108715 0.043046 -0.146642 0.182642 0.063878 -0.287632 -0.025626 -0.257623 0.097650 -0.403031 -0.098691 0.145975 -0.246754 0.062895 -0.222254 -0.162472 0.134655 -0.226117 0.130122 0.112818 0.007261 -0.291642 0.059561 0.120369 -0.213499 0.276730 0.020373 -0.201745 0.170476 0.000894 0.193942 -0.024485 -0.011007 0.081773 -0.084186 0.273317 -0.217304 0.040163 -0.058777 -0.162760 -0.060048 0.365055 0.125978 -0.209123 -0.247935 -0.281967 -0.316830 0.173672 -0.017568 0.118406 -0.045954 0.190901 0.043861 0.082698 0.172198 -0.150411 0.164167 -0.364013 0.043056 0.186090 0.160637 -0.167913 0.196630 -0.404842 0.153027 -0.037025 0.022084 -0.128325 -0.281335 -0.148630 0.072031 0.180623 0.133345 -0.099856 0.373869 -0.272526 -0.200250 0.212918 0.014440 0.183675 0.014266 0.071764 0.076513 0.261903 0.144530 -0.036920 0.047608 -0.083169 -0.307461 0.031142 -0.012691 0.389370 0.013392 0.170611 0.497154 -0.027794 -0.094397 0.108267 0.037408 -0.065850 -0.108401 0.266212 0.314705 -0.188855 -0.219126 0.082584 -0.056392 -0.013935 -0.142614 0.009806 0.290124 -0.451589 0.098038 0.277711 0.024119 0.028051 -0.188047 0.035416 -0.202934 -0.089960 -0.282096 -0.061947 0.245037 -0.028566 0.293143 0.074639 -0.078103 0.010124 -0.060704 0.292394 0.037650 -0.011121 0.088138 0.188310
['Abraham_Lincoln'] 0.114661 -0.165041 -0.017135 -0.217505 0.085823 -0.115969 -0.191277 -0.196726 0.282652 0.263597 0.162292 -0.063673 0.153988 -0.238531 0.184938 0.055351 0.022816 0.213673 -0.024730 -0.166160 -0.128357 -0.178448 0.080962 0.146853 0.302557 -0.229311 -0.299671 0.095620 0.115694 -0.174466 -0.008698 -0.280193 0.439021 -0.188812 0.023918 0.128658 0.135434 -0.137541 -0.369218 -0.067516 -0.164501 0.065366 -0.242873 -0.164927 0.049859 -0.089349 0.218780 0.007420 -0.058469 0.130688 0.156200 -0.012851 -0.132034 -0.067343 -0.108263 -0.028311 0.186084 0.142263 -0.041387 -0.031926 0.070214 -0.136348 0.228344 -0.127995 0.229843 0.195939 0.108477 -0.104724 0.002205 -0.048320 0.083907 -0.150214 -0.001455 -0.318192 0.228416 0.259559 -0.104907 0.052884 -0.064211 0.089349 0.135017 -0.002337 0.220049 -0.051069 0.132838 -0.069187 -0.039100 0.259540 0.131362 -0.007103 -0.223324 -0.016318 0.069635 -0.034474 -0.296580 0.150888 0.239120 0.169424 -0.065754 0.011852 -0.055776 -0.130004 -0.117857 -0.331223 -0.072331 0.042891 -0.136587 -0.077405 0.067091 0.098409 0.277922 0.137924 0.051778 -0.009892 0.099498 -0.176395 -0.188636 0.248724 0.538190 0.211009 0.347980 0.332159 -0.291053 -0.183764 -0.300221 0.143046 -0.019249 0.039164 -0.033316 0.126416 0.090269 0.035785 0.099581 -0.067275 -0.008533 0.252180 -0.339853 0.042300 0.355183 0.009886 0.005754 0.277883 -0.327661 -0.172522 -0.224671 -0.010190 0.091703 -0.038844 0.142907 -0.070506 0.239577 -0.219258 -0.100470 -0.189915 -0.046818 -0.029044 -0.023954 -0.074386 -0.118628 0.010101 -0.005594 0.036830 -0.070220 -0.219730 -0.013261 0.085647 -0.131901 -0.063578 -0.293952 -0.172199 -0.344224 0.302540 -0.059421 0.160219 -0.110201 -0.163184 -0.265678 0.238404 0.169045 -0.140963 0.061636 0.113424 0.073929 -0.342698 0.104513 0.077241 0.094262 -0.264798 -0.125731 0.024939 -0.211980 -0.266183 0.135276 0.194694 -0.364039 0.217518 -0.043965 0.074395 0.112631 0.156983 0.021855 0.162842 -0.114862 0.195097 0.061171 -0.083106 0.078046 0.329730 -0.042302 -0.115895 -0.183883 0.487912 0.067376 0.025803 0.277189 0.195230 0.081954 -0.172730 0.112644 0.030102 0.015345 0.371614 0.219331 0.128178 0.119645 -0.206540 -0.033947 0.008772 0.106685 -0.112839 0.245560 -0.074185 0.271893 -0.541019 -0.037576 -0.125763 -0.285147 -0.088031 -0.179403 0.049944 0.009441 0.032624 -0.051635 -0.008165 0.117655 0.220498 0.247257 0.094575 -0.008078 0.152361 -0.147054 -0.227716 0.076797 0.072681 0.038999 0.122209
['Algeria'] -0.010140 0.052174 -0.212712 -0.296046 -0.125834 -0.014393 0.017566 -0.197875 0.208004 0.150872 -0.194316 -0.226246 -0.246629 -0.198110 0.099475 0.557276 0.040678 0.127235 -0.180196 0.035698 -0.514099 -0.020951 -0.247880 0.105360 0.212647 0.217842 0.021679 -0.108786 -0.050664 0.033957 -0.260571 -0.224388 0.040207 -0.255224 0.561495 0.437203 0.089734 0.039293 -0.372581 0.381033 -0.081728 0.047920 -0.351520 0.112983 -0.062522 -0.584647 0.246643 0.360771 -0.200200 -0.107244 -0.158592 0.176421 -0.000370 -0.045501 0.071063 -0.245958 0.267083 0.129073 0.003802 -0.241970 -0.095725 0.127074 0.415468 0.211400 0.160105 -0.203204 -0.237709 -0.117653 -0.364989 -0.052253 -0.149362 -0.173887 0.056323 -0.261910 0.049665 -0.051935 0.080786 -0.024711 -0.277930 -0.278436 0.050667 0.526986 0.130273 0.084392 -0.013317 0.160356 0.241780 -0.124632 -0.254279 -0.017794 0.139181 -0.363077 -0.102834 0.056753 -0.477518 0.160246 0.009357 0.092608 0.044650 0.282699 0.182011 -0.094293 -0.129717 -0.091473 -0.130499 -0.092397 -0.012441 0.165713 0.202214 -0.196570 0.337531 -0.000131 0.027615 -0.000379 -0.049982 -0.346829 -0.150825 0.380721 0.448774 0.185432 0.002574 0.115818 0.307317 0.207431 -0.175000 0.061506 0.031199 -0.111832 0.136981 -0.346104 0.231385 -0.048387 -0.355018 -0.364690 -0.538578 0.089107 -0.025277 0.006973 0.346097 -0.302958 -0.272062 -0.188327 0.086179 -0.357403 -0.211343 -0.426071 -0.004713 -0.263338 -0.311428 -0.070004 0.244723 -0.306206 -0.061405 -0.054784 0.223855 0.300445 -0.124855 0.061861 -0.124455 -0.046864 -0.200874 -0.006334 -0.184344 -0.285266 -0.042179 0.076571 -0.284732 -0.016846 -0.238745 0.011979 0.025414 0.198377 -0.088902 -0.029361 -0.126891 0.116257 -0.066672 0.247331 0.269312 0.007210 0.223142 -0.130372 0.174994 -0.047117 0.345529 -0.304476 -0.166486 0.021752 0.250813 0.469188 -0.255249 -0.200490 -0.025521 0.149329 -0.143336 -0.052344 0.114429 -0.039735 -0.516579 0.219641 -0.071311 0.034247 -0.318891 0.188196 0.000844 0.239856 0.469351 0.034237 -0.002413 0.262053 -0.238857 0.333332 0.152664 0.075633 -0.002794 0.204903 0.099377 -0.346764 0.110558 -0.116354 0.253844 0.067914 0.256952 0.140070 0.020846 0.219885 -0.259603 -0.251285 0.065153 0.128499 -0.201910 0.030219 0.263595 -0.255294 -0.144735 0.238801 0.016362 0.129622 -0.223123 0.332288 -0.100554 0.004826 -0.060181 -0.269586 0.748965 -0.202102 0.574906 0.400358 0.050981 0.276492 -0.191836 0.215683 0.193024 -0.126062 0.014413 0.091583
['Altruism'] -0.151809 -0.636587 -0.131279 -0.290072 0.133461 0.162810 0.200842 -0.127005 0.539090 0.346914 -0.278507 0.130425 -0.195677 -0.605723 0.386257 0.689811 -0.048496 0.028453 -0.091270 -0.092535 -0.086268 -0.522436 0.016128 -0.481157 0.329248 -0.036146 -0.055099 0.141794 -0.091804 0.004854 0.222427 0.050289 0.284041 -0.116288 -0.084526 0.365477 -0.150942 -0.027239 -0.130706 0.437233 0.155636 0.206324 -0.426447 0.295919 0.188184 -0.141390 0.326349 0.443195 -0.081425 0.007202 0.093173 0.135248 0.221030 -0.506434 -0.043985 -0.139297 -0.281837 0.148070 -0.025311 -0.241504 0.065544 0.109693 0.353875 -0.299491 0.059194 0.019118 -0.170013 -0.127064 -0.163061 0.077344 -0.015513 -0.323686 0.178133 -0.265246 0.162795 0.238645 -0.175697 -0.100268 -0.151328 0.008443 0.085607 0.357818 0.250567 0.137362 0.049484 0.536548 -0.034555 0.526298 -0.312032 0.086441 0.277102 -0.020745 0.074301 -0.123050 -0.093491 0.120702 0.164558 0.199695 -0.334752 -0.402991 0.063917 -0.003659 -0.651088 0.292368 0.191319 0.160208 0.309125 0.159628 0.060624 -0.047278 0.164910 -0.280036 -0.153593 0.607153 -0.041333 -0.293865 -0.227250 0.334169 0.537323 0.406946 0.216097 0.198634 0.241236 0.033343 0.149814 -0.031705 -0.039566 -0.048167 -0.132932 0.044039 0.210171 -0.728465 -0.277354 0.162050 -0.380120 0.143716 -0.474543 -0.116511 0.055705 -0.299341 -0.326765 0.376952 0.344209 -0.015385 -0.118879 -0.038973 -0.096132 -0.059946 -0.133433 -0.289028 0.344320 -0.010033 -0.070512 0.005839 0.309234 0.483077 0.046817 0.059910 0.324911 -0.246973 -0.077159 -0.054983 0.336670 -0.339117 0.168979 0.233627 -0.247029 -0.205397 -0.535290 0.110696 -0.122228 0.006097 -0.068657 -0.000267 -0.387388 0.395651 0.068214 -0.022762 0.239659 -0.006508 0.483748 -0.179068 0.144233 -0.000844 0.536647 -0.040024 -0.136733 -0.206398 -0.371493 0.691097 -0.122236 0.012051 -0.182796 0.171665 -0.037489 -0.053607 -0.007081 -0.260349 -0.097614 -0.049144 0.330923 0.256312 -0.283605 0.442562 -0.276626 0.358929 0.517945 0.346516 -0.178230 0.055743 -0.586837 0.300239 0.194714 0.060670 -0.130724 0.321756 0.116423 0.136333 -0.220058 0.057812 0.060711 0.038334 -0.042061 0.138732 0.114113 0.116666 -0.274508 -0.092846 0.107703 0.062204 0.080324 -0.106645 0.419561 -0.323232 0.045207 0.244765 -0.154612 0.069835 -0.111771 0.200769 -0.311986 -0.069066 -0.465490 -0.198310 0.371305 -0.174615 0.535564 -0.259494 -0.208668 0.136864 0.281545 -0.068124 -0.129122 -0.038406 -0.296909 -0.033309
['Actrius'] -0.065859 -0.300409 -0.487578 -0.376700 -0.230710 0.085083 -0.031514 0.030159 0.407996 0.665730 -0.112221 -0.165222 -0.250278 -0.307825 0.001494 0.302841 -0.176237 0.014059 -0.294441 -0.350745 -0.397194 -0.238592 -0.100416 -0.027583 0.491910 0.332117 -0.097502 -0.260064 0.072004 0.180127 0.030928 0.042585 0.311813 -0.201411 0.480939 0.406671 0.243692 -0.568218 -0.065441 0.210965 -0.137576 0.455159 0.353634 0.294765 0.110348 -0.569877 0.469737 0.515145 0.129497 0.266004 -0.362108 -0.014636 0.165948 -0.407290 0.049199 -0.352549 -0.029525 0.162819 -0.210361 -0.033904 0.385022 0.251208 0.263402 -0.034955 0.003634 -0.311122 0.282265 0.132824 0.098209 -0.050563 -0.143101 -0.210703 -0.342444 0.117134 0.076534 0.082497 -0.011794 0.002178 -0.099510 0.048344 0.300825 0.246273 0.404722 -0.131898 0.210129 -0.118840 0.053237 0.280936 -0.057544 -0.399191 -0.201699 -0.434174 -0.191665 0.013933 -0.484752 0.094023 0.544056 -0.018025 0.186819 -0.007893 0.295661 0.202066 -0.325313 -0.010783 0.080985 -0.174903 0.373914 0.212469 0.147888 -0.055002 0.389221 -0.164571 -0.258951 0.402365 0.110161 -0.130417 -0.158785 0.349853 0.047005 0.100471 0.221572 0.156602 -0.131154 0.173213 -0.100640 -0.266895 -0.407397 -0.281261 0.048481 -0.208384 -0.203959 -0.196663 -0.246586 -0.044043 -0.601266 0.290882 0.198520 0.180247 -0.203289 -0.167521 -0.016322 0.101048 0.122553 -0.099225 -0.389584 0.116817 -0.088175 -0.202273 0.293297 0.032176 0.360643 -0.093057 0.359606 0.050594 -0.110792 -0.140317 0.037535 0.542478 -0.083038 0.114132 -0.018916 -0.068984 -0.131115 -0.291456 0.234500 -0.083579 -0.314865 -0.048438 -0.223780 -0.036736 0.156878 0.240624 -0.168287 -0.000814 -0.172408 -0.241137 -0.290149 -0.381783 0.763379 -0.043394 0.275654 0.161692 0.086557 -0.005929 0.307908 0.140136 -0.190370 -0.281254 -0.330778 0.159192 0.082248 -0.560523 -0.059038 0.207145 -0.070888 -0.079716 0.489447 0.250823 -0.199109 0.051416 -0.160761 0.055420 -0.085191 0.452613 -0.277457 0.493115 0.362583 0.274719 -0.134528 0.219078 -0.271660 0.271884 -0.177465 0.264285 0.079779 0.360460 0.282090 -0.453661 0.126738 -0.235966 0.299661 0.310582 -0.030600 -0.128372 0.420464 0.008264 -0.524328 0.151594 0.154014 0.265602 0.030579 -0.072299 0.506347 -0.282470 0.117526 0.480115 -0.249503 0.067432 0.007342 0.259128 -0.061640 0.023386 -0.480387 -0.106851 0.315670 0.017273 0.232231 -0.178899 0.020702 0.047637 0.137249 -0.024420 0.324867 -0.269154 0.078461 -0.017181
['Autism'] -0.062687 -0.355397 -0.634692 -0.418370 -0.601676 -0.167508 0.123197 -0.029554 0.622161 0.503241 0.077154 -0.333445 -0.461709 -0.272062 0.349311 0.237348 -0.297949 0.249355 0.048840 -0.317902 0.117283 -0.436463 0.118723 -0.469727 0.672981 -0.262504 -0.036874 0.269760 -0.298728 -0.178212 0.455086 -0.393892 0.194423 0.152066 0.157862 0.202449 -0.106431 -0.482811 0.092122 0.120193 0.156186 0.192473 -0.256012 0.243661 0.429216 -0.437521 0.030836 -0.134982 0.191570 0.227298 -0.030312 0.303537 0.043125 -0.256233 0.197389 -0.136451 -0.318903 0.312579 -0.074878 -0.459796 0.161497 -0.304449 0.204052 -0.085313 0.183507 -0.244628 -0.138037 0.160200 -0.115065 0.097487 -0.188150 0.116661 -0.251300 -0.241087 -0.286207 0.254157 0.303799 0.105134 -0.484931 0.241649 0.114244 0.609523 0.274109 0.208867 0.206880 0.327428 -0.302708 -0.137801 -0.222869 -0.347407 0.080737 -0.297314 0.015498 0.236672 -0.410249 0.066280 0.373662 0.253777 -0.026240 0.025058 0.059654 0.062717 -0.288728 0.036486 -0.445940 0.043345 0.266859 0.356039 0.466228 0.252189 0.275431 -0.224957 -0.122330 0.578370 0.041350 0.169573 -0.286862 0.365793 0.553567 0.302238 0.164625 0.104903 0.087718 -0.105800 0.120013 -0.155581 0.269285 -0.180108 -0.052037 -0.327136 -0.275377 -0.184748 -0.244725 -0.028150 -0.324517 0.359342 -0.116032 -0.116210 0.027705 -0.217542 0.057590 0.304416 -0.173594 -0.560210 -0.075364 0.102087 -0.161147 0.046267 0.292577 -0.241317 0.293734 -0.001974 0.342934 0.301318 0.281258 -0.049946 0.097991 -0.036989 -0.520135 -0.134987 -0.093609 0.314788 0.191176 -0.005238 0.324628 0.069504 -0.084836 -0.106091 -0.342269 -0.274471 -0.362286 -0.035970 0.115990 0.074843 -0.088713 0.075992 -0.208463 -0.129325 0.228477 -0.185882 0.200159 0.026016 0.178779 -0.153746 0.292160 0.161530 0.197416 0.073173 -0.406681 0.342597 0.084575 -0.238419 -0.188710 0.470270 -0.036985 0.186341 0.086650 0.178173 -0.352831 -0.242962 0.013688 0.304035 -0.356220 0.378373 -0.311035 0.272760 0.154327 0.247302 0.166529 -0.202479 -0.122733 0.573827 -0.354025 0.346702 -0.062932 0.385260 0.408775 0.349281 0.026969 0.081574 0.297380 0.196612 0.244551 -0.082625 0.195686 0.294829 -0.257134 0.155883 -0.178287 -0.085910 0.027014 -0.042611 0.383210 -0.198988 0.559713 -0.002623 -0.224977 -0.141056 -0.139849 0.063324 -0.207686 -0.072973 -0.365044 -0.036252 0.290446 0.369222 0.025453 0.056719 -0.410087 0.151280 -0.154242 0.034271 0.096749 0.110843 0.106177 0.298114
['Achilles'] 0.241195 0.250708 -0.391812 -0.272535 0.065902 0.304980 -0.303874 -0.124075 0.429490 -0.515649 -0.346171 -0.048431 -0.231220 -0.368834 0.172525 0.316466 -0.043959 0.200874 0.309360 0.472029 0.031750 0.003002 0.141506 -0.280049 -0.253776 -0.166134 0.073619 0.115828 -0.189878 -0.255367 0.312553 -0.264453 -0.051421 -0.130705 0.369026 -0.086888 -0.129999 0.289711 -0.619659 0.222726 0.107181 -0.174109 -0.100493 -0.054657 0.107322 -0.612383 0.292394 0.232352 -0.284797 -0.003031 0.099706 0.201202 -0.069202 -0.345674 0.252143 -0.201417 -0.234015 -0.040305 0.299996 -0.463024 0.111961 -0.008250 0.219009 -0.395099 0.386875 0.367693 -0.406906 -0.106066 -0.427751 -0.134781 0.093920 -0.084627 0.094156 -0.399295 0.141093 0.193089 -0.061350 0.158372 -0.265938 -0.085315 0.174294 0.544807 0.151214 0.542725 0.150860 0.276366 -0.226698 0.201510 -0.082796 0.067937 0.172335 0.147525 0.400129 0.190036 -0.194990 0.119964 0.114225 0.431963 -0.219784 -0.034219 0.039605 -0.262425 -0.275736 0.049100 -0.267378 0.217035 -0.030178 0.392822 0.260014 -0.234830 0.034578 0.128789 0.060093 -0.176605 0.394904 -0.510404 -0.207213 0.319011 0.376177 0.519162 -0.143075 0.544633 -0.229332 -0.131401 -0.171748 0.317571 0.366164 -0.122957 0.071821 0.091981 -0.008574 -0.080854 -0.559386 0.299471 -0.192246 0.351965 -0.274468 0.153549 0.262207 -0.144803 -0.118157 0.313399 -0.176780 -0.597899 0.090741 -0.242323 0.003085 0.161172 -0.229911 -0.383880 0.167818 -0.339629 -0.157967 0.088820 -0.128359 0.443623 -0.194105 -0.117177 -0.155312 -0.292631 0.254124 -0.157718 -0.096686 -0.136673 -0.155733 0.192874 -0.277889 -0.494798 -0.441814 -0.227729 -0.236437 0.233930 0.085880 -0.193983 -0.280058 0.329065 0.195950 0.210004 0.259014 0.183439 0.514694 -0.051413 0.348839 -0.203092 0.548950 -0.408214 -0.214544 -0.083784 -0.250255 0.408771 -0.263180 -0.132890 0.043390 0.168938 0.166801 -0.170964 0.092827 -0.143917 -0.014272 0.111962 0.382722 0.186262 -0.202978 0.204643 -0.075068 -0.103349 0.129516 0.028533 -0.172603 0.164399 -0.212464 0.142598 0.344070 0.150957 -0.010059 0.400717 0.644682 0.267431 -0.396257 -0.109645 0.194614 0.100798 0.209274 -0.042078 0.076557 0.221077 -0.029695 0.226263 0.017404 0.005627 0.117750 -0.201933 -0.099244 -0.466877 0.169403 -0.005994 0.057121 0.097449 -0.553444 0.247397 -0.261784 0.298923 -0.144210 -0.606558 0.383634 0.024571 0.835136 -0.012702 0.187802 0.044450 0.192561 0.099668 -0.056545 0.048074 -0.153279 0.005240
['Albedo'] 0.160644 -0.044580 -0.587585 -0.383292 -0.150495 -0.096294 -0.167596 -0.128224 -0.060038 -0.107651 -0.100082 -0.004593 -0.292789 -0.508468 0.196626 0.052425 0.170876 0.170383 0.357895 -0.332388 0.176065 -0.328709 0.030082 -0.085574 0.478923 0.148125 -0.140977 0.186205 0.338691 -0.347015 0.230813 -0.175634 0.126892 0.040482 0.481855 -0.024682 0.095023 -0.199321 -0.292863 -0.024061 -0.206420 -0.108450 0.144070 0.321363 -0.105998 -0.805569 0.220734 0.393436 -0.326493 0.233575 0.124971 0.079027 0.070797 -0.332550 0.106204 -0.535656 -0.534153 0.069101 -0.087796 -0.157108 -0.086657 0.262618 -0.328638 -0.288487 0.163889 -0.174795 -0.004775 0.212199 0.122152 0.186977 0.420569 0.045244 -0.054856 -0.017167 0.037454 0.300459 0.113620 0.139362 -0.082652 0.294696 0.095638 0.498038 0.305507 0.064763 0.164959 -0.351152 -0.087132 0.324942 0.024394 -0.117789 0.050546 0.117262 0.016810 0.063677 -0.224103 0.295966 0.388624 0.075662 0.364354 -0.058131 -0.038435 -0.126406 -0.173649 0.077719 -0.149719 0.067854 0.241838 0.192046 0.422802 -0.210961 0.004732 0.279384 0.012256 0.021525 0.157747 -0.355450 -0.248116 -0.002378 0.579334 0.408937 0.267769 0.312220 -0.288064 -0.162986 -0.207425 -0.122389 -0.382447 -0.467407 -0.063649 -0.101446 -0.373257 0.064057 -0.245141 0.433631 -0.272719 0.459595 0.003701 0.104954 -0.275234 -0.197179 -0.160406 0.440255 -0.461379 -0.425826 0.004572 -0.028014 -0.136382 0.150981 0.044518 -0.435983 0.212413 -0.373962 0.123932 -0.037169 0.127877 -0.010198 0.187016 0.200397 -0.114981 -0.158534 0.119834 -0.364170 0.328525 -0.062013 0.079434 -0.060567 -0.345071 -0.452372 -0.382635 -0.508358 -0.087346 0.196610 -0.005051 0.182468 -0.020723 -0.038044 0.258973 0.028515 0.679739 -0.016078 0.378116 0.377260 0.352379 -0.253539 0.364443 0.035375 -0.260177 -0.191039 -0.556124 0.286911 -0.194328 -0.870020 -0.207477 0.597577 -0.189570 -0.170928 0.643885 -0.075762 0.219483 0.305993 0.192298 0.362624 -0.395900 0.651295 -0.217356 0.185026 0.235291 0.132449 0.276304 0.119365 -0.186796 0.161710 -0.002639 0.262413 0.024347 0.466256 0.649978 0.307143 -0.062973 -0.481789 -0.007996 0.496907 0.207972 0.056172 0.653121 0.022544 -0.314373 0.454082 0.134665 -0.016353 0.135430 -0.347707 0.078951 0.116291 0.368054 -0.088515 -0.012933 -0.081675 0.032044 0.140380 -0.196498 -0.012129 -0.299447 -0.378042 0.328246 -0.229733 0.309416 -0.118360 0.009236 0.238356 0.203592 0.105451 0.161848 -0.046104 0.297360 -0.015539
['Alabama'] 0.372089 -0.027390 -0.221647 0.033981 -0.047566 0.120746 0.029667 -0.113639 0.397181 -0.072466 -0.333678 -0.127770 -0.232455 -0.590044 0.072566 0.418450 0.022336 0.067928 0.115802 -0.070837 -0.419020 -0.369336 -0.098420 0.107763 0.118500 0.401219 0.005485 -0.143027 0.198312 -0.055427 0.304514 -0.237770 0.041378 -0.208470 0.606135 0.009640 -0.208471 -0.266363 -0.680443 0.042612 0.342753 0.167231 -0.275313 0.228603 -0.222803 -0.213197 0.083563 -0.066636 0.040802 -0.138780 -0.049575 0.407328 -0.173451 -0.312497 0.214536 -0.319973 0.192061 -0.074434 -0.102525 0.029812 0.045399 -0.082443 -0.063093 -0.319361 0.036364 -0.092979 0.163571 -0.078485 -0.317559 0.149799 -0.126347 0.277182 0.115571 -0.055039 0.013688 0.410857 0.196254 0.423910 -0.308950 0.428490 0.088924 0.752963 0.321563 0.188820 0.082827 0.049215 -0.231850 -0.013249 -0.050888 -0.081121 0.193776 -0.049980 -0.094499 0.184836 -0.310574 0.251903 0.245936 0.468859 -0.142399 0.218736 0.280445 0.204374 -0.083435 -0.114584 -0.400724 0.251636 -0.181625 0.153941 -0.079993 -0.195994 0.194251 0.081351 0.391306 0.369749 -0.281184 -0.414150 -0.077244 0.516383 0.519754 0.327482 0.087609 0.176803 -0.156031 -0.268919 -0.176708 -0.264257 0.025652 -0.238868 -0.375306 -0.284878 -0.378033 -0.005762 -0.373454 0.069340 -0.087004 0.197662 0.078825 -0.280244 -0.092729 -0.417582 -0.187590 0.324881 -0.314672 -0.419445 -0.086590 0.274729 0.009689 0.273654 -0.146145 -0.290018 0.429186 -0.060811 0.127704 0.264414 0.071646 0.017063 -0.322797 0.390187 -0.355606 -0.205884 0.017383 0.112796 0.137732 -0.223643 0.270120 0.045009 -0.128023 -0.096031 0.225704 0.058893 -0.366412 -0.297155 0.002492 -0.103311 -0.138224 -0.032624 -0.204615 0.122699 0.443005 0.225576 0.368623 0.222340 0.366589 -0.581801 0.073051 0.235817 -0.032033 0.080183 -0.003128 0.449409 -0.446261 -0.364359 0.079318 0.053479 -0.363032 -0.177281 0.115315 -0.210264 -0.338616 -0.062022 0.188863 -0.177578 -0.295684 0.549732 -0.070733 0.365593 0.359960 0.043245 0.111854 0.194984 -0.073140 0.400990 0.232610 0.375397 0.115583 0.536301 0.669372 -0.209168 -0.501285 -0.051621 0.048517 0.330616 0.257775 -0.093286 0.235774 0.158833 -0.616886 0.143740 0.149884 0.004436 0.122658 0.140748 0.397754 -0.196333 0.256500 -0.084427 0.077178 -0.335156 -0.475878 -0.017928 -0.282924 0.274757 -0.023638 -0.459085 0.604656 0.041535 -0.078601 0.153853 -0.098756 0.066413 -0.166755 0.258302 0.116931 -0.185630 0.183010 0.110703
['An_American_in_Paris'] -0.071349 -0.036565 -0.722805 -0.276087 -0.200891 0.172328 0.025854 0.086353 0.878598 0.342386 -0.431321 0.079540 0.201445 -0.338526 0.255550 0.666777 -0.279117 0.198623 0.050088 0.190078 -0.315819 -0.277148 -0.244728 -0.347825 0.213531 -0.022285 -0.040373 -0.402843 0.042446 -0.048036 0.148340 -0.210765 0.113343 0.072078 0.176481 0.275977 -0.283156 -0.305841 -0.153363 0.494648 0.463007 0.463340 0.048267 0.202986 0.254528 -0.619719 0.360129 0.468937 0.130605 -0.067373 -0.024504 -0.098245 -0.178209 -0.197842 0.335714 -0.001223 0.140825 0.062454 0.214865 -0.422103 0.101587 0.044366 0.438025 -0.382053 0.113392 -0.040229 -0.307934 -0.147136 -0.357396 0.069260 -0.128689 0.114808 -0.537897 -0.067589 0.073787 0.019846 0.075744 0.114150 -0.139586 0.129483 0.060938 0.249752 0.214158 0.128466 0.309681 -0.104397 -0.611936 -0.030691 -0.091412 -0.424771 0.175765 -0.202529 0.084747 0.069478 -0.456108 0.065566 0.427034 0.762626 -0.112623 0.184268 0.258002 -0.199043 -0.176758 -0.288371 -0.315542 0.315620 0.118613 0.447413 0.260639 -0.072032 0.245013 -0.105828 0.001686 -0.337657 0.094969 -0.316760 -0.171097 0.431224 -0.010682 0.588736 -0.115171 0.054620 0.204050 -0.018234 0.040784 0.381970 0.227538 -0.087165 0.006477 0.002720 0.015997 0.168633 -0.414902 0.007362 -0.302245 0.276185 0.432724 0.061290 0.231882 -0.223732 -0.230879 0.162548 0.001937 -0.339523 -0.287739 0.046046 0.027952 0.035904 0.220046 -0.439690 0.330929 0.016683 0.065485 0.063551 0.592727 0.422806 0.032869 0.347400 -0.069696 -0.067667 0.068603 0.158047 -0.114841 -0.141966 0.299571 -0.245269 -0.090128 -0.310990 -0.287935 0.180641 -0.035288 0.075758 -0.232215 0.028796 -0.049858 0.278341 -0.113178 -0.109297 0.158422 -0.065039 0.679458 -0.396830 0.220350 -0.110855 0.594030 -0.192038 -0.001852 -0.018003 -0.476285 0.506706 0.021283 -0.157796 0.182777 -0.285184 -0.039368 0.102221 0.177664 -0.132685 -0.138296 -0.246154 -0.073897 0.098190 -0.433584 0.528542 -0.462587 0.498688 0.267599 -0.008411 -0.312582 0.138662 -0.170911 0.746476 0.141175 0.166468 0.227453 0.362828 0.554310 -0.114117 -0.043574 -0.208419 0.009814 0.512710 -0.348812 -0.262280 0.258781 0.053708 -0.195320 -0.162580 0.189656 0.456919 0.100510 0.172264 0.246811 -0.395796 0.007726 0.254380 -0.029183 -0.106791 -0.277574 0.277898 -0.115649 0.351899 -0.360647 -0.514046 0.420102 0.204050 0.248431 -0.365945 0.097379 0.234251 0.062060 -0.151957 0.291983 -0.306577 -0.052062 0.100048
['Alchemy'] 0.082522 -0.395539 -0.402670 -0.181560 -0.486140 0.218591 -0.011309 -0.051587 0.461138 0.132833 -0.112503 0.140764 -0.827199 -0.390687 0.060064 0.535594 0.353521 -0.144986 -0.053645 -0.345688 -0.272311 -0.429855 -0.028714 -0.216284 0.005731 0.281498 0.084603 0.235845 -0.036242 -0.103319 0.072064 0.139968 -0.069502 0.048909 0.660219 0.029829 0.354081 0.653285 -0.527503 0.207223 -0.242450 0.015475 -0.253796 0.239488 -0.015722 -0.180013 0.375930 0.454093 -0.179402 0.326163 -0.095724 0.343024 0.349443 -0.797382 0.154323 -0.298789 -0.519048 -0.177404 -0.055332 0.084672 0.099553 0.033655 0.065346 0.096724 0.396644 0.010109 0.022902 -0.120525 -0.366123 -0.154406 0.156239 -0.338706 -0.309141 -0.213663 -0.170229 0.386907 0.111525 0.054585 0.016826 -0.184025 0.228268 0.811935 0.235557 0.221112 0.297510 0.445143 0.240419 0.293031 -0.148673 0.163783 0.043424 -0.563429 0.149557 -0.103065 -0.162019 0.210777 -0.041489 0.118033 0.223915 0.082480 0.252885 0.066125 -0.409078 0.282894 -0.367674 0.009508 0.223432 0.231384 0.382051 -0.380898 0.222899 -0.272278 0.061797 0.691867 0.115131 -0.333424 -0.041162 0.176862 0.427472 0.097165 0.349065 0.404395 -0.248255 0.271186 0.046974 -0.060895 0.041875 -0.279032 -0.338109 -0.062075 -0.367709 -0.226206 -0.681242 -0.346206 -0.427345 0.550056 -0.477746 0.144427 -0.435126 -0.454574 -0.090120 0.468689 0.017419 -0.348724 0.234471 -0.153128 0.064291 -0.183437 -0.207172 -0.439092 0.290300 -0.299476 -0.073000 -0.047170 -0.206412 0.346813 -0.066419 0.165784 -0.176813 -0.367441 0.032130 0.020164 -0.209254 -0.172757 0.164298 0.328140 -0.330776 -0.235453 -0.389440 -0.751615 0.248352 0.028888 -0.137883 0.025449 -0.264747 0.080747 0.026944 0.102037 0.694333 0.419214 0.258089 -0.010776 0.504933 -0.148989 0.448197 0.307582 -0.301276 -0.020206 -0.451739 0.772601 -0.130409 -0.464116 -0.363685 0.542517 0.039856 -0.510247 0.309431 0.130967 -0.117621 -0.001451 0.362471 -0.169913 -0.502317 0.436083 -0.334000 -0.075206 0.574284 0.023211 0.157288 0.228514 -0.034679 -0.147009 0.151007 -0.004703 -0.108419 0.708958 0.323797 0.144689 0.050350 -0.390282 0.579545 -0.002497 0.619446 -0.219970 0.259720 0.594214 -0.446109 -0.110719 -0.071003 -0.054924 0.094197 -0.367569 0.375782 0.352136 0.210980 0.131556 -0.034009 0.182140 -0.205103 0.247572 -0.290783 0.294300 -0.051143 -0.365029 0.692437 -0.095646 0.557532 0.391813 -0.324279 0.423037 0.196148 0.401816 0.093037 0.062794 -0.047996 0.250755
['ASCII'] -0.172327 -0.183786 -0.614912 -0.301614 -0.184542 0.110002 0.208972 -0.032663 0.218944 -0.045257 -0.411197 0.193239 -0.472857 -0.572708 0.200524 0.794475 0.353143 0.038354 -0.027290 0.015276 0.000240 -0.611311 -0.177088 -0.222952 0.422759 -0.080736 -0.044037 0.383607 0.004190 -0.598417 0.313619 -0.167126 0.275379 0.191601 -0.019356 0.053120 -0.111914 0.336648 -0.606937 -0.091196 0.211790 -0.102469 -0.828873 0.159185 -0.165841 -0.417499 0.141833 -0.002603 -0.410896 -0.148559 0.438206 0.557852 0.003795 -0.284585 0.288109 0.072702 -0.084901 0.129242 0.289227 -0.080972 -0.014512 -0.209555 0.211443 0.069252 0.489468 0.068335 0.002406 -0.228545 -0.312157 0.272145 0.205479 -0.053875 -0.117606 -0.150137 -0.263992 0.172153 0.028890 0.197247 -0.035686 0.063317 -0.121197 0.532465 0.298047 -0.089106 0.749762 0.347935 -0.109975 0.240771 -0.486428 -0.025640 0.454805 -0.203045 -0.118636 -0.007813 -0.296237 0.343911 0.108011 0.035742 -0.000200 0.169258 -0.178149 -0.486253 -0.290171 0.070967 -0.382259 0.279848 -0.136562 0.201588 0.234064 -0.052935 -0.046358 0.322992 0.351225 0.373060 -0.350673 -0.106126 -0.217709 0.183448 0.423622 0.767662 0.470371 0.143579 0.111924 0.081120 0.043314 0.240017 0.328160 -0.083047 -0.401512 -0.091281 -0.103267 -0.098264 -0.226016 -0.134216 -0.151739 0.480698 -0.229122 -0.186410 0.135834 -0.397343 -0.164870 0.372036 -0.075481 -0.499095 0.156439 0.169937 0.191361 -0.009286 0.129001 -0.565868 0.180378 -0.081213 -0.277989 -0.256173 0.570429 0.274665 -0.149078 0.232532 -0.368137 -0.076648 -0.163142 0.014957 -0.235661 0.363977 0.374758 -0.209124 0.022516 -0.440570 -0.333231 -0.483895 -0.158889 -0.071912 -0.024594 0.429399 -0.080897 0.152025 0.276676 0.576959 0.028004 -0.227762 0.073334 0.007119 0.535176 -0.290982 0.309486 0.098393 0.016625 0.225932 -0.319180 0.442836 -0.416326 -0.102405 -0.284983 0.348186 0.011629 -0.093189 0.117008 -0.331200 0.066239 -0.058205 0.302550 0.279768 -0.384218 0.436535 -0.416097 0.008645 0.415641 -0.069326 0.020571 0.142705 0.201389 0.203076 0.276916 0.163530 0.143392 0.633844 0.201079 0.356858 -0.074741 -0.047476 0.225745 0.204395 -0.177865 -0.108999 0.306851 0.294016 -0.614659 -0.214046 0.386436 -0.155560 0.029848 -0.240125 0.100763 0.109776 0.074965 -0.279371 -0.003895 -0.322742 -0.357533 -0.089252 -0.177800 0.248135 -0.275103 -0.345303 0.500191 0.050159 0.302398 0.398417 -0.443762 0.148528 -0.327998 0.316733 0.483578 0.182990 -0.005271 0.330952
['Astronomer'] -0.095074 -0.248706 -0.434512 -0.341227 -0.163743 0.010559 -0.056110 -0.096126 0.507088 0.216261 -0.199960 -0.100900 -0.213160 -0.563974 0.119844 0.549984 -0.158631 0.124587 -0.134513 0.027644 -0.390635 -0.182427 -0.133293 -0.067339 0.403706 -0.020161 0.011356 0.056838 -0.056740 -0.155526 0.155302 -0.311002 0.257405 -0.196942 0.363111 0.193931 0.094962 -0.149606 -0.501060 0.195809 -0.151984 0.098705 -0.162708 0.136079 -0.046739 -0.530639 0.376723 0.309462 -0.309120 0.108072 -0.021917 0.330163 0.128330 -0.302687 0.277272 -0.289530 0.037069 0.024728 0.169215 -0.289096 0.222391 0.109268 0.415224 -0.252182 0.348548 -0.023681 -0.032061 -0.000757 -0.172264 0.163427 0.081104 -0.248602 -0.124211 -0.222600 0.069656 0.102580 -0.006356 0.197841 -0.164053 0.243409 0.114343 0.552505 0.342146 0.039653 0.322245 0.019917 -0.048118 0.260214 -0.146474 -0.037663 0.021562 -0.357859 0.005874 0.117652 -0.382437 0.124511 0.300344 0.070988 -0.042416 0.131935 0.146908 -0.070610 -0.375264 0.164365 -0.170130 -0.043063 0.127126 0.242801 0.286383 -0.014420 0.325084 0.045945 0.098481 0.265445 0.054162 -0.232672 -0.276036 0.428858 0.603648 0.477021 0.168247 0.414615 -0.188325 -0.001460 -0.253552 0.163911 0.134248 -0.200000 -0.151864 -0.130641 0.004673 -0.274883 -0.317655 0.018142 -0.409653 0.328210 -0.253651 0.019177 0.123274 -0.349830 -0.068759 0.261334 -0.141217 -0.432732 -0.116968 -0.014024 -0.042952 -0.107315 0.120173 -0.329540 0.392242 -0.247026 0.086432 -0.062800 0.046328 0.164023 -0.078169 0.179394 -0.226698 -0.043895 -0.117214 -0.109355 -0.181459 -0.143779 0.050605 -0.024896 -0.363400 -0.349438 -0.384403 -0.107817 -0.033167 0.195446 -0.158699 0.122195 -0.145308 0.027498 -0.021399 0.099944 0.451336 -0.077314 0.300700 -0.038969 0.312600 -0.275474 0.415506 -0.135407 -0.001771 -0.087360 -0.141721 0.358339 -0.284328 -0.290075 0.121228 0.323194 -0.189037 -0.105660 0.329938 -0.010686 -0.180623 0.104893 0.142335 0.209023 -0.346961 0.398383 -0.139051 0.232211 0.369108 0.187865 -0.024389 0.063737 -0.301296 0.300695 0.121727 0.205773 0.188624 0.498816 0.462585 -0.195239 0.056788 -0.057027 0.209077 0.187117 0.085344 0.120856 0.227434 -0.040582 -0.420968 0.078533 0.132370 0.172256 0.102468 -0.035039 0.387143 -0.542780 0.156030 0.171296 -0.099794 -0.046070 -0.240263 0.211894 -0.206187 0.074955 -0.278262 -0.204375 0.453487 0.076700 0.542345 0.187137 -0.176255 0.158743 -0.041183 0.118950 0.186218 -0.052041 0.038101 0.223627
['Academy_Award_for_Best_Production_Design'] 0.032198 -0.275521 -0.306628 -0.204775 -0.114550 -0.008167 0.033356 -0.165288 0.665740 0.392087 -0.202205 0.108755 -0.245938 -0.581193 0.251908 0.433011 0.044624 -0.267111 -0.202666 0.187672 -0.215424 0.255500 0.191373 -0.157887 0.037479 0.325346 0.143788 0.295772 -0.300713 0.373482 0.062496 -0.069883 -0.104861 -0.241092 0.145763 0.159273 0.123829 0.048073 -0.436397 0.510063 -0.151180 0.382086 -0.037617 -0.093327 0.177879 -0.129236 0.537450 0.084837 -0.333947 0.168743 -0.254565 -0.050257 0.140925 -0.287835 0.256958 -0.273763 -0.304991 0.010797 -0.005610 0.050025 0.075897 0.313074 0.434046 -0.319267 0.448735 0.266510 0.060396 -0.067256 -0.041982 -0.300434 0.192120 -0.444844 -0.004936 0.065491 0.263455 0.040893 -0.169494 0.220513 -0.216120 -0.120140 0.383046 0.342556 0.126613 0.279285 0.239377 0.322972 0.169933 0.436045 -0.081677 0.108408 -0.247569 -0.357929 0.160717 0.253710 -0.175755 -0.259388 0.091267 0.173250 -0.362599 -0.134590 0.135571 0.049549 -0.384968 0.287999 0.196211 0.095717 0.389036 0.574563 0.059838 -0.292696 0.672635 -0.233563 0.222808 0.361658 0.265445 -0.260788 -0.068430 0.717448 0.313379 0.006074 0.618936 0.849047 -0.685215 -0.284583 -0.145766 0.433366 0.329861 -0.362375 0.058696 0.204699 0.061227 -0.551479 -0.400430 -0.002295 -0.381108 -0.054426 -0.347243 0.281041 0.090046 -0.107335 0.393001 0.556152 -0.091994 -0.215433 0.062315 -0.204552 -0.033802 -0.129940 -0.130112 -0.450642 0.562135 -0.136284 0.429604 -0.122522 -0.635429 0.202824 -0.540616 0.642421 -0.126562 -0.184814 0.074525 0.027646 -0.231014 -0.011482 -0.137475 0.339788 -0.478902 -0.303551 -0.260311 0.129175 0.154211 0.214238 -0.449297 0.135148 -0.369511 -0.175689 0.098689 -0.366673 0.739235 0.016561 0.043352 0.027195 0.304497 -0.283242 0.360666 0.164220 -0.217416 -0.526994 -0.525451 0.378004 -0.156452 -0.406960 0.003528 0.359933 0.291243 -0.081966 0.446229 0.410842 -0.209149 0.230078 -0.099761 0.007481 -0.018514 0.343820 0.036803 -0.061761 0.335176 -0.034153 0.027433 -0.205680 -0.590747 -0.103524 0.057887 0.067222 0.035051 0.158885 0.277053 -0.078918 -0.030700 0.293312 0.593097 -0.049856 0.290012 0.073223 0.525907 -0.062084 -0.355080 -0.099124 -0.259506 0.125587 0.200393 0.138529 0.448745 -0.339451 0.373703 0.344186 -0.112826 0.213171 0.041936 0.073960 -0.227340 0.148588 0.099105 -0.066470 0.525247 -0.119925 0.650795 0.091729 -0.198695 0.096635 0.195697 0.160599 -0.184787 0.027467 -0.082252 0.564651
['American_Football_Conference'] -0.092735 -0.294611 -0.468682 -0.367988 -0.181502 0.016489 -0.083142 -0.110315 0.560210 0.247617 -0.189189 -0.108811 -0.203849 -0.585759 0.130489 0.579952 -0.171380 0.132537 -0.125336 0.002484 -0.409014 -0.190404 -0.131726 -0.071756 0.422750 -0.065177 -0.001941 0.066636 -0.056431 -0.177630 0.158454 -0.333529 0.275042 -0.193777 0.376251 0.182159 0.113872 -0.130785 -0.554707 0.214798 -0.187457 0.105606 -0.163978 0.145367 -0.039671 -0.536557 0.426136 0.332596 -0.336531 0.125454 -0.015728 0.356625 0.160756 -0.353485 0.285032 -0.304562 0.026669 0.016844 0.185172 -0.289729 0.219690 0.103532 0.469327 -0.300520 0.396888 -0.016910 -0.045263 0.004228 -0.172521 0.190775 0.085664 -0.258756 -0.179792 -0.243105 0.076447 0.128956 -0.014841 0.233195 -0.152332 0.287961 0.119209 0.584122 0.348433 0.026614 0.340211 0.010400 -0.049482 0.295291 -0.133735 -0.027701 0.012210 -0.398562 0.022415 0.125377 -0.400885 0.125302 0.337453 0.095991 -0.047910 0.142076 0.160046 -0.076929 -0.386689 0.178980 -0.206634 -0.036953 0.137017 0.239754 0.326406 -0.002254 0.369057 0.044377 0.106052 0.280300 0.057212 -0.267284 -0.309868 0.443336 0.668082 0.507825 0.207066 0.444765 -0.229436 -0.028468 -0.287879 0.182404 0.148418 -0.190049 -0.189897 -0.105652 -0.013103 -0.277593 -0.327527 0.038495 -0.417173 0.370758 -0.270579 0.032527 0.122352 -0.366949 -0.077281 0.299437 -0.181805 -0.460911 -0.130730 -0.010157 -0.030231 -0.146533 0.170096 -0.367141 0.430012 -0.273071 0.079077 -0.067875 0.050669 0.153248 -0.076000 0.175343 -0.236484 -0.051589 -0.127687 -0.114497 -0.201320 -0.186982 0.041256 -0.014105 -0.396838 -0.382690 -0.402414 -0.142244 -0.036795 0.213362 -0.190241 0.123677 -0.152383 0.010023 -0.031119 0.128322 0.494849 -0.061597 0.335846 -0.069046 0.331937 -0.307587 0.444387 -0.107893 0.004650 -0.093766 -0.163447 0.401570 -0.298236 -0.301009 0.159574 0.351989 -0.235310 -0.109210 0.350285 0.017755 -0.162025 0.087611 0.168023 0.230089 -0.398891 0.443994 -0.165327 0.230724 0.383438 0.230459 -0.023744 0.057767 -0.311542 0.324461 0.141775 0.188497 0.228356 0.549459 0.480240 -0.215263 0.080460 -0.075801 0.217920 0.218764 0.090607 0.114109 0.223864 -0.063078 -0.452811 0.105969 0.152415 0.202914 0.148134 -0.031396 0.403720 -0.589100 0.181475 0.145100 -0.117054 -0.070273 -0.235776 0.233585 -0.214429 0.089839 -0.286554 -0.206248 0.456631 0.097249 0.565587 0.198915 -0.200119 0.176792 -0.044071 0.092131 0.201568 -0.049824 0.044830 0.252196
['Anthropology'] -0.057585 -0.162584 -0.338398 -0.222158 -0.268485 0.183509 -0.070804 -0.005090 0.859160 0.337310 -0.160332 0.441126 -0.401645 -1.025683 0.242790 0.406584 0.029325 0.051594 -0.094486 -0.039658 -0.012038 -0.572810 -0.010352 -0.214474 0.418530 -0.026091 -0.315869 0.153348 0.214570 -0.078132 0.558092 0.198050 0.385134 -0.013342 0.023163 -0.117551 -0.031955 -0.074938 -0.424771 -0.140656 0.308807 0.371488 0.150184 0.132891 0.161118 -0.336305 0.502357 0.219180 0.184972 -0.021073 0.096936 -0.001643 -0.190408 -0.357974 0.186405 -0.102567 -0.273082 -0.109704 0.007371 0.127115 0.138436 -0.011501 -0.022438 -0.459319 0.416662 0.366346 0.644277 -0.024701 -0.479761 0.001813 0.066691 -0.228122 -0.303264 0.021533 -0.160458 0.103457 -0.017493 -0.069320 0.066487 0.298438 0.275808 0.378356 0.604491 0.260736 0.784053 0.137416 -0.360414 0.607775 -0.323713 -0.462922 -0.071956 -0.176644 0.066989 0.066753 -0.292449 0.287318 0.484532 0.421822 -0.148874 -0.292484 0.016384 -0.013374 -0.414684 -0.047038 -0.131775 0.280424 0.259407 0.316374 0.299070 -0.071400 0.241549 -0.037176 0.044266 0.630891 0.177718 0.002378 0.115543 0.341317 0.257112 0.474223 0.523333 0.277368 -0.273039 -0.412535 -0.158428 0.404286 0.216084 -0.104980 0.012198 0.351661 -0.301891 -0.283173 -0.258207 -0.180045 -0.117551 0.284452 -0.151239 0.290323 -0.119112 -0.342242 0.287624 0.662670 -0.143305 -0.114065 -0.133805 0.513151 0.264443 0.233087 0.206953 -0.572907 0.363382 -0.139932 0.213853 -0.028812 -0.353553 0.249404 -0.120709 0.618712 -0.105867 -0.270982 0.068299 0.008568 -0.237982 0.046767 0.416255 -0.057542 -0.124558 -0.262248 -0.258980 -0.585873 0.167412 -0.159442 -0.300857 0.049205 -0.443087 -0.089378 -0.202759 -0.176359 0.461591 -0.026164 0.141724 0.275909 0.471395 -0.307313 0.301104 0.371365 -0.075000 -0.334168 -1.066403 0.262621 0.058341 -0.303680 -0.090614 0.223141 -0.058539 -0.258901 0.238193 -0.115521 0.141677 -0.126115 0.151871 -0.145721 -0.219604 0.742155 -0.437945 0.005739 0.373664 -0.103864 -0.132648 -0.016108 -0.083434 0.451102 -0.128900 0.441381 -0.036424 0.685750 0.471746 0.173368 -0.249651 -0.250572 0.199984 0.383068 0.132964 -0.264804 0.831156 0.239301 -0.491831 0.139375 0.333289 0.078046 0.418714 -0.066942 0.639499 -0.365937 0.333038 0.248596 -0.171423 -0.089899 -0.250744 0.098969 -0.190851 0.495662 -0.244065 -0.524237 0.139646 0.206389 0.245343 -0.265444 -0.506430 0.251391 0.073855 -0.158892 0.142035 -0.004270 -0.151595 0.242033
['A'] -0.108212 -0.296417 -0.468351 -0.379479 -0.176487 0.010207 -0.089201 -0.116784 0.573426 0.237495 -0.196818 -0.114676 -0.200976 -0.614339 0.123511 0.602306 -0.180844 0.141991 -0.136499 0.020760 -0.440875 -0.184102 -0.146022 -0.061065 0.428002 -0.077027 0.005164 0.074155 -0.059731 -0.190277 0.152193 -0.359718 0.286113 -0.210047 0.393052 0.182576 0.123660 -0.125385 -0.590541 0.214921 -0.210807 0.092651 -0.179772 0.143558 -0.063662 -0.548999 0.436072 0.341964 -0.369078 0.123082 -0.009350 0.378507 0.171947 -0.353437 0.304945 -0.315995 0.050964 0.012587 0.202746 -0.305893 0.227083 0.110072 0.498946 -0.314151 0.414455 -0.009798 -0.055856 0.001622 -0.180888 0.203284 0.094615 -0.277089 -0.180777 -0.257469 0.078061 0.121327 -0.020502 0.251177 -0.149639 0.305738 0.114073 0.602167 0.362504 0.027822 0.354044 -0.002064 -0.041341 0.302818 -0.133500 -0.005293 0.013182 -0.416601 0.021445 0.134970 -0.417959 0.126415 0.338777 0.083395 -0.050759 0.160355 0.169516 -0.087572 -0.393270 0.195648 -0.217605 -0.048695 0.132148 0.239692 0.339876 0.006905 0.377802 0.063180 0.125292 0.280884 0.054775 -0.282030 -0.319082 0.456019 0.702020 0.533792 0.201931 0.464464 -0.244048 -0.020128 -0.311822 0.202264 0.172385 -0.188569 -0.205371 -0.109622 0.005566 -0.288859 -0.333139 0.041439 -0.431361 0.380611 -0.288857 0.027318 0.138845 -0.377228 -0.082527 0.301136 -0.189852 -0.483977 -0.133014 -0.011090 -0.025166 -0.161634 0.174455 -0.375089 0.440437 -0.291218 0.070882 -0.072281 0.053783 0.156784 -0.080427 0.164008 -0.244041 -0.043093 -0.141700 -0.131203 -0.215319 -0.192598 0.024507 -0.024579 -0.415545 -0.403746 -0.415516 -0.138020 -0.034964 0.227420 -0.196759 0.131491 -0.154563 0.009739 -0.031330 0.151027 0.502232 -0.058723 0.343411 -0.079580 0.356388 -0.319920 0.458359 -0.131622 0.012593 -0.085795 -0.145227 0.407327 -0.325332 -0.303104 0.175535 0.359739 -0.255318 -0.110797 0.362998 0.013808 -0.166539 0.100885 0.175889 0.240266 -0.416475 0.452663 -0.151161 0.226916 0.391443 0.234977 -0.027560 0.056539 -0.317433 0.334620 0.153820 0.192298 0.245622 0.576961 0.499586 -0.241781 0.096086 -0.067252 0.217120 0.219672 0.095994 0.135714 0.219055 -0.079251 -0.465319 0.105379 0.163695 0.212933 0.155201 -0.029241 0.412825 -0.627540 0.179946 0.150595 -0.122596 -0.072778 -0.251496 0.241620 -0.220003 0.093614 -0.295214 -0.206272 0.474467 0.105449 0.595138 0.226933 -0.208340 0.179401 -0.053034 0.095186 0.215342 -0.052750 0.043317 0.263274
['Afroasiatic_languages'] -0.032294 -0.323786 -0.441702 -0.338908 -0.178129 0.040876 -0.021734 -0.129522 0.618616 0.311397 -0.217199 -0.036820 -0.214764 -0.545806 0.201706 0.600885 -0.022689 0.107121 -0.098289 -0.063968 -0.369309 -0.281448 -0.107696 -0.123272 0.353891 0.053527 -0.065799 0.025497 -0.025490 -0.079089 0.091673 -0.224479 0.193309 -0.161952 0.366559 0.224436 0.053492 0.006023 -0.488756 0.305845 -0.027361 0.202425 -0.240807 0.158856 0.021147 -0.439377 0.396340 0.333189 -0.167195 0.084296 -0.012398 0.244041 0.093515 -0.383671 0.180780 -0.257456 -0.005935 0.075987 0.046604 -0.214511 0.109249 0.069121 0.428624 -0.218286 0.325888 -0.028097 -0.054772 -0.071810 -0.271482 0.073353 0.002867 -0.186818 -0.188394 -0.230482 0.056891 0.166252 0.014838 0.154069 -0.185626 0.094678 0.143450 0.559290 0.311725 0.101248 0.294067 0.135460 -0.053047 0.240548 -0.140166 -0.049181 0.053739 -0.366513 0.061195 0.083497 -0.412147 0.155442 0.277403 0.256647 -0.079127 0.122285 0.173503 -0.073118 -0.360940 0.055782 -0.210166 0.077542 0.127830 0.232809 0.276659 -0.098406 0.381425 -0.054004 0.087814 0.274041 0.015174 -0.350634 -0.215314 0.482549 0.588106 0.400888 0.278093 0.373625 -0.112720 -0.023093 -0.166187 0.171965 0.102891 -0.134321 -0.153401 -0.094267 0.002782 -0.187354 -0.384903 -0.090378 -0.406482 0.339730 -0.167435 0.068158 0.132975 -0.360162 -0.138099 0.302116 -0.125535 -0.383648 -0.149636 -0.076946 0.008236 -0.143835 0.031130 -0.389412 0.405659 -0.234427 0.042067 -0.038750 0.111976 0.223506 -0.110582 0.219916 -0.168785 -0.142569 -0.078988 0.006518 -0.130915 -0.268645 0.098979 0.087979 -0.295345 -0.278929 -0.333811 -0.168474 -0.030347 0.144508 -0.214630 0.076046 -0.198088 0.053168 -0.091693 0.108640 0.449386 0.020682 0.386322 -0.090426 0.322133 -0.251724 0.449276 -0.007465 -0.078960 -0.120498 -0.272416 0.528119 -0.241334 -0.309878 0.031329 0.276012 -0.204259 -0.054903 0.255253 0.020558 -0.180115 0.039470 0.134313 0.118608 -0.413999 0.476926 -0.204149 0.244212 0.469479 0.172032 -0.040533 0.079561 -0.279317 0.391629 0.173135 0.139841 0.139497 0.484702 0.404887 -0.180773 0.011101 -0.127907 0.252468 0.275150 0.162917 0.015216 0.234503 0.102726 -0.429092 -0.040104 0.114713 0.147924 0.137606 -0.022641 0.429018 -0.400487 0.135843 0.154433 -0.108628 -0.046771 -0.236985 0.242207 -0.218197 0.146099 -0.228357 -0.270789 0.568174 0.047116 0.501747 0.162281 -0.165488 0.250843 -0.040348 0.075102 0.164349 -0.063278 -0.009487 0.248597
['Austroasiatic_languages'] -0.274135 -0.482164 -0.737322 -0.151694 -0.606560 -0.220464 0.578562 0.093194 0.753716 0.519076 -0.246582 0.264619 -0.498941 -0.750252 0.301540 1.133482 -0.051371 -0.362506 -0.401790 -0.142653 -0.772699 -0.363383 -0.277610 -0.271422 0.655535 0.399537 0.367150 0.055244 -0.033475 -0.033525 0.050999 -0.037588 -0.209591 0.040222 0.001997 0.236157 -0.182741 0.048128 -0.253647 0.656172 0.271493 0.453072 -0.269937 0.492695 0.214141 -0.193258 0.270647 0.522529 -0.181637 0.300930 -0.070738 0.481926 0.090119 -0.234730 0.705604 -0.189697 -0.151617 -0.330871 0.281953 -0.303670 0.089411 0.068824 0.221243 -0.376569 0.038464 -0.276429 -0.016531 -0.102148 -0.173643 0.465087 0.162032 -0.279238 -0.225508 0.036659 -0.127400 -0.084987 0.124000 0.229961 -0.144770 0.130892 0.072497 0.612031 0.171455 0.076645 0.496660 0.149428 -0.364069 -0.144267 -0.525597 -0.106294 0.424106 -0.747750 -0.089948 0.166558 -0.195092 -0.095759 0.102873 0.185211 0.031675 0.114418 0.452728 -0.135750 -0.511852 0.594440 -0.161213 0.140153 0.307916 0.593680 0.337379 -0.001027 0.400269 -0.171893 0.314455 0.458657 -0.166900 0.152354 -0.102312 0.603085 0.371732 0.504650 0.154486 0.011282 0.182670 0.100203 0.413294 0.256365 0.500152 -0.372284 -0.302474 -0.087582 -0.119014 -0.465722 -0.643622 -0.332040 -0.383202 0.063550 -0.082398 -0.066960 -0.332194 -0.846752 -0.021702 0.540706 0.261073 -0.260997 0.359590 0.076799 -0.087692 -0.043052 0.081058 -0.942910 0.555463 0.200068 0.503357 -0.090648 0.445128 0.563180 0.011450 0.540688 -0.245208 -0.130730 -0.177147 0.522808 -0.190133 0.223410 0.368462 -0.065496 -0.293483 -0.296849 -0.378367 0.135335 0.347871 -0.198043 -0.292564 0.405586 0.008418 0.413097 0.072350 -0.324545 0.328114 -0.274664 0.418131 -0.505861 0.601103 -0.170765 0.537870 0.080576 0.033635 -0.101119 -0.525922 0.677522 -0.079603 -0.185636 -0.250336 0.117580 0.042717 -0.273642 0.408797 -0.192415 -0.409867 -0.222368 0.242178 0.031603 -0.816900 0.622048 -0.571545 0.409201 0.619080 -0.267147 -0.021139 -0.158008 -0.329463 0.257507 0.101222 0.055068 -0.117069 0.335134 0.668185 0.107937 0.157253 0.109964 0.308982 -0.090596 -0.099905 -0.236326 0.511988 0.460925 -0.487322 -0.336383 -0.266122 0.568849 -0.205903 0.050132 0.603398 0.081610 0.239658 0.629584 0.305780 -0.155606 0.095395 0.068182 -0.451192 0.146052 0.017073 -0.220471 0.787695 0.166639 0.092148 0.022857 -0.691449 0.401865 0.087373 0.516368 0.131427 -0.202958 -0.064408 0.459019
['Means'] -0.160038 -0.357475 -0.487934 -0.394930 -0.193832 0.000655 -0.109374 -0.108350 0.634457 0.307192 -0.191818 -0.167635 -0.148654 -0.631559 0.075337 0.655346 -0.285692 0.161558 -0.194628 0.025549 -0.543070 -0.151940 -0.193631 -0.039786 0.483493 -0.122385 0.028204 0.021053 -0.071220 -0.188475 0.134178 -0.417047 0.341337 -0.254443 0.423449 0.201877 0.162787 -0.185235 -0.620342 0.250048 -0.279427 0.114565 -0.147309 0.162213 -0.085086 -0.575896 0.486749 0.384605 -0.397048 0.153027 -0.033217 0.435492 0.226266 -0.366914 0.350089 -0.332917 0.133211 -0.009682 0.262246 -0.341093 0.293373 0.133073 0.614853 -0.360806 0.443164 -0.045800 -0.059046 0.036753 -0.169094 0.263076 0.072990 -0.303631 -0.248770 -0.271193 0.085287 0.102415 -0.030356 0.301535 -0.131818 0.398621 0.101807 0.627936 0.390466 -0.033159 0.382529 -0.063341 -0.044159 0.312543 -0.117099 -0.009821 -0.027773 -0.513690 -0.002870 0.148029 -0.461015 0.107345 0.391908 0.045674 -0.049053 0.210378 0.221094 -0.056617 -0.409259 0.236190 -0.244362 -0.117527 0.149606 0.208433 0.367526 0.070680 0.431867 0.047259 0.112846 0.298226 0.045897 -0.276643 -0.361304 0.487830 0.764529 0.565340 0.166648 0.469624 -0.277062 0.009682 -0.370036 0.206282 0.180211 -0.180528 -0.249483 -0.145646 0.035726 -0.321856 -0.333765 0.054756 -0.478079 0.414690 -0.299514 0.029471 0.159873 -0.411799 -0.093087 0.271922 -0.199226 -0.510278 -0.192065 0.011261 -0.024715 -0.224211 0.249734 -0.352535 0.490466 -0.317301 0.083510 -0.074943 0.062191 0.132369 -0.052877 0.143078 -0.262218 0.001341 -0.199886 -0.159344 -0.272949 -0.250560 0.007022 -0.065406 -0.466747 -0.437456 -0.432089 -0.096921 -0.008011 0.266195 -0.232461 0.147784 -0.132867 -0.014253 -0.071571 0.154417 0.530706 -0.063603 0.385280 -0.133577 0.347242 -0.347557 0.487610 -0.169333 0.052702 -0.065175 -0.076852 0.402228 -0.331473 -0.291155 0.280426 0.358500 -0.335362 -0.111028 0.402630 0.048167 -0.201289 0.079619 0.176694 0.270225 -0.459081 0.476534 -0.158324 0.289427 0.413755 0.289624 -0.049558 0.063230 -0.343980 0.377924 0.164235 0.194536 0.330652 0.627275 0.529529 -0.364740 0.166954 -0.059660 0.203390 0.232643 0.060121 0.175373 0.166661 -0.156478 -0.500919 0.133876 0.204819 0.296507 0.176911 -0.001370 0.463028 -0.766846 0.181210 0.175828 -0.143566 -0.081049 -0.260754 0.277746 -0.225129 0.079674 -0.331057 -0.160172 0.457197 0.169048 0.624918 0.260031 -0.227536 0.172334 -0.073775 0.077740 0.260830 -0.088155 0.057636 0.279585
['Arithmetic_mean'] -0.150790 -0.350069 -0.478798 -0.388158 -0.190147 -0.003058 -0.107182 -0.104767 0.616015 0.301686 -0.183449 -0.163431 -0.148051 -0.620274 0.078144 0.631991 -0.276592 0.157493 -0.187133 0.021664 -0.525749 -0.151336 -0.182813 -0.039108 0.478702 -0.115464 0.025921 0.024755 -0.066112 -0.181731 0.135801 -0.404343 0.331312 -0.247882 0.417656 0.194546 0.158079 -0.187286 -0.605387 0.241687 -0.275635 0.112154 -0.133612 0.160429 -0.077796 -0.568389 0.475883 0.374983 -0.389373 0.154552 -0.035041 0.423948 0.219153 -0.363592 0.340055 -0.331812 0.118342 -0.008501 0.250103 -0.333075 0.288349 0.130815 0.589479 -0.356445 0.431175 -0.045264 -0.052452 0.037254 -0.159950 0.254180 0.074691 -0.300962 -0.240594 -0.263646 0.085063 0.100205 -0.030407 0.289962 -0.130821 0.388072 0.102273 0.614152 0.383227 -0.025244 0.372150 -0.065689 -0.045598 0.308163 -0.111775 -0.013930 -0.029779 -0.498012 -0.000646 0.144950 -0.450711 0.107061 0.386763 0.041192 -0.043419 0.197517 0.214450 -0.052922 -0.405967 0.230059 -0.231071 -0.113866 0.148839 0.209230 0.360885 0.063547 0.421051 0.046144 0.109182 0.293449 0.050097 -0.271753 -0.353927 0.479224 0.748383 0.549722 0.166638 0.466559 -0.278859 0.005407 -0.361727 0.198608 0.171136 -0.181953 -0.239165 -0.139509 0.027679 -0.316319 -0.329147 0.058608 -0.469011 0.404987 -0.293920 0.030638 0.146256 -0.402431 -0.088012 0.272866 -0.199584 -0.500648 -0.184020 0.010992 -0.030343 -0.212564 0.242975 -0.346954 0.481354 -0.311965 0.091976 -0.073697 0.051388 0.127227 -0.047816 0.142497 -0.254833 0.001245 -0.187868 -0.157662 -0.260864 -0.242601 0.008054 -0.061270 -0.458669 -0.431253 -0.424221 -0.099672 -0.007919 0.259865 -0.223669 0.144451 -0.131597 -0.017129 -0.065994 0.142571 0.526247 -0.064497 0.375394 -0.121060 0.339784 -0.342185 0.475155 -0.161890 0.050657 -0.067831 -0.082909 0.390260 -0.321501 -0.293950 0.265165 0.358851 -0.323416 -0.107705 0.402830 0.048977 -0.193314 0.084602 0.172872 0.263142 -0.448111 0.470089 -0.151472 0.284148 0.400977 0.283914 -0.044658 0.056854 -0.338971 0.368169 0.154178 0.192047 0.318564 0.613117 0.528596 -0.347626 0.160296 -0.061965 0.201501 0.230427 0.064973 0.173767 0.173936 -0.151234 -0.487419 0.137121 0.195813 0.284475 0.171022 -0.002918 0.454504 -0.748898 0.184389 0.175980 -0.138372 -0.077038 -0.251225 0.269880 -0.221226 0.074919 -0.327284 -0.160971 0.447260 0.162184 0.608821 0.246244 -0.219796 0.167942 -0.065900 0.076953 0.251068 -0.084259 0.058628 0.272280
['Metaphysicians'] 0.001835 -0.174451 -0.109387 -0.052115 -0.164922 -0.029291 -0.196266 -0.003373 0.310319 0.132371 0.162824 -0.083134 0.137952 -0.079519 -0.042434 0.115106 -0.135892 0.075863 0.011084 -0.055205 -0.281766 0.027975 -0.050146 0.116271 0.032325 -0.284855 0.056773 -0.005691 -0.053533 -0.069235 -0.013391 -0.188803 0.049427 -0.036507 0.133548 -0.121963 0.186387 0.151256 -0.286676 0.021264 -0.276171 -0.018407 0.054141 0.005417 -0.044249 0.046429 0.175800 0.072694 -0.121157 0.139486 0.014522 0.230573 0.186162 -0.179853 0.132505 -0.086477 0.063003 -0.113900 0.097935 -0.078664 0.079904 -0.035378 0.304546 -0.275552 0.219132 0.001307 -0.109874 0.050019 0.029953 0.195649 0.017611 -0.030980 -0.323969 -0.131353 0.032545 0.076035 0.003257 0.268844 0.055556 0.323112 0.035725 0.190193 0.015200 -0.089201 0.039159 -0.144735 -0.021616 0.067247 0.174805 0.151438 -0.111354 -0.281922 0.138109 0.107932 -0.110499 -0.073525 0.111115 0.065603 0.012272 0.174407 0.143347 -0.005662 -0.009209 0.188645 -0.258935 -0.071686 0.005427 -0.083430 0.220343 0.149247 0.189705 0.026085 0.109906 -0.039668 0.028338 -0.107875 -0.141240 0.095427 0.338395 0.130653 0.076299 0.177440 -0.288491 -0.065245 -0.201083 0.142484 0.126581 0.038657 -0.259620 0.089235 -0.082082 0.064763 -0.066653 0.100263 -0.027407 0.227428 -0.008779 0.039690 -0.054979 -0.139534 -0.015016 0.124946 -0.239361 -0.184795 0.015693 0.042553 0.050612 -0.210578 0.270118 -0.175554 0.153659 -0.134764 -0.039793 0.033905 -0.037502 -0.147559 0.039539 -0.131341 -0.132681 0.032420 -0.035030 0.005383 -0.156784 -0.204795 -0.131972 0.041208 -0.158385 -0.174719 -0.009041 -0.131575 0.042743 0.092597 -0.134701 0.045708 0.021049 -0.090003 -0.112247 0.117849 0.128617 0.116388 0.166639 -0.187119 0.126636 -0.146447 0.108176 0.070338 0.100246 0.056716 0.083571 0.139090 -0.090178 -0.010260 0.263625 0.081166 -0.355695 -0.018359 0.093249 0.201645 0.069097 -0.115028 0.112307 0.064022 -0.298094 0.080707 -0.030565 -0.025453 -0.000893 0.159529 -0.000643 -0.108231 0.029282 0.045123 0.096372 -0.119978 0.254407 0.189067 0.177943 -0.263309 0.185449 -0.061954 0.039960 0.082387 0.071532 -0.015996 -0.175280 -0.136431 -0.096308 0.116140 0.024129 0.209866 0.244011 0.047686 0.066134 -0.326659 0.083376 -0.078600 -0.057231 -0.145247 -0.004879 0.081685 -0.047082 0.024745 0.018328 0.073735 -0.025421 0.185085 0.045463 0.189903 -0.136754 0.047228 -0.050991 -0.076148 0.064979 -0.013014 0.053951 0.164383
['Political_philosophers'] -0.021716 -0.166287 -0.136000 -0.069271 -0.145921 -0.026581 -0.198784 -0.004211 0.319125 0.127801 0.137957 -0.086756 0.122618 -0.063253 -0.059332 0.118430 -0.147223 0.076919 0.008559 -0.034493 -0.242524 0.048123 -0.061837 0.086517 0.017839 -0.270710 0.039337 0.012545 -0.068265 -0.069128 -0.017573 -0.185089 0.044882 -0.028823 0.147449 -0.125565 0.187014 0.155873 -0.286839 0.028846 -0.297344 -0.018421 0.062095 0.020085 -0.054519 0.005450 0.174480 0.073678 -0.151209 0.130353 -0.000987 0.227010 0.198942 -0.199566 0.133057 -0.082205 0.049798 -0.088225 0.109894 -0.061508 0.085147 -0.022648 0.352643 -0.263121 0.262678 0.005262 -0.111433 0.043475 0.038903 0.188801 -0.008828 -0.030600 -0.365799 -0.108647 0.019174 0.064789 -0.006420 0.273525 0.060777 0.317288 0.050788 0.197095 0.012163 -0.100316 0.071632 -0.144472 0.002904 0.091099 0.160035 0.142917 -0.114339 -0.291931 0.130177 0.123546 -0.111458 -0.082363 0.119929 0.057886 -0.006304 0.180778 0.124436 -0.014695 -0.009249 0.189318 -0.258551 -0.066948 0.027459 -0.067058 0.236965 0.141165 0.183812 0.030982 0.098225 -0.032302 0.004518 -0.126454 -0.148446 0.080518 0.299094 0.132023 0.099920 0.183443 -0.312320 -0.056529 -0.213056 0.145538 0.135868 0.044359 -0.258782 0.083127 -0.069017 0.073269 -0.074350 0.108417 -0.030010 0.240793 0.012348 0.054327 -0.032643 -0.124092 -0.010742 0.110225 -0.232918 -0.190552 0.004001 0.060127 0.039311 -0.236337 0.284898 -0.181992 0.157653 -0.145561 -0.039824 0.026584 -0.035150 -0.151345 0.024055 -0.103412 -0.146873 0.032437 -0.060451 -0.025582 -0.171682 -0.194837 -0.143214 0.028014 -0.149355 -0.198635 0.013611 -0.141791 0.050786 0.099003 -0.141307 0.041188 0.008413 -0.114528 -0.079666 0.125457 0.146547 0.130596 0.141859 -0.178339 0.120824 -0.132762 0.122476 0.065867 0.089508 0.064984 0.068260 0.139486 -0.089829 -0.006316 0.280079 0.092228 -0.323614 -0.016108 0.113244 0.235525 0.088483 -0.104020 0.114894 0.077850 -0.296438 0.091074 -0.042471 -0.024644 -0.004157 0.153512 -0.004934 -0.101115 0.028927 0.026036 0.089160 -0.119232 0.272883 0.211406 0.164649 -0.258886 0.192030 -0.057324 0.058931 0.072483 0.043944 -0.004701 -0.178857 -0.150388 -0.126011 0.120798 0.060075 0.216372 0.244274 0.046543 0.051020 -0.319832 0.107769 -0.078596 -0.083023 -0.134733 0.012315 0.100017 -0.049544 0.019404 -0.012576 0.079339 -0.035795 0.180223 0.073379 0.191252 -0.136932 0.021539 -0.056880 -0.076594 0.089206 -0.000107 0.048494 0.178219
['American_classical_liberals'] 0.043386 -0.131138 -0.001728 -0.228580 0.057206 -0.001737 -0.251572 -0.165123 0.322293 0.240404 0.134560 -0.130976 0.152736 -0.208364 0.085286 -0.007089 -0.085334 0.198824 0.006379 -0.097923 -0.128804 -0.057573 0.088749 0.146325 0.196254 -0.408227 -0.194367 0.116697 -0.010781 -0.128464 0.069622 -0.234625 0.324494 -0.096057 0.030060 0.011931 0.136594 -0.001763 -0.365128 -0.051175 -0.249077 -0.029955 -0.128168 -0.128174 0.069204 -0.064244 0.323584 0.003919 -0.086319 0.083820 0.105006 0.099877 0.067906 -0.117808 -0.089192 -0.037693 0.094043 0.129954 0.010678 0.014832 0.005690 -0.068815 0.306610 -0.201698 0.292670 0.159863 0.034213 0.026110 -0.031601 0.015812 -0.003559 -0.103323 -0.124758 -0.228700 0.085763 0.142222 -0.126060 0.132893 0.027679 0.143169 0.085000 0.043230 0.150256 -0.093981 0.079454 -0.015004 0.055818 0.250646 0.064342 -0.005822 -0.152130 -0.073854 0.039752 0.052439 -0.185824 0.034427 0.220637 0.040923 -0.066042 -0.036053 -0.080235 -0.116161 -0.037588 -0.111527 -0.132583 -0.031456 -0.045966 -0.159331 0.158282 0.123609 0.282680 0.079840 0.008117 0.076224 0.076146 -0.110315 -0.187169 0.118517 0.490323 0.143720 0.251372 0.217675 -0.220656 -0.171919 -0.303732 0.154391 0.036265 0.080724 -0.082640 0.138969 0.078043 0.000224 0.108967 0.033931 -0.039458 0.187148 -0.250397 0.075221 0.254782 0.038280 0.043354 0.206003 -0.254720 -0.168574 -0.227576 -0.012714 0.136090 -0.220446 0.216581 -0.016071 0.172024 -0.207129 -0.124309 -0.106886 -0.063446 -0.112146 -0.024539 -0.133431 -0.078021 0.047736 -0.063472 -0.056661 -0.098533 -0.256490 -0.108195 0.064462 -0.101617 -0.117053 -0.192695 -0.158836 -0.201004 0.177548 -0.093497 0.082692 -0.142763 -0.204788 -0.153689 0.244107 0.113479 -0.070491 0.002151 0.062396 0.024909 -0.163720 0.012856 0.073665 0.047179 -0.132237 -0.048775 0.042477 -0.149996 -0.102291 0.162980 0.222260 -0.287069 0.142458 -0.031421 0.107348 0.124661 0.053728 0.019048 0.194101 -0.113537 0.118757 -0.010167 -0.130460 0.034783 0.303831 -0.041660 -0.080565 -0.085624 0.331054 0.046338 -0.021030 0.243192 0.172599 -0.039933 -0.158727 0.153835 0.008244 -0.006095 0.242204 0.145121 0.086875 -0.023077 -0.187433 -0.094615 0.085819 0.203359 -0.031729 0.284391 -0.043062 0.128650 -0.495271 0.014396 -0.183965 -0.230416 -0.097336 -0.082367 0.035947 0.040721 0.040814 -0.110842 0.028634 -0.027960 0.146885 0.233728 0.116539 -0.093224 0.013555 -0.137565 -0.250946 0.111114 0.071941 0.022184 0.079599
['ISO_basic_Latin_letters'] -0.098967 -0.270913 -0.448378 -0.359110 -0.168365 0.011189 -0.076126 -0.107278 0.538286 0.226026 -0.190524 -0.102610 -0.202941 -0.587372 0.121998 0.568987 -0.164861 0.129905 -0.130116 0.020638 -0.412720 -0.181721 -0.136844 -0.065823 0.407259 -0.056757 0.008877 0.067660 -0.055289 -0.176942 0.149217 -0.332080 0.267372 -0.195976 0.373414 0.182268 0.110505 -0.125379 -0.551128 0.206295 -0.184289 0.093927 -0.171388 0.136869 -0.054996 -0.526120 0.409367 0.325960 -0.340963 0.116267 -0.008135 0.353660 0.151028 -0.329511 0.288884 -0.301224 0.040941 0.014168 0.185563 -0.290700 0.216605 0.103038 0.457196 -0.291355 0.383063 -0.012839 -0.045059 -0.000358 -0.172161 0.185567 0.090354 -0.261776 -0.157348 -0.243244 0.072899 0.118414 -0.014670 0.226390 -0.148467 0.280710 0.114857 0.571568 0.347704 0.033337 0.333964 0.009571 -0.043763 0.285207 -0.136305 -0.012808 0.016717 -0.385277 0.019369 0.123520 -0.395312 0.121038 0.315905 0.081934 -0.045834 0.143488 0.159750 -0.083424 -0.378096 0.179814 -0.201164 -0.042981 0.128147 0.237974 0.314533 -0.000728 0.354064 0.058023 0.113685 0.269589 0.054533 -0.259952 -0.296034 0.437550 0.656689 0.502440 0.192974 0.440103 -0.222375 -0.020139 -0.285561 0.186014 0.158932 -0.185126 -0.184728 -0.107203 0.004608 -0.275982 -0.323456 0.036253 -0.409664 0.357094 -0.272589 0.023540 0.131262 -0.356852 -0.078321 0.288889 -0.172929 -0.456621 -0.120430 -0.010900 -0.030035 -0.140491 0.154213 -0.354757 0.413246 -0.268773 0.071981 -0.065981 0.049530 0.153741 -0.079147 0.164811 -0.232470 -0.043962 -0.127805 -0.116483 -0.195878 -0.172556 0.034055 -0.019202 -0.391089 -0.378794 -0.395776 -0.128053 -0.038625 0.209027 -0.180757 0.123772 -0.148228 0.016229 -0.024819 0.132417 0.477302 -0.061098 0.326977 -0.063103 0.338789 -0.299446 0.435988 -0.126764 0.006092 -0.085501 -0.147333 0.383407 -0.305987 -0.292690 0.152009 0.343324 -0.228438 -0.107006 0.340676 0.006932 -0.163661 0.096777 0.165606 0.225539 -0.385620 0.427706 -0.144632 0.220821 0.372218 0.217369 -0.023922 0.056702 -0.302863 0.314799 0.142620 0.188973 0.219150 0.541010 0.479645 -0.214448 0.079294 -0.063047 0.209954 0.206263 0.093870 0.126259 0.219425 -0.061649 -0.438442 0.097808 0.147269 0.195530 0.136550 -0.031664 0.391454 -0.583000 0.169529 0.150707 -0.113793 -0.065337 -0.242769 0.224365 -0.210373 0.087835 -0.279847 -0.204351 0.458705 0.094294 0.564172 0.205334 -0.191800 0.169504 -0.044231 0.100829 0.202151 -0.049124 0.039820 0.244030
['Vowel_letters'] -0.108771 -0.287873 -0.459976 -0.372246 -0.169343 0.011438 -0.085992 -0.114027 0.557058 0.237758 -0.192105 -0.111631 -0.197632 -0.601783 0.116293 0.589459 -0.179504 0.141419 -0.140841 0.019887 -0.437398 -0.179640 -0.146355 -0.058595 0.425053 -0.071459 0.004638 0.071477 -0.060168 -0.184039 0.147394 -0.352305 0.284722 -0.208882 0.387893 0.186933 0.127064 -0.130819 -0.574468 0.210734 -0.211191 0.091896 -0.174011 0.138960 -0.063814 -0.541993 0.429144 0.339126 -0.363310 0.122497 -0.010945 0.371977 0.165677 -0.343220 0.296148 -0.311868 0.052880 0.017612 0.197521 -0.300353 0.226393 0.111923 0.491056 -0.305806 0.405572 -0.014430 -0.049692 0.003349 -0.174380 0.198016 0.094288 -0.272500 -0.175902 -0.250944 0.079870 0.115470 -0.021655 0.241268 -0.145548 0.297952 0.114812 0.587494 0.356179 0.022767 0.345726 -0.002387 -0.036819 0.297842 -0.133328 -0.007526 0.007360 -0.409143 0.019001 0.129310 -0.411334 0.122432 0.333459 0.073909 -0.047462 0.157593 0.165740 -0.084487 -0.384679 0.191084 -0.208740 -0.054115 0.130989 0.233046 0.332148 0.007714 0.372483 0.062478 0.118125 0.272714 0.053663 -0.274925 -0.313471 0.450341 0.687912 0.521965 0.200778 0.457309 -0.237972 -0.016771 -0.307985 0.198159 0.163517 -0.184207 -0.196725 -0.110827 0.010537 -0.284892 -0.323856 0.041746 -0.424745 0.372438 -0.283509 0.027266 0.139289 -0.368173 -0.082338 0.290926 -0.183197 -0.473773 -0.136445 -0.010885 -0.025516 -0.160488 0.169268 -0.363275 0.430770 -0.285997 0.071905 -0.071996 0.049747 0.148758 -0.078360 0.161731 -0.240272 -0.040881 -0.139160 -0.129270 -0.213241 -0.188535 0.021149 -0.024632 -0.409961 -0.395354 -0.404837 -0.131370 -0.033133 0.226383 -0.192425 0.130425 -0.150562 0.005134 -0.030303 0.146395 0.494002 -0.064138 0.333868 -0.075265 0.345890 -0.310972 0.448359 -0.132171 0.012285 -0.086225 -0.139549 0.393611 -0.319421 -0.301730 0.173594 0.355828 -0.251140 -0.108353 0.358756 0.015231 -0.162334 0.101181 0.168506 0.237479 -0.403177 0.440093 -0.145479 0.224532 0.385903 0.235285 -0.029211 0.057806 -0.316469 0.326626 0.146495 0.190398 0.242802 0.564170 0.488034 -0.241370 0.094510 -0.066476 0.212427 0.215598 0.091117 0.138510 0.216334 -0.081327 -0.456112 0.103617 0.162395 0.210119 0.152788 -0.026952 0.407069 -0.619668 0.173038 0.149740 -0.122393 -0.067086 -0.245717 0.235294 -0.212326 0.085884 -0.293263 -0.198177 0.465863 0.104838 0.588817 0.222726 -0.200187 0.174346 -0.052554 0.092039 0.214737 -0.049014 0.043133 0.257836
['American_Football_League'] -0.084718 -0.265101 -0.441451 -0.343741 -0.168362 0.016366 -0.065657 -0.104230 0.521362 0.226666 -0.188141 -0.101417 -0.202310 -0.551057 0.127373 0.548667 -0.153490 0.121277 -0.122038 0.005620 -0.381232 -0.189273 -0.121812 -0.072353 0.397654 -0.040234 0.000998 0.057715 -0.053076 -0.158887 0.147840 -0.302253 0.252793 -0.184368 0.359329 0.184237 0.097246 -0.129163 -0.507791 0.205282 -0.158043 0.104736 -0.159792 0.141953 -0.031725 -0.515911 0.391735 0.315424 -0.302205 0.112650 -0.017410 0.326103 0.138591 -0.327027 0.269135 -0.284943 0.021835 0.020116 0.167076 -0.278368 0.203144 0.096509 0.423604 -0.265689 0.357854 -0.021897 -0.042675 -0.000462 -0.166924 0.164713 0.077924 -0.243318 -0.153446 -0.226078 0.069617 0.115718 -0.011304 0.206165 -0.153901 0.248434 0.115825 0.549558 0.331973 0.035059 0.316848 0.019554 -0.046034 0.265194 -0.137760 -0.036096 0.020236 -0.365333 0.015044 0.116933 -0.379804 0.122471 0.310283 0.091017 -0.044276 0.129923 0.151806 -0.072297 -0.369193 0.161555 -0.185050 -0.030563 0.130685 0.236172 0.298078 -0.011321 0.340683 0.037271 0.096200 0.261826 0.054986 -0.249481 -0.283037 0.422647 0.613375 0.471373 0.188841 0.410919 -0.194006 -0.017800 -0.257449 0.164475 0.131640 -0.186697 -0.162946 -0.111174 -0.011291 -0.261402 -0.315895 0.025922 -0.401523 0.340817 -0.250106 0.028749 0.117744 -0.345087 -0.078551 0.276394 -0.153125 -0.430792 -0.120948 -0.014794 -0.033764 -0.124503 0.139350 -0.339002 0.399024 -0.249656 0.079425 -0.058013 0.052398 0.157594 -0.073296 0.171871 -0.221091 -0.053829 -0.111779 -0.102137 -0.180382 -0.167936 0.049255 -0.012032 -0.368584 -0.349819 -0.383830 -0.127054 -0.036362 0.196369 -0.169555 0.115627 -0.146890 0.022143 -0.029045 0.109862 0.461322 -0.060252 0.318689 -0.058018 0.310627 -0.276224 0.417565 -0.107168 -0.002056 -0.089963 -0.156546 0.377316 -0.274528 -0.287452 0.129269 0.323208 -0.205855 -0.102665 0.322941 0.003848 -0.164481 0.085089 0.150792 0.213110 -0.367876 0.413237 -0.153889 0.224845 0.369166 0.207358 -0.024757 0.059237 -0.296739 0.307036 0.130587 0.185722 0.194558 0.505432 0.455286 -0.190699 0.065520 -0.070170 0.209106 0.199614 0.087209 0.103650 0.217332 -0.039999 -0.422560 0.087293 0.134359 0.184699 0.121422 -0.034054 0.378602 -0.538581 0.161972 0.152254 -0.103823 -0.058922 -0.229264 0.218702 -0.204889 0.083210 -0.271567 -0.205127 0.444402 0.081590 0.530644 0.178697 -0.179361 0.168024 -0.037118 0.097588 0.189074 -0.052868 0.038678 0.228429
['Astronomy'] -0.078100 -0.225012 -0.418927 -0.322065 -0.152876 0.014432 -0.043199 -0.090480 0.476007 0.204875 -0.199691 -0.084597 -0.219588 -0.535237 0.125139 0.520479 -0.135480 0.114336 -0.123026 0.022680 -0.352060 -0.188261 -0.118228 -0.079095 0.377169 0.002342 0.007703 0.053596 -0.049571 -0.138058 0.152764 -0.274965 0.233634 -0.177855 0.339922 0.189871 0.073086 -0.142416 -0.457632 0.190343 -0.114553 0.102289 -0.157661 0.137090 -0.030153 -0.508055 0.346184 0.293290 -0.273226 0.101589 -0.018870 0.295735 0.103759 -0.291383 0.252538 -0.272282 0.018846 0.031892 0.145788 -0.272826 0.201764 0.099964 0.371384 -0.224518 0.313431 -0.025290 -0.029235 -0.004532 -0.170230 0.136231 0.071712 -0.227523 -0.100015 -0.206500 0.062971 0.103879 -0.002919 0.168133 -0.168013 0.203690 0.113791 0.520735 0.323196 0.053971 0.300740 0.041013 -0.050992 0.241756 -0.150042 -0.049505 0.033538 -0.317696 0.008855 0.105539 -0.361458 0.122971 0.278862 0.083010 -0.043322 0.110761 0.138053 -0.067065 -0.361348 0.140686 -0.153793 -0.025448 0.121145 0.243676 0.265364 -0.031501 0.299638 0.034345 0.086755 0.254447 0.051270 -0.221974 -0.254148 0.406193 0.552024 0.445480 0.160702 0.379652 -0.158229 -0.001076 -0.214487 0.141811 0.119800 -0.193945 -0.130536 -0.125946 -0.004262 -0.258935 -0.309882 0.012765 -0.387853 0.307158 -0.233490 0.012987 0.112191 -0.330208 -0.068168 0.251257 -0.116979 -0.404813 -0.106353 -0.017529 -0.041941 -0.082889 0.091358 -0.310860 0.368501 -0.222145 0.084298 -0.050339 0.050325 0.170154 -0.075633 0.185898 -0.205457 -0.056379 -0.098187 -0.088490 -0.153283 -0.127064 0.067504 -0.013335 -0.335324 -0.316636 -0.368203 -0.102950 -0.037959 0.171974 -0.139605 0.111387 -0.145155 0.037427 -0.016760 0.082668 0.423100 -0.072660 0.291257 -0.024988 0.294232 -0.251049 0.393143 -0.119756 -0.014504 -0.089348 -0.155861 0.347782 -0.259825 -0.280069 0.086876 0.301042 -0.155625 -0.096878 0.305260 -0.020160 -0.176817 0.099538 0.134124 0.189513 -0.321532 0.381069 -0.138176 0.224162 0.351819 0.166459 -0.022284 0.067031 -0.287211 0.288365 0.112182 0.202433 0.155112 0.462898 0.435889 -0.157433 0.034203 -0.058611 0.204087 0.177500 0.086772 0.099431 0.230791 -0.011367 -0.392012 0.065365 0.114821 0.149476 0.081903 -0.039372 0.367666 -0.483610 0.147774 0.166857 -0.091054 -0.038367 -0.228707 0.196805 -0.200806 0.074783 -0.264254 -0.209947 0.445601 0.060749 0.507848 0.159773 -0.159880 0.153870 -0.029491 0.119688 0.168198 -0.051382 0.031419 0.203366
['Agglutinative_languages'] -0.274967 -0.479352 -0.750744 -0.147251 -0.605119 -0.215429 0.576151 0.101531 0.752399 0.504863 -0.253966 0.278705 -0.494433 -0.754048 0.300808 1.124498 -0.051987 -0.360099 -0.382836 -0.137121 -0.755244 -0.369551 -0.274670 -0.279450 0.651506 0.396189 0.368199 0.056251 -0.025772 -0.038953 0.069621 -0.029599 -0.212275 0.051750 -0.005491 0.223545 -0.191462 0.047042 -0.249539 0.648002 0.280081 0.450684 -0.249085 0.499862 0.213438 -0.199886 0.270340 0.527623 -0.179818 0.302448 -0.063638 0.474873 0.088476 -0.242226 0.713151 -0.187354 -0.167821 -0.339243 0.285004 -0.305314 0.092099 0.074611 0.199212 -0.392527 0.028751 -0.272238 -0.016321 -0.101479 -0.169104 0.469866 0.174403 -0.269032 -0.230066 0.048106 -0.128572 -0.085669 0.119695 0.228919 -0.137800 0.143419 0.070316 0.604603 0.174633 0.075806 0.503506 0.136600 -0.385363 -0.131698 -0.521798 -0.114208 0.423397 -0.731794 -0.083237 0.165564 -0.184869 -0.091737 0.107233 0.192535 0.037380 0.108389 0.452833 -0.140803 -0.514386 0.601533 -0.161265 0.147656 0.309932 0.598530 0.338590 -0.004186 0.382232 -0.168115 0.315770 0.448199 -0.158771 0.152097 -0.099927 0.593235 0.353375 0.513463 0.153537 0.014048 0.174772 0.089216 0.414985 0.261852 0.490756 -0.379020 -0.303480 -0.076010 -0.135713 -0.459450 -0.643208 -0.311637 -0.377031 0.068751 -0.075766 -0.067086 -0.347714 -0.841405 -0.015477 0.555936 0.254856 -0.255835 0.367325 0.092751 -0.090155 -0.023808 0.091190 -0.954537 0.547687 0.207281 0.509285 -0.087941 0.447040 0.564618 0.018005 0.549226 -0.236430 -0.135189 -0.163414 0.514520 -0.180884 0.234650 0.374954 -0.074018 -0.293018 -0.313446 -0.380675 0.125515 0.354366 -0.202546 -0.295180 0.410321 0.009951 0.417548 0.083795 -0.333527 0.328614 -0.271549 0.426392 -0.501872 0.606663 -0.170490 0.543507 0.079964 0.028707 -0.104017 -0.548969 0.667870 -0.076496 -0.190876 -0.251247 0.110482 0.049304 -0.279655 0.418420 -0.202875 -0.392001 -0.224463 0.248108 0.030639 -0.811081 0.632556 -0.579502 0.410119 0.606648 -0.273887 -0.018771 -0.161974 -0.321425 0.251560 0.101488 0.059880 -0.118504 0.337138 0.686973 0.127293 0.147260 0.096017 0.302273 -0.082336 -0.108144 -0.247891 0.526471 0.458217 -0.480598 -0.323419 -0.261094 0.567340 -0.198550 0.042701 0.591915 0.094747 0.241796 0.626299 0.310096 -0.157615 0.097180 0.063499 -0.453840 0.150711 0.011782 -0.229557 0.776143 0.166001 0.083643 -0.003007 -0.688437 0.399147 0.104352 0.514910 0.129424 -0.206022 -0.062062 0.450506
['Language_families'] -0.041791 -0.312825 -0.436415 -0.328242 -0.181466 0.034658 -0.018939 -0.117201 0.592258 0.304916 -0.204999 -0.041816 -0.211649 -0.530339 0.184053 0.580215 -0.038713 0.102099 -0.108670 -0.057874 -0.370458 -0.265997 -0.110096 -0.112362 0.356417 0.055798 -0.053182 0.018320 -0.025905 -0.078072 0.093874 -0.218821 0.195750 -0.162428 0.359924 0.221815 0.060497 -0.018229 -0.461832 0.291072 -0.037295 0.197365 -0.218663 0.161726 0.016971 -0.437300 0.383763 0.325224 -0.169745 0.088911 -0.021090 0.240889 0.095070 -0.366786 0.186574 -0.252966 -0.000304 0.069774 0.049861 -0.217978 0.122191 0.078129 0.413001 -0.207768 0.305981 -0.035965 -0.044932 -0.059014 -0.246774 0.078342 0.008433 -0.187049 -0.180160 -0.217168 0.054691 0.148544 0.017311 0.150239 -0.182118 0.100291 0.135012 0.542510 0.307786 0.085703 0.287686 0.114828 -0.050033 0.233461 -0.139156 -0.055609 0.045191 -0.363266 0.050182 0.080454 -0.400929 0.145984 0.271864 0.226483 -0.067313 0.122607 0.173268 -0.064884 -0.355794 0.068125 -0.195167 0.056091 0.130244 0.230766 0.266698 -0.088731 0.368681 -0.047110 0.081070 0.269527 0.018728 -0.324805 -0.215028 0.466158 0.562071 0.389991 0.259090 0.361229 -0.112140 -0.010179 -0.164911 0.159152 0.094913 -0.140080 -0.144690 -0.100365 0.002217 -0.190850 -0.366599 -0.081052 -0.402196 0.325237 -0.163531 0.062593 0.120763 -0.351400 -0.128044 0.286950 -0.116246 -0.372651 -0.146922 -0.066800 -0.003841 -0.137079 0.040682 -0.367994 0.394819 -0.224255 0.057598 -0.035155 0.101934 0.206832 -0.099936 0.216991 -0.169906 -0.125144 -0.082195 0.000825 -0.132772 -0.246526 0.099557 0.071127 -0.292580 -0.270068 -0.328595 -0.150885 -0.021480 0.141684 -0.203628 0.081036 -0.184886 0.050924 -0.088141 0.090461 0.441338 0.005946 0.369966 -0.080798 0.310607 -0.237666 0.430542 -0.014356 -0.070616 -0.113900 -0.251922 0.493884 -0.231576 -0.303506 0.035384 0.270642 -0.194134 -0.058481 0.264423 0.021077 -0.182871 0.042498 0.127022 0.121434 -0.397825 0.455681 -0.193020 0.244301 0.447794 0.165116 -0.035192 0.076239 -0.277101 0.373208 0.156061 0.144433 0.138326 0.466939 0.398537 -0.182978 0.019003 -0.120927 0.242581 0.258286 0.149920 0.021799 0.229409 0.086484 -0.416981 -0.030018 0.110094 0.150057 0.123319 -0.022743 0.420401 -0.399266 0.131190 0.161874 -0.104268 -0.043880 -0.223467 0.232421 -0.212447 0.133395 -0.226691 -0.250801 0.546126 0.046517 0.485101 0.157940 -0.165183 0.235051 -0.036129 0.081862 0.162665 -0.066714 -0.001769 0.239142
['Best_Art_Direction_Academy_Award_winners'] 0.027810 -0.314527 -0.295980 -0.213550 -0.115071 -0.015048 0.015255 -0.167123 0.648584 0.399305 -0.182535 0.111568 -0.261301 -0.607483 0.258211 0.389699 0.041058 -0.242285 -0.185077 0.157024 -0.155443 0.232217 0.212185 -0.186529 0.066317 0.288757 0.119295 0.339309 -0.290345 0.344668 0.098451 -0.071105 -0.067299 -0.224404 0.144779 0.142478 0.137133 0.031505 -0.410244 0.465503 -0.186281 0.364056 -0.019261 -0.096884 0.173889 -0.134187 0.527438 0.084511 -0.340404 0.201046 -0.239861 -0.056750 0.156167 -0.313924 0.231544 -0.292636 -0.364741 0.025796 -0.018775 0.048013 0.091987 0.316512 0.397809 -0.332475 0.462992 0.272260 0.083248 -0.033451 -0.015522 -0.289277 0.223872 -0.454434 0.001040 0.057342 0.263237 0.072035 -0.166882 0.200915 -0.200943 -0.091822 0.388420 0.344999 0.144111 0.277313 0.248894 0.314501 0.178100 0.500849 -0.071864 0.117970 -0.272987 -0.322943 0.174812 0.237662 -0.160067 -0.230250 0.114356 0.149183 -0.347624 -0.165706 0.107513 0.058902 -0.415274 0.297442 0.215434 0.089494 0.411904 0.560360 0.084768 -0.281844 0.653890 -0.237405 0.198544 0.396539 0.287217 -0.252612 -0.072835 0.682560 0.354463 0.015024 0.639854 0.874937 -0.711968 -0.286063 -0.156321 0.414557 0.297824 -0.367788 0.043018 0.211026 0.053436 -0.578694 -0.379987 0.028675 -0.378720 -0.022783 -0.394265 0.286069 0.069197 -0.091571 0.400047 0.578921 -0.109128 -0.216743 0.061102 -0.186027 -0.055758 -0.113176 -0.121049 -0.443741 0.547316 -0.152458 0.418611 -0.124283 -0.655177 0.189947 -0.505422 0.620664 -0.118893 -0.202492 0.076467 -0.009885 -0.198348 -0.009463 -0.135353 0.351144 -0.484412 -0.314164 -0.293210 0.074025 0.149687 0.226066 -0.447036 0.144170 -0.373074 -0.183886 0.108249 -0.378147 0.757435 0.016438 0.033059 0.069935 0.301211 -0.289873 0.362834 0.171919 -0.216150 -0.540350 -0.569146 0.360014 -0.144029 -0.436083 -0.011396 0.415457 0.275919 -0.084957 0.467741 0.407656 -0.159978 0.246323 -0.078830 0.033001 -0.010008 0.353081 0.040414 -0.072669 0.324682 -0.003697 0.045474 -0.226645 -0.601600 -0.113393 0.030161 0.077413 0.030521 0.183088 0.285601 -0.043436 -0.029949 0.273889 0.581473 -0.035928 0.311003 0.102061 0.543165 -0.091519 -0.335551 -0.055541 -0.258751 0.090227 0.220407 0.099353 0.457074 -0.340999 0.407382 0.324911 -0.138431 0.227933 0.055206 0.075653 -0.232504 0.115445 0.064571 -0.058162 0.479050 -0.117110 0.656756 0.069792 -0.210806 0.096818 0.217120 0.134804 -0.203557 0.049150 -0.072181 0.560480
['Organizations_established_in_1970'] -0.085483 -0.259615 -0.440257 -0.340801 -0.168373 0.014452 -0.063553 -0.101159 0.511297 0.225527 -0.188902 -0.097802 -0.204358 -0.552998 0.127594 0.543863 -0.153516 0.119508 -0.121308 0.009054 -0.377409 -0.188251 -0.123128 -0.072983 0.398913 -0.037472 0.001463 0.060991 -0.051694 -0.159358 0.152479 -0.303194 0.252790 -0.182536 0.353586 0.183099 0.096735 -0.136013 -0.506145 0.200791 -0.154932 0.100276 -0.158715 0.138020 -0.033029 -0.516133 0.384747 0.309830 -0.305986 0.112647 -0.017963 0.324184 0.134729 -0.318995 0.269578 -0.287520 0.024525 0.022791 0.164711 -0.278935 0.205597 0.097504 0.420242 -0.264768 0.352278 -0.021089 -0.035680 -0.001678 -0.166000 0.167048 0.080399 -0.243741 -0.144495 -0.225993 0.067599 0.114736 -0.009314 0.202036 -0.153319 0.251178 0.116532 0.544458 0.334443 0.038484 0.317008 0.021079 -0.046622 0.266571 -0.135092 -0.034933 0.021354 -0.360908 0.016425 0.114389 -0.377132 0.122717 0.305403 0.087657 -0.042841 0.126465 0.149018 -0.073420 -0.369136 0.161351 -0.180903 -0.033067 0.129743 0.238140 0.297375 -0.009028 0.333768 0.042279 0.095221 0.264193 0.055436 -0.242711 -0.282926 0.420556 0.608768 0.472217 0.186785 0.411851 -0.194389 -0.018747 -0.255426 0.164371 0.130632 -0.188226 -0.162577 -0.110922 -0.007402 -0.264047 -0.310541 0.027873 -0.398190 0.339515 -0.251518 0.023380 0.114519 -0.345009 -0.074507 0.273843 -0.153871 -0.427355 -0.116110 -0.011676 -0.033062 -0.116897 0.137440 -0.335889 0.396633 -0.249308 0.079367 -0.061117 0.050721 0.153008 -0.075069 0.175469 -0.223499 -0.052049 -0.110499 -0.100359 -0.178716 -0.158905 0.050400 -0.014308 -0.366182 -0.346087 -0.379818 -0.125526 -0.039754 0.196874 -0.165473 0.114518 -0.143241 0.019123 -0.028262 0.107843 0.459387 -0.065890 0.312073 -0.051512 0.309873 -0.275773 0.414103 -0.111513 0.001158 -0.091186 -0.157111 0.370347 -0.276099 -0.287243 0.126187 0.324472 -0.200044 -0.100943 0.324218 0.001736 -0.162662 0.089438 0.151375 0.210667 -0.358889 0.409768 -0.151339 0.224201 0.364625 0.203068 -0.023641 0.057705 -0.295087 0.305345 0.128091 0.189308 0.193109 0.501603 0.452743 -0.190433 0.061395 -0.068748 0.205042 0.196516 0.085925 0.105390 0.221402 -0.041675 -0.420672 0.086879 0.134662 0.180184 0.118134 -0.033579 0.377565 -0.537997 0.164417 0.151058 -0.104563 -0.057146 -0.226724 0.214901 -0.204361 0.081375 -0.270350 -0.201423 0.439717 0.080922 0.530397 0.177733 -0.176782 0.165531 -0.038084 0.101990 0.185056 -0.049682 0.039422 0.226689
['Awards_for_best_art_direction'] 0.036014 -0.294902 -0.301199 -0.205470 -0.098171 -0.012478 0.024258 -0.170696 0.633152 0.349717 -0.202949 0.131082 -0.260824 -0.616253 0.273321 0.409677 0.080041 -0.251884 -0.168403 0.189907 -0.135976 0.236704 0.223883 -0.184746 0.040376 0.279832 0.128270 0.373896 -0.299435 0.311164 0.108534 -0.079279 -0.079372 -0.206381 0.110930 0.123436 0.115075 0.090626 -0.453780 0.460201 -0.158254 0.338966 -0.081303 -0.117094 0.161391 -0.117687 0.512731 0.049911 -0.377185 0.171529 -0.200188 -0.032914 0.139666 -0.295728 0.243122 -0.271238 -0.367396 0.026267 0.005589 0.052910 0.062766 0.297277 0.395557 -0.331701 0.481239 0.305034 0.057606 -0.062931 -0.032374 -0.283690 0.248495 -0.439911 0.022167 0.052924 0.261965 0.076860 -0.174835 0.220986 -0.201528 -0.102972 0.371737 0.345543 0.124224 0.284767 0.268426 0.339314 0.172162 0.497342 -0.087823 0.149309 -0.238707 -0.297719 0.185484 0.244080 -0.149006 -0.228868 0.087193 0.158671 -0.365448 -0.161062 0.078621 0.010767 -0.402285 0.298302 0.201648 0.123598 0.374349 0.570265 0.069216 -0.294081 0.635697 -0.202039 0.246338 0.370562 0.270939 -0.263115 -0.072141 0.687486 0.363961 0.041812 0.660147 0.889923 -0.715572 -0.299701 -0.145216 0.447285 0.341639 -0.361970 0.029577 0.231735 0.061092 -0.562479 -0.375339 0.032829 -0.345750 -0.029926 -0.408302 0.269620 0.092624 -0.096583 0.401014 0.595523 -0.120639 -0.240056 0.097772 -0.195906 -0.039449 -0.100237 -0.136235 -0.480457 0.540403 -0.144896 0.388823 -0.145648 -0.631280 0.205084 -0.535367 0.617504 -0.136818 -0.212728 0.081824 -0.000472 -0.205619 0.028513 -0.139509 0.351473 -0.466705 -0.337707 -0.290858 0.071339 0.127968 0.218119 -0.442681 0.166475 -0.366020 -0.166889 0.146549 -0.330906 0.718957 0.005937 0.021254 0.063311 0.325463 -0.304511 0.359980 0.167042 -0.214558 -0.529504 -0.566527 0.369119 -0.180065 -0.417346 -0.022281 0.409864 0.294498 -0.076991 0.443436 0.385315 -0.138686 0.248069 -0.062308 0.043780 -0.011491 0.342787 0.044645 -0.109273 0.318052 -0.028493 0.045922 -0.236893 -0.579744 -0.129661 0.070149 0.063355 0.033716 0.175391 0.283898 -0.002312 -0.052339 0.297870 0.582298 -0.041678 0.298387 0.097056 0.537636 -0.082549 -0.337190 -0.081851 -0.258939 0.065592 0.224713 0.101045 0.422852 -0.321168 0.400992 0.281776 -0.119301 0.205521 0.038021 0.052485 -0.238134 0.130659 0.090254 -0.073164 0.495201 -0.120896 0.661156 0.095186 -0.220228 0.086852 0.198122 0.157915 -0.202203 0.072240 -0.078063 0.582255
['Academy_Awards'] 0.032071 -0.302416 -0.322737 -0.221225 -0.115830 -0.017775 0.019027 -0.166046 0.633929 0.388712 -0.188086 0.107460 -0.252355 -0.590627 0.260930 0.381643 0.050312 -0.246290 -0.166435 0.151765 -0.134462 0.234268 0.222392 -0.189892 0.065571 0.296510 0.126892 0.340523 -0.286386 0.340580 0.101704 -0.075552 -0.082777 -0.212118 0.136364 0.135757 0.127691 0.025999 -0.404454 0.471426 -0.177515 0.361626 -0.016418 -0.089039 0.181478 -0.142920 0.525791 0.076045 -0.342739 0.202184 -0.234538 -0.062811 0.156374 -0.308330 0.235427 -0.290441 -0.378080 0.031261 -0.019621 0.049864 0.081309 0.314327 0.389532 -0.341433 0.454663 0.265932 0.068737 -0.030749 0.004193 -0.287090 0.234492 -0.432896 -0.008806 0.074194 0.265219 0.073037 -0.167009 0.219319 -0.205069 -0.089310 0.380751 0.336410 0.135488 0.271988 0.245124 0.303740 0.165721 0.485925 -0.065120 0.112530 -0.260374 -0.311902 0.167913 0.248919 -0.160168 -0.241051 0.117626 0.154744 -0.342966 -0.169565 0.105624 0.046854 -0.398555 0.298935 0.208631 0.097071 0.415094 0.563983 0.084622 -0.284433 0.646783 -0.224696 0.204617 0.375319 0.280995 -0.258296 -0.080910 0.678439 0.338674 0.019446 0.644866 0.866887 -0.716811 -0.297443 -0.145827 0.409880 0.293001 -0.376443 0.046276 0.209839 0.035641 -0.559851 -0.381340 0.054757 -0.375547 -0.022221 -0.363405 0.283310 0.058431 -0.079891 0.398678 0.589075 -0.118777 -0.222376 0.067001 -0.184514 -0.056050 -0.111968 -0.109101 -0.454342 0.544515 -0.146775 0.424391 -0.121824 -0.634018 0.175390 -0.506844 0.629369 -0.126060 -0.196484 0.084136 -0.005966 -0.182481 -0.001285 -0.132496 0.341841 -0.477296 -0.323588 -0.285960 0.081673 0.135751 0.226568 -0.438055 0.156845 -0.363296 -0.186551 0.127775 -0.381410 0.759790 0.009410 0.039111 0.067635 0.302126 -0.291366 0.364428 0.178181 -0.221093 -0.541160 -0.577616 0.359265 -0.143238 -0.446769 -0.019345 0.413900 0.288525 -0.073749 0.477602 0.410599 -0.150185 0.244341 -0.084585 0.049913 -0.008187 0.360749 0.029162 -0.068618 0.314112 -0.007375 0.053501 -0.226709 -0.595416 -0.118152 0.031115 0.074307 0.033468 0.171400 0.293042 -0.023544 -0.035512 0.275555 0.575619 -0.025365 0.289736 0.086636 0.557376 -0.090222 -0.342425 -0.049986 -0.260375 0.093014 0.220734 0.097843 0.433022 -0.313461 0.411343 0.308568 -0.131880 0.212163 0.064667 0.064125 -0.227595 0.116593 0.065153 -0.057655 0.478444 -0.121857 0.640498 0.058631 -0.201169 0.087784 0.215681 0.138041 -0.192845 0.048491 -0.061501 0.557256
['Science_occupations'] -0.068189 -0.222386 -0.417156 -0.317847 -0.154066 0.020952 -0.036145 -0.088374 0.474488 0.199915 -0.200042 -0.080343 -0.226251 -0.526916 0.132986 0.512589 -0.124479 0.109943 -0.112097 0.015811 -0.335967 -0.198591 -0.108583 -0.088982 0.371945 0.009919 0.002429 0.055844 -0.047587 -0.135962 0.156626 -0.264280 0.224217 -0.169281 0.332356 0.189085 0.063506 -0.137228 -0.445633 0.190738 -0.095306 0.105370 -0.161942 0.139646 -0.020270 -0.499187 0.342255 0.287011 -0.257215 0.098502 -0.018639 0.286378 0.096729 -0.294515 0.246428 -0.265629 0.005305 0.033879 0.135727 -0.264904 0.190962 0.094792 0.353586 -0.221245 0.304035 -0.022066 -0.028034 -0.010383 -0.175181 0.125739 0.070202 -0.215697 -0.098955 -0.203666 0.057011 0.111126 0.002417 0.161657 -0.168391 0.189712 0.117015 0.515259 0.319863 0.064206 0.292673 0.053800 -0.057293 0.235051 -0.155297 -0.057644 0.039761 -0.307347 0.012418 0.101989 -0.354744 0.125436 0.274041 0.096508 -0.044817 0.102504 0.133695 -0.066203 -0.356580 0.128901 -0.154420 -0.010269 0.123051 0.247854 0.256713 -0.036380 0.290406 0.028599 0.081414 0.254933 0.052902 -0.224534 -0.246372 0.403676 0.537966 0.438335 0.161565 0.371223 -0.148291 -0.002015 -0.201672 0.136765 0.114076 -0.195366 -0.124285 -0.121000 -0.009402 -0.252012 -0.314323 0.011418 -0.380799 0.303193 -0.222622 0.014432 0.106490 -0.324582 -0.072075 0.259224 -0.110974 -0.396560 -0.100878 -0.015454 -0.039625 -0.069783 0.082229 -0.311485 0.360954 -0.213624 0.083486 -0.047123 0.057318 0.174590 -0.075761 0.186143 -0.200699 -0.062827 -0.086570 -0.081075 -0.142143 -0.122962 0.073993 -0.007238 -0.324877 -0.310684 -0.362565 -0.106050 -0.044095 0.165434 -0.131895 0.103703 -0.151172 0.045279 -0.017889 0.076178 0.419102 -0.067467 0.291813 -0.021862 0.293769 -0.244324 0.390943 -0.110971 -0.019348 -0.091391 -0.171093 0.354059 -0.251922 -0.282415 0.069991 0.296104 -0.146760 -0.097110 0.293473 -0.021821 -0.175760 0.091017 0.132285 0.182085 -0.316316 0.385763 -0.148497 0.218704 0.351041 0.162617 -0.022511 0.067719 -0.281434 0.290360 0.109637 0.201447 0.141420 0.455823 0.430297 -0.140912 0.018841 -0.059780 0.203693 0.180492 0.089895 0.085331 0.236445 0.006076 -0.386151 0.063043 0.112147 0.140475 0.080214 -0.043948 0.361947 -0.457376 0.153370 0.166342 -0.089903 -0.036701 -0.228585 0.190195 -0.200697 0.079863 -0.263859 -0.216600 0.445169 0.056448 0.492747 0.144290 -0.155729 0.155819 -0.024992 0.116728 0.165844 -0.049564 0.026418 0.195960
['Astronomers'] -0.075660 -0.222030 -0.417479 -0.319088 -0.155455 0.016382 -0.038194 -0.087186 0.474377 0.201052 -0.198983 -0.082160 -0.223248 -0.532236 0.131324 0.516882 -0.128520 0.109387 -0.119149 0.019699 -0.342295 -0.193977 -0.112669 -0.086542 0.373289 0.006581 0.004543 0.056090 -0.049523 -0.135030 0.156710 -0.269939 0.228755 -0.173179 0.339092 0.188391 0.066456 -0.141406 -0.450740 0.191438 -0.102241 0.104783 -0.157624 0.137964 -0.027127 -0.501891 0.345431 0.291211 -0.265341 0.098492 -0.020457 0.289549 0.102671 -0.291676 0.251534 -0.271123 0.009940 0.033918 0.140591 -0.268275 0.196162 0.098909 0.362852 -0.222618 0.308372 -0.027077 -0.029733 -0.007282 -0.171787 0.130704 0.070356 -0.220437 -0.098852 -0.200706 0.060783 0.108750 0.000045 0.166391 -0.167285 0.195886 0.116831 0.519340 0.323575 0.058161 0.297970 0.045875 -0.056241 0.239893 -0.154632 -0.051982 0.034902 -0.314449 0.009388 0.105071 -0.359497 0.126073 0.277876 0.091238 -0.046155 0.106241 0.134159 -0.063470 -0.359922 0.136157 -0.155783 -0.017598 0.124867 0.247163 0.260784 -0.034465 0.295366 0.030080 0.083179 0.256788 0.054021 -0.223758 -0.246852 0.403730 0.544266 0.440747 0.160225 0.376257 -0.151413 -0.001497 -0.206608 0.140595 0.116721 -0.195289 -0.127957 -0.126899 -0.005617 -0.258784 -0.311573 0.010583 -0.386879 0.302300 -0.226949 0.012892 0.110353 -0.327588 -0.069986 0.253607 -0.113451 -0.401439 -0.106488 -0.015941 -0.040617 -0.076973 0.089566 -0.312799 0.366382 -0.220206 0.086226 -0.046972 0.055136 0.173140 -0.075189 0.187469 -0.203679 -0.059569 -0.093843 -0.084861 -0.148268 -0.125765 0.069119 -0.013507 -0.327264 -0.313147 -0.364860 -0.102654 -0.040269 0.167445 -0.138478 0.109300 -0.148654 0.042529 -0.019029 0.076326 0.423729 -0.069246 0.291318 -0.024077 0.296508 -0.246611 0.391434 -0.115635 -0.016262 -0.090499 -0.164552 0.349716 -0.255369 -0.280720 0.076654 0.298297 -0.150898 -0.098633 0.301318 -0.021401 -0.175251 0.093179 0.134187 0.186152 -0.318203 0.383916 -0.144779 0.223274 0.351762 0.162403 -0.023009 0.066192 -0.284708 0.290183 0.109797 0.202746 0.146050 0.460165 0.433513 -0.148633 0.026041 -0.060465 0.203344 0.177873 0.087280 0.095009 0.236808 -0.001944 -0.389616 0.062288 0.111638 0.144087 0.081973 -0.040034 0.366561 -0.468333 0.150043 0.166215 -0.090746 -0.034509 -0.227689 0.195828 -0.201908 0.077183 -0.264890 -0.213453 0.444813 0.056900 0.501610 0.150870 -0.160900 0.156047 -0.029837 0.115936 0.165107 -0.050322 0.028312 0.201979
['National_Football_League'] -0.084842 -0.257479 -0.439222 -0.341998 -0.164611 0.012974 -0.063200 -0.099100 0.510992 0.222195 -0.188937 -0.097438 -0.205730 -0.554182 0.126647 0.538836 -0.154742 0.120015 -0.123709 0.009478 -0.375062 -0.188073 -0.122614 -0.073145 0.401500 -0.036098 0.003134 0.061100 -0.051687 -0.161808 0.154968 -0.301409 0.255605 -0.184164 0.352147 0.182139 0.094311 -0.138986 -0.503598 0.195238 -0.153499 0.101050 -0.155236 0.136067 -0.035926 -0.516805 0.382023 0.309018 -0.305233 0.113000 -0.017380 0.326258 0.133901 -0.319777 0.269346 -0.285395 0.019282 0.019847 0.167609 -0.277487 0.210928 0.097274 0.412175 -0.263072 0.354589 -0.018324 -0.033928 -0.000269 -0.163015 0.167302 0.081696 -0.243248 -0.139597 -0.224083 0.069304 0.113096 -0.007553 0.201130 -0.156185 0.252143 0.113867 0.545484 0.334367 0.039056 0.316264 0.018589 -0.051960 0.267613 -0.137948 -0.035438 0.021735 -0.357676 0.014267 0.117008 -0.378394 0.123398 0.307519 0.085820 -0.043533 0.126437 0.146683 -0.070088 -0.372552 0.161573 -0.178617 -0.031593 0.129354 0.240681 0.295932 -0.011232 0.330357 0.041823 0.095525 0.263295 0.056519 -0.239519 -0.283501 0.419179 0.609135 0.471099 0.185610 0.412161 -0.197025 -0.019415 -0.256078 0.164586 0.131345 -0.189312 -0.162466 -0.111580 -0.009844 -0.265233 -0.311374 0.028182 -0.395015 0.339521 -0.254715 0.025034 0.115415 -0.345419 -0.068142 0.274184 -0.153992 -0.427658 -0.114142 -0.008466 -0.038102 -0.112475 0.137804 -0.336116 0.395831 -0.247789 0.083985 -0.059282 0.046034 0.153898 -0.075310 0.177589 -0.224284 -0.051493 -0.110657 -0.101806 -0.177232 -0.151039 0.052602 -0.014089 -0.366974 -0.346843 -0.383630 -0.123769 -0.038200 0.194800 -0.164104 0.115710 -0.142749 0.021885 -0.025137 0.104042 0.456255 -0.069304 0.308094 -0.047402 0.308783 -0.276427 0.411086 -0.112082 0.001611 -0.089548 -0.158762 0.364621 -0.276136 -0.287419 0.125965 0.324661 -0.196749 -0.104205 0.326899 0.000653 -0.162046 0.091250 0.149305 0.212096 -0.354965 0.409480 -0.148819 0.222188 0.361735 0.199996 -0.021614 0.057236 -0.297297 0.303236 0.125431 0.191192 0.190453 0.501613 0.456736 -0.186232 0.058781 -0.064776 0.207655 0.195226 0.084857 0.107623 0.226574 -0.042089 -0.417671 0.090948 0.129888 0.176506 0.115188 -0.035062 0.379823 -0.536960 0.164428 0.153162 -0.103941 -0.058031 -0.227420 0.210305 -0.204129 0.081908 -0.273646 -0.201914 0.437940 0.080577 0.527999 0.178441 -0.180230 0.164566 -0.037130 0.103332 0.184738 -0.050495 0.042096 0.227802
['1928_compositions'] -0.041247 -0.059860 -0.726560 -0.288276 -0.227059 0.199419 0.017023 0.067474 0.946703 0.391723 -0.398519 0.047758 0.176607 -0.309013 0.268739 0.669736 -0.256923 0.176599 0.040797 0.153170 -0.332431 -0.288422 -0.200709 -0.340394 0.184636 -0.030781 -0.060459 -0.382789 0.008233 -0.022812 0.139510 -0.198021 0.106749 0.059856 0.187929 0.287996 -0.247983 -0.253542 -0.200147 0.513973 0.463271 0.490902 0.008505 0.183728 0.309091 -0.568145 0.392460 0.439076 0.184643 -0.046721 -0.038236 -0.084287 -0.184281 -0.241361 0.297282 0.029875 0.141479 0.081537 0.168803 -0.381767 0.101500 -0.006548 0.486594 -0.370811 0.145186 -0.019356 -0.289525 -0.163887 -0.384941 0.023679 -0.191347 0.110733 -0.566151 -0.097237 0.057921 0.051388 0.065204 0.124727 -0.168235 0.082718 0.098301 0.256167 0.219626 0.163799 0.303263 -0.034538 -0.583471 -0.039578 -0.085197 -0.437748 0.160226 -0.254129 0.109092 0.079941 -0.482753 0.053029 0.449118 0.809119 -0.132913 0.176561 0.274558 -0.191569 -0.160923 -0.317846 -0.346588 0.327699 0.113345 0.445890 0.255703 -0.064561 0.309799 -0.131529 -0.008216 -0.279726 0.104884 -0.331952 -0.168837 0.469162 0.015084 0.556523 -0.057438 0.070946 0.177431 -0.032450 0.045123 0.372431 0.258921 -0.047109 0.007083 0.031000 -0.004927 0.178705 -0.433094 -0.048256 -0.299937 0.300056 0.425584 0.090412 0.245496 -0.220979 -0.200218 0.179610 0.006435 -0.352753 -0.309303 0.023091 0.057017 -0.002593 0.222888 -0.435648 0.348159 0.012676 0.056927 0.086453 0.530113 0.398866 0.003393 0.348224 -0.104737 -0.093951 0.075397 0.225417 -0.144264 -0.197417 0.295018 -0.174793 -0.076383 -0.270353 -0.267698 0.139545 -0.070748 0.080540 -0.223823 -0.003267 -0.092139 0.246556 -0.174712 -0.090661 0.178425 -0.031631 0.674354 -0.396924 0.224972 -0.122412 0.589127 -0.121509 -0.006009 -0.030518 -0.481187 0.541492 0.035671 -0.144130 0.176916 -0.275672 -0.047578 0.126047 0.118305 -0.069207 -0.148946 -0.284155 -0.075716 0.074642 -0.441020 0.529539 -0.462018 0.453473 0.274512 0.031114 -0.332970 0.125429 -0.150450 0.784984 0.144842 0.150959 0.224651 0.371637 0.504081 -0.128321 -0.047011 -0.182798 0.073836 0.522499 -0.270970 -0.309070 0.238032 0.118653 -0.203540 -0.192824 0.168729 0.445962 0.130674 0.174541 0.264679 -0.405499 0.023165 0.247717 -0.055710 -0.101684 -0.295546 0.286238 -0.115048 0.382371 -0.329311 -0.504388 0.449566 0.240134 0.243674 -0.345124 0.067846 0.243250 0.028696 -0.185189 0.286768 -0.292195 -0.091451 0.117099
