51 256
138 0.182919 0.143756 -0.083746 -0.017585 -0.208131 0.067487 -0.412199 -0.185270 0.016962 -0.117855 -0.074381 0.299424 -0.002203 -0.251319 0.412257 0.459238 -0.138188 0.062622 -0.155450 -0.055404 -0.238324 0.143395 0.315785 0.095162 -0.057499 -0.317044 -0.114811 -0.107827 0.015532 -0.098995 0.284243 -0.004733 0.008965 -0.036812 -0.079140 0.022028 -0.076672 -0.005591 -0.205626 -0.040422 0.050924 -0.181985 0.265717 -0.075374 -0.079900 0.022828 -0.059919 0.293293 0.144636 -0.108726 -0.129084 0.030304 0.138521 -0.092859 -0.073781 -0.013709 0.033119 -0.175167 0.253723 -0.320073 -0.373583 -0.036457 0.022673 0.123289 -0.130516 -0.114417 0.022199 -0.493609 -0.129217 0.129612 -0.032762 -0.238161 -0.099849 -0.206319 0.173854 -0.141575 0.132989 0.235928 0.166810 -0.098557 0.002113 0.012478 -0.015362 0.158826 0.093766 0.288452 0.099164 -0.271146 0.060875 -0.007705 0.051700 -0.212235 0.012293 0.136281 -0.105313 0.044859 -0.278411 0.072530 -0.302106 -0.058322 -0.038643 -0.173037 0.211246 0.007524 -0.014554 -0.135508 0.222845 -0.099994 -0.005039 -0.166152 -0.113068 -0.116481 0.101710 0.000882 0.102988 0.336001 0.155627 0.027646 -0.101500 0.142404 -0.082632 -0.071717 0.109270 0.175062 0.043716 -0.013962 -0.185673 0.012558 0.050933 -0.044660 0.000040 0.006572 -0.146613 -0.011467 0.023960 0.383057 0.161161 0.149762 -0.218758 0.221534 0.103170 -0.228320 0.115096 -0.257463 0.152339 -0.002420 0.301279 0.164661 0.081112 -0.047722 -0.062594 0.016430 -0.059551 -0.051771 0.014163 -0.105973 0.059349 -0.198690 0.055525 0.183604 -0.171374 -0.266622 -0.039915 0.067648 -0.160711 0.049263 -0.209051 0.024606 0.083229 0.114162 -0.018656 -0.032879 -0.169086 -0.048957 -0.060498 -0.168831 0.108002 0.000087 -0.049685 0.119403 0.079513 -0.280857 0.108202 0.149540 0.079826 0.119362 0.051922 -0.253547 0.008430 -0.128667 -0.035299 0.099512 -0.186760 0.306432 -0.083503 0.056555 0.031425 -0.009581 -0.037631 -0.168131 -0.075761 -0.069122 -0.324172 -0.054482 -0.065689 -0.027100 -0.142087 -0.165770 -0.090505 -0.043763 0.201373 -0.072681 0.119855 0.105320 0.080875 -0.290353 0.170112 0.140411 0.074090 0.064141 0.053522 0.230986 -0.244344 0.001839 -0.131806 -0.003674 0.011659 0.015846 0.109719 0.029044 -0.120862 -0.083690 0.089105 0.206984 0.086376 -0.046898 0.153213 0.131995 0.141943 -0.094558 -0.016703 0.120867 0.129212 -0.097134 0.022288 -0.087760 0.158173 -0.012680 -0.160118 0.043491 0.160553 0.162614 -0.087546 0.189083 -0.189143 -0.058125
23 0.332999 0.209740 0.152960 0.511828 -0.186017 0.312471 -0.191343 0.010751 -0.064347 -0.126561 -0.063726 0.309131 -0.000196 -0.106215 -0.053927 0.101389 -0.085312 -0.233676 0.374908 0.418291 -0.079301 -0.255529 0.348534 -0.093462 0.064604 0.250863 -0.622602 -0.443325 0.063323 0.163906 0.174823 0.272546 0.023142 0.473886 -0.118610 -0.015184 -0.137095 0.276720 -0.390426 0.128949 0.030092 0.000381 0.014448 0.004799 0.068973 -0.129691 -0.045449 0.032803 -0.233136 0.064253 0.139064 0.497539 0.046226 -0.198521 -0.055608 0.321658 0.174791 -0.244811 0.034612 -0.184706 0.199581 -0.252367 0.308224 0.146208 0.053896 -0.084298 -0.286200 -0.322518 0.187295 -0.122050 -0.171195 0.068369 -0.241525 -0.047002 0.151451 -0.164529 0.360185 0.022691 0.153546 -0.326116 -0.218351 -0.368781 -0.143278 0.131712 -0.395287 0.194633 -0.185151 -0.103439 -0.026367 -0.133176 -0.127439 -0.055046 0.119186 -0.208615 -0.160081 0.016308 0.083067 -0.025846 -0.129989 -0.441213 0.105736 -0.393192 -0.140933 0.068300 0.310781 -0.008490 0.361455 -0.186487 0.469584 0.085996 0.192324 0.062246 0.441581 -0.140489 -0.202050 0.159326 0.212447 0.273687 -0.194413 -0.103821 -0.282155 -0.326448 0.086979 0.088652 0.343389 0.048155 0.028644 -0.020421 -0.466468 0.369336 -0.038506 -0.038774 -0.165942 -0.012693 -0.055609 0.169868 0.054127 0.411557 -0.333300 0.187164 -0.013317 -0.168821 0.049639 -0.105557 0.303345 -0.410190 0.171753 -0.057356 -0.385670 0.154165 0.154742 0.542881 -0.259720 0.145629 -0.241040 -0.000901 -0.189948 0.077315 -0.040298 0.101168 0.070848 -0.136753 -0.065327 0.011851 0.187774 0.049036 -0.099211 -0.033849 0.288144 0.227063 -0.284692 0.205104 -0.167401 0.081284 -0.161983 0.134374 0.037404 0.041878 0.125480 0.064261 0.108512 -0.294974 0.178925 -0.074244 -0.078813 -0.152885 -0.308402 -0.442842 0.065144 0.337221 0.191103 0.392882 -0.091521 -0.079078 -0.333905 0.061137 0.157523 -0.160532 -0.077791 -0.044911 -0.066731 0.006126 -0.017712 -0.100960 -0.093482 -0.142687 -0.342950 0.011695 0.262597 0.058133 0.054288 -0.213604 0.148096 0.111612 0.305585 -0.051477 -0.041000 -0.148724 -0.252746 0.066182 0.268631 0.263162 -0.233340 -0.090330 -0.391684 0.323285 -0.049303 0.037256 0.231471 -0.078395 -0.179954 -0.204605 0.157426 0.197585 0.049071 0.267940 -0.061327 0.491378 -0.121885 0.199220 -0.548247 -0.170917 0.034081 -0.187124 -0.174014 0.047199 0.210523 -0.506985 -0.119789 0.215381 0.274348 -0.170457 0.348636 0.051920 -0.145576 -0.275401
144 0.264453 0.181272 -0.100601 -0.001878 -0.239821 0.088867 -0.429257 -0.195901 0.037641 -0.134647 -0.094550 0.322127 -0.023041 -0.286540 0.450863 0.480834 -0.113071 0.123307 -0.148495 -0.025958 -0.230023 0.107812 0.299392 0.120329 -0.106490 -0.322880 -0.103184 -0.131938 0.002577 -0.094202 0.290455 -0.004555 0.017679 -0.077638 -0.065540 0.002263 -0.079544 -0.034667 -0.241691 -0.012888 0.053567 -0.207309 0.271239 -0.088813 -0.082653 0.043525 -0.065425 0.285486 0.164257 -0.077690 -0.113729 0.064111 0.123287 -0.095869 -0.091372 -0.043874 0.034086 -0.170987 0.238658 -0.323583 -0.364610 -0.048249 0.038076 0.069326 -0.150166 -0.079288 -0.021521 -0.487979 -0.101717 0.118292 -0.051508 -0.239683 -0.097130 -0.195735 0.174570 -0.138370 0.136359 0.269821 0.164623 -0.114256 0.014043 -0.004101 -0.034381 0.214886 0.047740 0.274154 0.071174 -0.283604 0.092322 0.004286 0.052147 -0.265538 0.009738 0.122524 -0.106866 0.025004 -0.273030 0.082871 -0.280136 -0.071399 -0.004794 -0.162891 0.211447 -0.000294 -0.040905 -0.177653 0.210172 -0.147619 0.006490 -0.150686 -0.110866 -0.116587 0.101451 -0.018199 0.122289 0.331952 0.185023 0.027140 -0.139009 0.149685 -0.102201 -0.077930 0.097413 0.167487 0.060115 -0.016233 -0.150785 0.017073 0.056035 0.007422 -0.047692 0.020034 -0.141870 0.007015 0.009110 0.436296 0.205608 0.148610 -0.260440 0.218361 0.092662 -0.263828 0.150321 -0.288377 0.190792 -0.025023 0.298755 0.160047 0.044182 -0.046522 -0.002807 0.079491 -0.067543 -0.061536 0.035174 -0.109146 0.080323 -0.210544 0.061403 0.250728 -0.171571 -0.293702 -0.015943 0.091625 -0.136069 0.064180 -0.239440 0.011975 0.119418 0.104792 -0.006537 -0.041409 -0.163146 -0.038891 -0.041011 -0.163175 0.096252 -0.001096 -0.039422 0.104205 0.086950 -0.326518 0.110486 0.186783 0.056987 0.069519 0.050934 -0.251338 0.028567 -0.129640 -0.037494 0.155951 -0.204262 0.322800 -0.066141 0.049309 0.045382 -0.026844 -0.037585 -0.148031 -0.108057 -0.075260 -0.352425 -0.055196 -0.086621 -0.036365 -0.156401 -0.188555 -0.093499 -0.047830 0.149885 -0.085694 0.113678 0.083734 0.069907 -0.303937 0.186831 0.108265 0.059862 0.065636 0.023563 0.227790 -0.280466 -0.005862 -0.188644 -0.018166 0.010021 0.049813 0.116266 0.057662 -0.092439 -0.096188 0.117359 0.255589 0.093629 -0.081754 0.154756 0.184067 0.134089 -0.087004 -0.008354 0.122344 0.133357 -0.107129 0.009303 -0.089867 0.133056 -0.029633 -0.187946 0.031473 0.149156 0.212817 -0.077103 0.202694 -0.216354 -0.066329
48 0.191426 0.136868 -0.067749 -0.017428 -0.207471 0.090435 -0.418513 -0.172353 0.031381 -0.117891 -0.079816 0.293124 -0.001014 -0.230452 0.403298 0.455329 -0.149505 0.051558 -0.161666 -0.062459 -0.237451 0.177163 0.307872 0.084567 -0.048813 -0.313632 -0.094907 -0.119197 0.030441 -0.107323 0.279258 0.003657 0.030322 0.004545 -0.081802 0.018647 -0.058586 0.007738 -0.182364 -0.068753 0.057942 -0.190722 0.268683 -0.083362 -0.078556 0.002612 -0.067444 0.282810 0.110857 -0.108890 -0.141249 0.051089 0.140699 -0.100423 -0.065069 0.001254 0.022017 -0.169794 0.232024 -0.350993 -0.373671 -0.025784 0.001906 0.124981 -0.124183 -0.144655 0.035326 -0.506979 -0.142160 0.112524 -0.024662 -0.225561 -0.113323 -0.218303 0.190050 -0.155750 0.140369 0.220056 0.184476 -0.086776 -0.019317 0.001023 -0.011341 0.152483 0.091708 0.318316 0.092058 -0.266622 0.044084 0.006058 0.024961 -0.200869 0.018213 0.122112 -0.121018 0.025647 -0.290357 0.075695 -0.317394 -0.039775 -0.033094 -0.166466 0.191102 -0.003025 -0.001008 -0.122689 0.224556 -0.084792 -0.011069 -0.179192 -0.135374 -0.139449 0.132322 0.001854 0.112953 0.324326 0.167044 0.025089 -0.098172 0.156724 -0.112253 -0.078609 0.094597 0.184405 0.018576 -0.022170 -0.189125 0.006515 0.031586 -0.053579 -0.003345 0.003012 -0.153509 -0.029966 0.029316 0.377175 0.129010 0.151225 -0.217409 0.202975 0.084912 -0.231401 0.118157 -0.268070 0.150589 -0.004748 0.268462 0.168779 0.094607 -0.030487 -0.061638 0.046723 -0.071316 -0.035083 -0.027411 -0.122469 0.063612 -0.183483 0.039989 0.179797 -0.171533 -0.279192 -0.051583 0.037751 -0.177596 0.065177 -0.188925 0.010592 0.091851 0.118254 -0.029408 -0.033159 -0.180260 -0.026135 -0.047183 -0.142567 0.120271 -0.014563 -0.059885 0.138425 0.102333 -0.290839 0.106963 0.157387 0.104032 0.128517 0.047780 -0.253236 0.017004 -0.133130 -0.049043 0.086567 -0.182444 0.309967 -0.067813 0.065193 0.050376 -0.020149 -0.036546 -0.163517 -0.062463 -0.069473 -0.307228 -0.031402 -0.067073 -0.050277 -0.139010 -0.165540 -0.078528 -0.028293 0.205936 -0.084617 0.124287 0.102095 0.113882 -0.292365 0.137743 0.179047 0.060499 0.062596 0.042268 0.239697 -0.265995 -0.005565 -0.098741 0.024387 0.003782 0.015440 0.108521 0.020553 -0.116874 -0.055752 0.091814 0.199359 0.091246 -0.008578 0.141798 0.124332 0.117516 -0.096992 -0.041108 0.094738 0.133045 -0.094903 0.035149 -0.089413 0.160958 -0.004762 -0.159205 0.068319 0.181187 0.144454 -0.087790 0.189181 -0.177465 -0.063361
135 0.270081 -0.064271 0.018259 0.172995 -0.228977 0.058679 -0.237211 -0.062462 0.074014 -0.024654 -0.017538 0.293819 -0.033787 -0.251657 0.297292 0.461206 0.016405 0.185031 0.132765 0.063430 -0.209757 -0.067283 0.231416 0.053463 -0.203987 -0.062592 -0.231353 -0.227472 -0.008706 -0.359419 0.200044 -0.230315 0.084593 -0.369265 0.024665 0.029613 -0.121870 -0.148721 -0.256191 -0.114505 0.058148 -0.220743 0.152020 -0.013498 0.002788 0.086487 -0.067060 -0.136950 0.038375 -0.022501 0.047530 0.025281 0.047824 -0.036170 -0.139569 0.053967 -0.082679 -0.074796 0.262668 -0.111226 -0.206896 0.131678 -0.061515 0.044046 -0.058938 0.089132 0.025909 -0.155864 0.046205 0.104605 -0.119940 -0.315557 -0.222470 -0.308554 0.124872 -0.006206 0.016886 0.227679 0.059362 0.087357 0.074496 -0.066662 -0.222298 0.053756 0.100903 0.138609 0.172791 -0.286021 0.073042 -0.154494 -0.169399 -0.154199 -0.040654 0.131667 -0.007180 -0.109938 -0.276151 -0.058228 -0.287768 -0.215239 -0.007961 -0.117864 0.118350 0.086345 -0.124295 -0.105674 0.025678 -0.009536 0.083552 -0.184067 -0.067195 -0.116476 0.091688 -0.236176 -0.023853 0.183386 0.085450 0.039847 -0.270777 -0.025767 -0.040279 -0.062958 0.226220 0.063142 -0.014686 0.137912 -0.021286 0.026369 -0.029911 0.045880 0.015856 -0.081970 -0.119435 0.021061 -0.052659 0.127513 0.217556 0.071834 -0.098947 -0.008419 0.275433 -0.172949 0.318547 -0.053355 0.200607 0.102677 0.178788 -0.026385 -0.306271 -0.045617 -0.064455 0.010060 -0.032277 0.017973 0.174102 -0.063379 0.078734 -0.117028 0.352137 0.118944 -0.114484 -0.130293 0.163995 0.094219 0.061293 0.065292 -0.275877 0.119223 0.095014 0.190106 0.107328 0.012896 0.015551 -0.174324 0.211794 -0.157387 0.091251 0.107160 0.020325 -0.112272 -0.061241 -0.174859 0.151571 0.064623 -0.115611 -0.002480 0.209931 -0.289015 0.091423 -0.029537 0.098793 0.198220 -0.129295 0.119880 -0.099238 0.054775 -0.092541 0.179104 -0.095713 0.016749 -0.025160 0.027636 -0.411674 -0.098073 -0.206404 0.101231 -0.029381 -0.270737 0.026187 0.020859 0.032558 0.050567 0.306376 0.065910 -0.134203 -0.165739 0.425443 0.036052 0.100139 0.033836 0.049300 0.210724 -0.192345 0.108745 -0.255929 0.101310 0.124567 -0.049071 0.003395 0.056498 -0.046189 -0.073019 0.144138 0.295004 -0.127218 -0.088629 0.080085 0.133041 0.294189 0.116934 0.329782 0.128997 0.197518 -0.104749 0.016613 -0.040573 0.095295 -0.062287 -0.147378 0.037886 0.135279 0.146936 0.041089 0.068158 -0.363754 -0.081151
122 0.297103 -0.039779 0.004869 0.153318 -0.259482 0.024500 -0.273926 -0.092788 0.063341 -0.041761 -0.034548 0.287526 -0.032285 -0.273437 0.303746 0.446066 0.011870 0.172095 0.087044 0.025398 -0.209955 -0.074228 0.240471 0.061311 -0.202228 -0.092061 -0.220638 -0.230744 -0.026763 -0.293095 0.194768 -0.206088 0.077461 -0.363242 0.016713 -0.001938 -0.141043 -0.153264 -0.242127 -0.085032 0.059795 -0.216602 0.188627 -0.037220 -0.003240 0.106150 -0.029603 -0.071945 0.102542 -0.021038 0.036287 0.000804 0.058306 -0.030862 -0.148134 0.002670 -0.071175 -0.080623 0.241700 -0.107782 -0.253508 0.092935 -0.030221 0.055739 -0.071678 0.100486 0.021572 -0.175487 0.027864 0.097012 -0.098409 -0.283790 -0.207241 -0.313585 0.151060 -0.029079 0.039350 0.238125 0.075236 0.052121 0.086398 -0.018220 -0.184694 0.054595 0.098260 0.154720 0.173867 -0.269416 0.075227 -0.170777 -0.137879 -0.185639 -0.062707 0.146760 -0.035056 -0.096690 -0.270271 -0.047337 -0.281357 -0.203435 -0.030379 -0.121572 0.127564 0.085083 -0.123016 -0.147364 0.052840 -0.011999 0.072923 -0.170907 -0.066673 -0.118670 0.073459 -0.205084 -0.016952 0.196282 0.080910 0.055336 -0.241875 0.008591 -0.047932 -0.067337 0.221756 0.076833 0.026909 0.126203 -0.034333 0.024719 -0.011897 0.058993 0.005252 -0.063429 -0.132370 -0.002750 -0.056032 0.171573 0.238071 0.069659 -0.098309 0.013843 0.271002 -0.196958 0.312098 -0.090437 0.205726 0.092307 0.217858 -0.004794 -0.250307 -0.059242 -0.056541 -0.002649 -0.014704 -0.028380 0.153919 -0.088865 0.105954 -0.122854 0.299872 0.141624 -0.111723 -0.161757 0.151530 0.112294 0.031392 0.059608 -0.277238 0.101744 0.094488 0.177670 0.109335 -0.007772 -0.011129 -0.159432 0.176625 -0.156784 0.094513 0.103801 0.041506 -0.087045 -0.049956 -0.196368 0.141584 0.090256 -0.111066 0.003622 0.189431 -0.275843 0.071365 -0.036796 0.085018 0.211636 -0.140251 0.144509 -0.110535 0.029476 -0.070718 0.165313 -0.088805 -0.018571 -0.014997 0.014350 -0.431205 -0.102392 -0.174091 0.101171 -0.048403 -0.249693 0.004438 -0.016474 0.055601 0.022255 0.276971 0.075691 -0.128604 -0.212712 0.412764 0.029689 0.094062 0.059929 0.073096 0.172936 -0.171063 0.101532 -0.263819 0.089554 0.090924 -0.029892 0.020023 0.053238 -0.026182 -0.090924 0.153865 0.301674 -0.103405 -0.104798 0.103416 0.122528 0.264459 0.081064 0.302186 0.135744 0.193919 -0.088093 0.018755 -0.063971 0.073212 -0.055756 -0.164597 0.020487 0.133570 0.158716 0.002553 0.076865 -0.356605 -0.112007
19 0.426717 0.265924 0.003736 -0.042103 -0.266920 0.160247 -0.169237 0.183267 -0.140276 0.058214 0.079042 0.271322 0.106768 -0.316470 0.141481 -0.076496 -0.114508 -0.068656 0.280078 0.238914 -0.071692 -0.021753 0.455318 0.053898 -0.044482 -0.097083 -0.151488 -0.416727 0.247457 -0.094206 -0.029838 0.013482 0.076613 0.381345 -0.270213 0.124007 -0.278606 -0.231869 -0.107286 -0.185674 0.065883 0.145604 -0.013763 0.106675 -0.079583 -0.299525 -0.017030 0.088790 0.291383 -0.284454 0.054100 0.172152 0.082275 -0.291945 0.113976 0.082194 0.108487 0.117108 0.071168 -0.142895 0.109511 0.049130 0.048327 0.321316 0.257628 0.020480 0.080151 -0.153514 0.051816 -0.190675 0.289025 0.094950 0.069413 -0.160639 -0.154750 0.034699 0.062022 -0.010402 0.443697 0.312312 -0.023203 -0.205417 0.003124 -0.094352 -0.292978 0.311444 0.368490 -0.275983 -0.138993 0.181621 0.052946 0.339082 0.159356 0.146278 -0.226247 -0.206973 -0.207845 -0.009558 -0.159634 -0.226836 0.233029 -0.095446 -0.075978 -0.061547 -0.031171 0.086951 0.022393 -0.386368 0.188981 -0.143655 0.433386 0.058223 0.051373 -0.190175 -0.129739 0.149540 0.156079 0.096468 0.030813 0.194219 0.205407 -0.240194 0.164349 0.256426 -0.121720 -0.000988 0.021704 -0.136429 -0.170811 0.245469 0.136732 -0.243992 -0.431664 0.094200 -0.236332 -0.046598 -0.103105 0.371985 -0.180994 0.073869 -0.169587 -0.027164 0.184049 0.029802 0.171917 -0.137295 0.257133 -0.145735 -0.511808 -0.003861 -0.101549 0.210987 -0.173080 0.127060 -0.239523 0.084601 0.040738 -0.012384 0.141831 0.002393 0.199502 0.389084 0.023938 -0.167363 -0.133696 -0.140418 -0.164325 0.183428 -0.264161 0.196215 -0.113688 -0.341199 0.024254 0.157366 0.090350 -0.017161 0.072741 -0.037670 -0.230517 0.333248 0.159253 0.010647 0.066636 0.026969 -0.222492 0.291972 0.062163 -0.474834 -0.251845 0.248359 -0.271915 0.223150 0.044263 -0.206739 -0.129233 -0.133901 0.145070 0.285033 0.225613 -0.035336 -0.072563 0.121605 0.043163 -0.156429 0.056152 -0.432690 -0.054562 -0.091883 0.216142 0.255805 -0.141957 -0.114472 -0.170275 -0.166144 0.419591 -0.209001 -0.073832 0.036125 0.012137 -0.015335 0.225541 0.330384 -0.353506 0.194973 -0.300012 0.354807 0.125475 -0.168364 0.293874 0.232910 -0.359900 -0.269589 -0.154410 0.245603 -0.027772 0.027197 -0.075200 0.215453 0.190515 -0.146964 -0.220544 0.051319 0.226570 0.258392 -0.203823 -0.152929 0.307038 -0.403027 -0.213079 -0.011938 0.091303 -0.109844 -0.086792 0.065793 -0.135221 0.071243
27 0.243672 0.233993 0.389257 0.522353 -0.524370 0.138456 -0.350717 0.280045 -0.284321 0.122807 0.122613 0.010248 -0.128105 -0.215190 0.393783 -0.031893 -0.036101 -0.214506 0.176119 -0.022103 -0.055267 -0.407769 0.480447 0.036147 0.312941 0.123865 -0.639982 -0.089873 0.237537 -0.042762 0.272710 -0.141901 0.004734 -0.216861 -0.057062 -0.152207 -0.207948 -0.216036 -0.153083 -0.027981 0.057806 -0.392528 0.115271 -0.020254 0.265626 0.129288 -0.005734 0.055633 -0.126682 -0.085287 -0.277262 0.067152 -0.048464 -0.065000 -0.121593 -0.039873 -0.395370 0.161757 -0.455912 -0.385677 0.006231 -0.283827 0.144577 0.302470 0.086461 0.206622 -0.033856 0.024994 -0.081437 -0.031405 0.037450 0.066882 -0.068186 -0.305576 0.121296 0.020659 0.314944 0.243598 0.170185 -0.102434 0.134016 0.005552 0.075830 0.027139 -0.451863 -0.058690 0.544510 -0.230430 -0.042140 -0.059318 -0.246693 0.125745 0.226181 0.036693 -0.120079 -0.504699 -0.059226 -0.235888 -0.015871 -0.339606 0.131725 -0.273297 0.221946 -0.261709 0.205242 -0.050512 -0.039900 0.019050 -0.135123 -0.253620 0.013911 0.222852 0.437096 -0.284101 0.172435 0.698038 0.274492 0.076264 0.102458 0.133139 -0.182318 -0.411440 0.396186 -0.408674 0.031256 -0.023711 0.110054 0.023271 -0.333448 0.269672 -0.221345 0.020001 -0.464049 -0.013679 -0.166247 0.419124 0.149377 0.452898 -0.142520 0.026906 0.019593 -0.032008 0.348903 -0.022686 -0.228898 -0.316918 -0.100542 0.174204 -0.418757 0.232883 0.132685 0.302315 -0.250847 0.116338 -0.384097 0.296082 0.390882 -0.114127 -0.184231 0.017622 -0.127679 -0.153827 0.415223 0.075644 0.107384 0.287344 -0.083679 0.475447 0.363203 0.155518 -0.272948 -0.079946 -0.163938 0.080006 0.283799 0.337057 -0.025536 0.100679 0.097854 0.254294 0.318330 -0.586005 0.255971 -0.011547 -0.228089 0.207218 -0.052718 -0.337815 0.084004 0.170359 0.114624 0.566516 -0.025561 0.233131 -0.339137 -0.164156 0.094510 -0.014583 0.265348 0.097765 -0.186200 -0.204727 0.249626 0.241361 -0.221432 -0.073058 -0.142951 0.052485 0.360803 0.547808 0.071951 -0.192690 0.132437 -0.257317 0.317448 -0.471699 -0.043002 0.216097 0.153477 0.142924 -0.067626 0.114993 -0.556585 0.061022 -0.288611 0.401296 -0.299263 -0.136931 0.290229 -0.206984 0.064232 0.274391 0.282558 0.305014 -0.069944 0.101539 0.232732 -0.108811 0.074998 -0.127898 -0.294257 -0.268112 0.075127 0.030756 -0.008367 -0.101660 -0.014600 -0.052500 -0.271880 0.211927 0.297537 0.378485 0.265962 0.564156 -0.457910 -0.176690
58 0.191020 0.161651 0.165179 0.526023 -0.086758 0.022191 -0.229290 0.232203 -0.334678 0.142426 0.218375 0.209629 -0.072634 -0.215872 0.213078 -0.153481 -0.126595 -0.307758 0.319397 -0.025590 -0.272570 -0.024684 0.654059 -0.350362 0.615550 0.132990 -0.787639 0.131787 0.242071 -0.306872 0.155203 0.054487 0.088066 0.299919 0.095081 0.054740 -0.079743 0.250967 -0.133019 -0.162007 0.241560 -0.042445 -0.078457 0.322901 0.254700 -0.007602 -0.025098 0.063316 -0.128808 -0.307607 -0.181543 0.043606 0.225207 -0.258671 0.043291 0.509530 -0.478893 -0.117882 0.121255 -0.378564 0.166965 -0.123717 -0.101205 0.474869 0.065536 -0.332136 0.199989 -0.344681 -0.092887 0.023364 0.143893 -0.072407 -0.041635 -0.719142 0.167442 0.139035 0.234570 0.058307 0.001724 -0.228930 0.008457 -0.126743 -0.101179 -0.286459 0.075651 0.149246 0.200691 -0.268171 -0.299506 -0.217999 -0.051220 0.339553 0.354018 0.035123 0.118481 -0.239827 -0.307826 -0.049756 -0.490179 -0.506762 -0.062289 -0.453555 0.042981 -0.011372 0.319967 0.278900 0.289613 0.222743 0.247245 -0.381209 0.236821 -0.127203 0.530205 -0.311471 -0.332481 0.387361 0.052150 -0.108874 -0.130894 0.061547 -0.084993 -0.294308 0.691759 0.074933 -0.212473 0.099048 -0.229546 0.258057 -0.212169 0.093214 0.303417 -0.301075 -0.291007 -0.034357 -0.132496 -0.120384 -0.005773 0.406589 -0.086312 0.335739 0.073853 -0.108864 -0.163327 0.241052 -0.062735 -0.240481 0.246756 0.038349 -0.356367 0.016486 -0.299654 -0.034188 -0.341103 0.235119 0.029003 0.003954 -0.070504 -0.119009 0.308464 -0.307568 0.064232 0.034340 0.321739 -0.237444 -0.019266 0.027610 -0.235081 0.368678 0.062083 0.590520 -0.345609 0.123933 0.076943 -0.317920 -0.052087 0.128259 -0.090885 0.329849 0.005356 0.272006 0.003003 -0.287583 0.266958 -0.190845 -0.063216 0.242008 -0.046729 -0.729824 -0.097280 0.243838 0.317514 -0.072073 0.293678 -0.075879 -0.573274 0.132361 0.123208 0.321314 0.118933 0.216528 0.146247 0.061713 0.055035 0.096851 -0.170428 -0.140296 0.001255 -0.006108 0.445250 0.357235 0.538666 0.068611 0.512845 0.120271 0.128011 -0.099842 0.109190 0.254840 0.213033 -0.047560 0.297840 0.393148 -0.266854 0.268404 -0.068345 0.393322 0.103479 -0.532438 0.110147 -0.280887 -0.183868 -0.116708 0.099883 -0.040951 -0.131412 0.309714 -0.135859 0.203199 0.135653 0.164908 -0.101156 0.083173 0.092237 -0.192279 -0.077206 0.072969 0.393809 -0.425386 -0.226709 0.471844 0.350719 -0.240148 0.103205 0.166370 -0.266018 0.020904
126 0.336608 0.283367 0.095796 0.275418 0.153390 0.219254 -0.217910 0.180192 0.031893 0.099057 0.286583 0.279702 0.387587 -0.278403 0.539966 -0.007620 -0.618181 -0.357020 0.162570 0.570096 -0.248185 -0.063643 0.333363 -0.033657 0.194517 -0.098491 -0.334895 0.077190 0.290508 -0.433993 0.268667 -0.216015 0.077658 -0.058265 -0.208444 0.277611 -0.101501 0.261877 -0.543314 -0.334862 -0.247243 0.447272 -0.100565 0.053108 0.107968 -0.049505 -0.313947 -0.024861 -0.400168 -0.147915 -0.263870 0.330658 0.045901 -0.083048 -0.063676 0.458938 -0.129030 -0.066851 0.111678 0.036824 -0.133956 0.010155 0.102800 0.186616 0.227941 -0.189634 0.093356 -0.108547 0.120012 -0.063934 -0.112858 -0.241070 -0.142120 0.147674 -0.338864 0.167077 0.126972 0.330505 -0.234900 0.201861 -0.183756 -0.378939 0.177591 -0.209209 -0.242416 0.126689 0.323321 -0.425724 -0.168043 0.092866 -0.189509 0.159889 -0.112012 0.125742 -0.038132 0.059775 -0.213630 -0.298203 -0.347522 -0.490641 -0.116545 -0.376878 0.311594 -0.124350 0.129313 0.203052 0.324996 -0.054326 0.169950 -0.349226 -0.071600 0.276049 0.088069 0.054566 -0.060617 0.391604 -0.012931 0.282532 -0.039876 0.167785 -0.107408 -0.350872 -0.078111 0.118472 -0.045822 0.081064 -0.328342 0.063468 -0.313191 -0.176854 -0.096375 0.243680 -0.190819 0.128418 -0.069106 0.155245 -0.028557 0.451387 -0.182604 -0.029022 0.315942 0.431059 0.258831 0.142925 -0.114809 -0.309216 0.018641 0.022112 -0.179643 0.132357 -0.361636 0.152449 -0.242606 -0.006146 -0.027051 0.356785 -0.267229 0.023504 0.111272 0.047419 -0.269656 -0.276173 -0.161573 -0.109512 -0.146152 0.201336 -0.075920 0.218050 -0.083704 0.447453 -0.228600 0.090704 -0.404276 0.082173 -0.065652 -0.068462 0.337185 0.186141 -0.320223 0.238616 0.191513 -0.055922 0.206117 -0.175361 0.218880 0.171694 -0.434854 -0.469446 -0.043060 -0.068923 0.043169 0.315943 -0.110427 -0.123360 -0.111654 0.034303 -0.234391 -0.173126 0.268345 -0.084154 -0.346561 0.048947 0.159299 -0.140348 -0.224792 -0.173875 -0.024990 -0.041530 0.440819 0.502778 0.056884 -0.111679 -0.041059 -0.239277 0.330697 0.053083 -0.021736 -0.134425 0.211337 -0.005606 0.036293 0.521357 -0.562754 0.108252 -0.056335 0.299777 0.043138 -0.061740 0.042542 -0.273153 -0.229267 0.220223 -0.292543 0.262061 0.064098 0.052785 0.212339 0.182650 0.324645 0.020808 -0.335036 -0.280332 0.349701 -0.077887 -0.340652 0.311464 0.280840 -0.380733 -0.157578 0.125314 0.322358 0.287993 0.262209 0.470028 -0.451527 -0.072238
129 0.232828 -0.101537 0.028439 0.173448 -0.142171 0.183203 -0.056956 -0.009909 0.107449 -0.068514 0.005862 0.374116 -0.024807 -0.216755 0.279349 0.471658 0.019192 0.240915 0.255097 0.188167 -0.213851 0.015499 0.197528 0.074727 -0.212759 0.023296 -0.210642 -0.249308 0.033282 -0.520506 0.234258 -0.210679 0.120720 -0.260702 -0.005275 0.119192 -0.062912 -0.143793 -0.294970 -0.188278 0.038892 -0.259531 0.061327 0.014874 -0.003762 0.034211 -0.217982 -0.239041 -0.148119 -0.008321 0.078532 0.166756 0.047729 -0.103955 -0.082448 0.157732 -0.086074 -0.078484 0.300721 -0.171622 -0.039500 0.218170 -0.159561 -0.009668 -0.090006 0.027966 -0.054144 -0.153533 0.060903 0.105511 -0.190602 -0.367098 -0.219527 -0.225179 0.042218 0.040071 -0.046197 0.195539 0.095634 0.134720 0.019811 -0.265842 -0.319940 0.158347 0.011649 0.167666 0.049059 -0.338358 0.051570 0.004393 -0.204126 -0.040557 0.095986 0.069882 0.052939 -0.147153 -0.294276 0.012403 -0.226922 -0.243853 0.153871 -0.130420 0.075020 0.052258 -0.107987 0.008287 -0.049889 -0.071433 0.184033 -0.201755 -0.060482 -0.115886 0.178911 -0.307718 -0.005609 0.160513 0.172359 -0.047024 -0.387331 -0.048725 -0.041157 -0.035004 0.179693 0.096300 -0.111743 0.127008 -0.003022 0.022327 -0.067693 0.007798 0.021408 -0.141336 -0.069717 0.128053 -0.015941 0.074709 0.157476 0.083239 -0.246627 -0.023819 0.199324 -0.192194 0.343131 -0.018291 0.240715 0.054738 0.115208 -0.072394 -0.472560 -0.013873 0.010509 0.148836 -0.103829 0.146609 0.195782 0.011598 -0.005071 -0.133774 0.413245 0.119085 -0.115087 -0.054000 0.175792 0.018882 0.091491 0.086237 -0.278824 0.084142 0.102563 0.215047 0.058540 0.076642 0.069552 -0.142813 0.247120 -0.150009 0.035522 0.066505 -0.035140 -0.164236 -0.066741 -0.151318 0.162838 0.024140 -0.110823 -0.072715 0.270074 -0.300043 0.169569 0.035479 0.139426 0.174050 -0.103367 0.068697 -0.029411 0.110768 -0.125490 0.164395 -0.119660 0.068772 -0.107102 0.055477 -0.351193 -0.046664 -0.263669 0.030704 -0.049629 -0.304476 0.059927 0.070692 -0.064255 0.083137 0.332708 0.065835 -0.084271 -0.065666 0.418145 0.055422 0.039045 -0.021716 -0.047535 0.333829 -0.336214 0.126460 -0.272564 0.088112 0.265894 -0.022261 0.027423 0.151273 -0.138745 -0.064830 0.140096 0.309878 -0.129367 -0.019579 -0.028822 0.216714 0.297020 0.171235 0.351235 0.108906 0.218309 -0.200538 -0.012127 0.013910 0.164164 -0.159788 -0.117361 0.104463 0.085504 0.117502 0.173357 0.056784 -0.333809 0.046727
16 0.414401 0.254070 0.028635 -0.017520 -0.306801 0.155868 -0.171523 0.174941 -0.156164 0.057695 0.058899 0.262183 0.069627 -0.306214 0.125312 -0.056827 -0.072709 -0.055847 0.290649 0.211776 -0.057977 -0.050895 0.463455 0.055124 -0.037809 -0.059800 -0.170917 -0.441380 0.249131 -0.074270 -0.017404 0.027938 0.059097 0.372910 -0.250876 0.113323 -0.285497 -0.252239 -0.087769 -0.159545 0.070315 0.094985 0.000104 0.093069 -0.069909 -0.291826 -0.008311 0.088890 0.309459 -0.275810 0.048262 0.164688 0.060441 -0.299755 0.116243 0.061512 0.104546 0.109131 0.046662 -0.166309 0.106258 0.040789 0.063949 0.334042 0.242327 0.046448 0.059892 -0.160364 0.036083 -0.184852 0.275825 0.100841 0.067380 -0.182312 -0.129395 0.017422 0.078861 -0.022471 0.466006 0.283679 -0.000641 -0.193275 -0.002802 -0.070640 -0.302910 0.291561 0.381554 -0.255021 -0.110300 0.171180 0.057012 0.329254 0.182707 0.128057 -0.231102 -0.232272 -0.192053 0.000047 -0.141352 -0.231704 0.246058 -0.094527 -0.074453 -0.060961 -0.026129 0.054599 -0.004577 -0.386484 0.173046 -0.133704 0.433459 0.069626 0.083228 -0.217773 -0.122099 0.165561 0.178938 0.068913 0.040708 0.181711 0.197518 -0.244396 0.195257 0.228724 -0.109262 0.002413 0.049976 -0.146751 -0.173322 0.268263 0.140218 -0.258584 -0.445334 0.080213 -0.242812 -0.021957 -0.087039 0.361275 -0.181087 0.068309 -0.185689 -0.059957 0.196791 0.027178 0.172914 -0.137228 0.258195 -0.133493 -0.522404 0.002862 -0.068455 0.225908 -0.166162 0.144203 -0.267753 0.087704 0.085107 -0.024988 0.137288 0.006329 0.219272 0.405290 0.059968 -0.146309 -0.107754 -0.144966 -0.171663 0.197004 -0.226459 0.177328 -0.112685 -0.349383 0.035312 0.163470 0.115820 -0.003363 0.049172 -0.059592 -0.191087 0.325045 0.160031 -0.018060 0.065504 0.030311 -0.247723 0.303459 0.098863 -0.468704 -0.235597 0.269796 -0.259401 0.239730 0.039746 -0.176896 -0.145774 -0.142709 0.148280 0.298234 0.219714 -0.037341 -0.059545 0.100972 0.046602 -0.142345 0.053240 -0.417239 -0.069174 -0.092152 0.208236 0.241675 -0.146495 -0.124893 -0.166635 -0.159430 0.414566 -0.239853 -0.073197 0.059804 0.011326 -0.008626 0.214348 0.310834 -0.343482 0.191094 -0.315645 0.343521 0.094200 -0.157029 0.304111 0.238328 -0.349279 -0.275366 -0.107277 0.244969 -0.026766 0.019114 -0.082764 0.198034 0.181193 -0.155364 -0.222853 0.054230 0.204081 0.268788 -0.179116 -0.189042 0.298949 -0.385260 -0.223227 -0.022210 0.080510 -0.110941 -0.087315 0.076703 -0.139482 0.060017
13 0.403672 0.256879 0.014622 -0.050700 -0.270089 0.150928 -0.179890 0.189003 -0.141236 0.071485 0.083510 0.250441 0.110969 -0.319769 0.166061 -0.088016 -0.150940 -0.094032 0.256639 0.225504 -0.087361 -0.003327 0.466227 0.055471 -0.027607 -0.125071 -0.143435 -0.392638 0.249834 -0.104956 -0.035491 -0.011205 0.073385 0.362783 -0.275916 0.124448 -0.286909 -0.238500 -0.099654 -0.211139 0.065319 0.139976 -0.002416 0.111015 -0.069675 -0.279472 -0.019874 0.108933 0.288956 -0.284346 0.027091 0.145529 0.086198 -0.283486 0.111683 0.076697 0.086246 0.124442 0.066102 -0.140387 0.091202 0.051476 0.036695 0.331482 0.260706 0.014338 0.099489 -0.137678 0.030263 -0.182428 0.303477 0.093434 0.077460 -0.167981 -0.154604 0.029000 0.056483 0.008764 0.445047 0.327526 -0.017584 -0.182094 0.028424 -0.111666 -0.276711 0.306287 0.388205 -0.288006 -0.146731 0.184789 0.045037 0.346968 0.149443 0.170456 -0.223145 -0.212872 -0.214180 -0.022145 -0.171519 -0.201330 0.215990 -0.085697 -0.049684 -0.074643 -0.027129 0.103964 0.025720 -0.361075 0.161359 -0.159603 0.415220 0.064716 0.035380 -0.172415 -0.115785 0.177327 0.140899 0.102705 0.053257 0.205786 0.210011 -0.243129 0.166920 0.249833 -0.132202 -0.011733 0.009270 -0.145970 -0.158620 0.212537 0.133508 -0.231546 -0.438870 0.096700 -0.236802 -0.040707 -0.117353 0.383798 -0.152680 0.061432 -0.156259 -0.000259 0.187913 0.023091 0.138940 -0.130777 0.251911 -0.130044 -0.496647 0.001778 -0.131968 0.172835 -0.172200 0.113498 -0.234377 0.094016 0.049397 -0.019526 0.127641 -0.011261 0.169835 0.388824 0.021724 -0.169657 -0.151241 -0.125955 -0.146672 0.196891 -0.264586 0.184692 -0.115157 -0.345441 0.019249 0.149149 0.093214 -0.017045 0.087505 -0.029280 -0.244957 0.346473 0.173618 0.022722 0.072077 0.019930 -0.200658 0.319344 0.060739 -0.461734 -0.254843 0.230084 -0.287656 0.208496 0.048625 -0.195455 -0.117275 -0.136260 0.139186 0.284253 0.238284 -0.036249 -0.071990 0.115582 0.048975 -0.150108 0.045150 -0.426826 -0.029668 -0.081024 0.207901 0.271888 -0.131661 -0.106871 -0.164447 -0.169227 0.425933 -0.217311 -0.081048 0.054409 0.032968 0.000204 0.218869 0.322248 -0.364447 0.203241 -0.271412 0.364568 0.119401 -0.179819 0.291270 0.217351 -0.370860 -0.245751 -0.154795 0.238932 -0.026567 0.030889 -0.049926 0.168384 0.201243 -0.168115 -0.220239 0.046942 0.225024 0.274277 -0.199824 -0.148944 0.311999 -0.364380 -0.213260 -0.002571 0.088450 -0.098466 -0.095197 0.090088 -0.143715 0.078407
139 0.333996 0.194639 0.140590 0.493231 -0.166998 0.311525 -0.183757 0.008107 -0.030136 -0.118535 -0.086713 0.348188 0.008912 -0.132702 -0.063617 0.134481 -0.110588 -0.212363 0.348760 0.426079 -0.107687 -0.208595 0.322263 -0.090221 0.027627 0.236663 -0.593364 -0.439435 0.040944 0.156536 0.164321 0.276719 0.042302 0.462721 -0.103599 -0.009721 -0.144887 0.289051 -0.404198 0.107339 0.039236 0.021674 0.032764 -0.007288 0.054758 -0.125144 -0.040834 0.037912 -0.237439 0.079634 0.151890 0.529400 0.057613 -0.189959 -0.081435 0.339896 0.188450 -0.248438 0.069591 -0.170350 0.183599 -0.221660 0.282581 0.121218 0.040313 -0.111039 -0.279278 -0.319035 0.202788 -0.120741 -0.168337 0.048902 -0.271043 -0.070619 0.163438 -0.200831 0.356946 0.027446 0.170254 -0.304506 -0.226708 -0.367626 -0.175642 0.119770 -0.364841 0.198872 -0.219626 -0.114384 -0.035622 -0.139902 -0.145462 -0.073878 0.099264 -0.202168 -0.158215 0.026108 0.063195 -0.016552 -0.136823 -0.441412 0.097189 -0.407900 -0.152987 0.070540 0.308192 -0.012439 0.369749 -0.171390 0.491465 0.088776 0.167955 0.029509 0.427183 -0.140058 -0.199933 0.123679 0.198396 0.279587 -0.221645 -0.103154 -0.301544 -0.307190 0.081568 0.117401 0.343329 0.070943 0.019338 -0.024316 -0.448463 0.353815 -0.042862 -0.033491 -0.153791 0.004865 -0.057763 0.150201 0.062889 0.380105 -0.318914 0.175944 0.003709 -0.180823 0.050572 -0.126777 0.352425 -0.409970 0.184825 -0.068770 -0.388573 0.139732 0.135505 0.537648 -0.253565 0.129080 -0.201560 -0.039407 -0.211031 0.085190 -0.018824 0.100212 0.074483 -0.158625 -0.073798 0.014818 0.181917 0.058354 -0.106109 -0.065604 0.280759 0.245670 -0.266353 0.208701 -0.160063 0.082247 -0.176101 0.134332 0.059025 0.060150 0.116918 0.061330 0.097031 -0.270990 0.184123 -0.072180 -0.056765 -0.182176 -0.300668 -0.433232 0.056141 0.324270 0.177479 0.386257 -0.072173 -0.084450 -0.322686 0.068599 0.154775 -0.161693 -0.117957 -0.048797 -0.070034 0.030276 -0.062581 -0.104627 -0.086393 -0.131368 -0.335373 -0.010594 0.256366 0.023022 0.047680 -0.222729 0.179897 0.139056 0.289981 -0.059687 -0.013396 -0.146895 -0.264502 0.071816 0.282366 0.278129 -0.230440 -0.076845 -0.376228 0.321921 -0.029527 0.042340 0.216441 -0.065580 -0.193283 -0.224193 0.156947 0.202368 0.057263 0.275664 -0.068548 0.503480 -0.116414 0.202447 -0.522672 -0.167346 0.057311 -0.192545 -0.174863 0.056706 0.189926 -0.506499 -0.134145 0.241970 0.263386 -0.178213 0.330640 0.010308 -0.165493 -0.287311
11 0.157092 0.133546 -0.035980 -0.013324 -0.230599 0.077903 -0.473518 -0.157502 0.025947 -0.089870 -0.085362 0.284279 0.008832 -0.217826 0.386217 0.438279 -0.204194 0.004811 -0.170767 -0.067698 -0.235316 0.169192 0.342163 0.095881 -0.052934 -0.330274 -0.103869 -0.145787 0.041080 -0.057290 0.285987 -0.016129 -0.004948 0.003795 -0.117548 0.026623 -0.094596 0.007466 -0.179838 -0.075237 0.042549 -0.178677 0.302386 -0.080583 -0.094166 -0.000060 -0.041480 0.309763 0.134810 -0.101164 -0.159605 0.042990 0.134119 -0.090713 -0.069198 -0.007037 0.062288 -0.169431 0.233887 -0.342555 -0.426700 -0.041274 0.055115 0.180558 -0.095313 -0.126701 0.045948 -0.491759 -0.162459 0.111922 -0.000500 -0.221195 -0.129723 -0.206399 0.186568 -0.189562 0.169283 0.216623 0.213274 -0.054907 -0.027146 0.045080 0.041326 0.120751 0.092237 0.304998 0.153125 -0.263080 0.065129 -0.029613 0.014121 -0.189661 -0.023311 0.147677 -0.162577 0.054928 -0.267883 0.039920 -0.330419 -0.024253 -0.093615 -0.181563 0.215202 0.001429 0.010141 -0.129789 0.242740 -0.067590 -0.033711 -0.169602 -0.136545 -0.095174 0.092645 0.019089 0.122135 0.364564 0.135982 0.074266 -0.032302 0.149251 -0.097593 -0.099972 0.084218 0.178306 0.068401 -0.023056 -0.201723 -0.027442 0.021973 -0.060866 0.006420 0.032669 -0.186740 -0.060481 0.030749 0.388429 0.108843 0.185722 -0.155323 0.184175 0.108718 -0.186193 0.127242 -0.270348 0.117484 -0.004892 0.292990 0.173642 0.116975 -0.021191 -0.119459 0.010748 -0.046839 -0.061322 -0.074559 -0.095006 0.084728 -0.179233 -0.001083 0.162917 -0.176764 -0.253266 -0.101550 0.058627 -0.180071 0.046245 -0.154890 0.023105 0.084783 0.089876 -0.012335 -0.055129 -0.213964 -0.007683 -0.064320 -0.142556 0.160398 -0.026969 -0.070620 0.146753 0.116186 -0.253838 0.102138 0.140713 0.119540 0.190119 0.026452 -0.240878 -0.011113 -0.122738 -0.082132 0.101553 -0.195012 0.318780 -0.077832 0.042661 0.030654 -0.036007 -0.026329 -0.225064 -0.059048 -0.084213 -0.295987 -0.066134 -0.047755 -0.033871 -0.131177 -0.138368 -0.093163 -0.031933 0.210602 -0.111044 0.080047 0.100632 0.144695 -0.312601 0.121968 0.181735 0.069783 0.088609 0.072622 0.215452 -0.238666 -0.003890 -0.087795 0.046082 -0.047017 0.025209 0.122990 -0.008983 -0.149902 -0.052344 0.085307 0.184701 0.080612 -0.024890 0.190929 0.060119 0.142350 -0.131106 -0.094409 0.077575 0.128205 -0.042619 0.034710 -0.112939 0.166746 0.042269 -0.149796 0.047135 0.183852 0.151963 -0.089952 0.204065 -0.185327 -0.088597
50 0.273849 -0.054952 0.002613 0.146040 -0.266459 0.021565 -0.282490 -0.090117 0.048289 -0.034798 -0.026094 0.306107 -0.029799 -0.292735 0.334575 0.463434 0.006697 0.168354 0.094767 0.025178 -0.224629 -0.067138 0.249547 0.066746 -0.191200 -0.095730 -0.221985 -0.221347 -0.016212 -0.315567 0.207096 -0.227619 0.078472 -0.382629 0.017890 0.006843 -0.148268 -0.166722 -0.240018 -0.097953 0.068013 -0.225217 0.191255 -0.025544 0.009083 0.111083 -0.037370 -0.066064 0.111723 -0.044075 0.021406 -0.013011 0.063173 -0.044635 -0.150397 -0.000887 -0.099332 -0.077984 0.252398 -0.122619 -0.255735 0.101270 -0.054920 0.069927 -0.066890 0.099565 0.033205 -0.183092 0.019193 0.115000 -0.081548 -0.296191 -0.198417 -0.334984 0.150714 -0.026157 0.032045 0.248396 0.086561 0.065147 0.105511 -0.013144 -0.190697 0.054974 0.103427 0.159336 0.194045 -0.291625 0.071023 -0.165803 -0.126855 -0.165047 -0.051256 0.163373 -0.022218 -0.113183 -0.289103 -0.043716 -0.290321 -0.203924 -0.026743 -0.127629 0.141263 0.080615 -0.129202 -0.135101 0.050050 -0.008008 0.063804 -0.195493 -0.055594 -0.119491 0.073571 -0.220006 -0.021136 0.216205 0.079264 0.046145 -0.246384 0.019649 -0.036457 -0.068137 0.249796 0.080927 0.005491 0.128070 -0.034375 0.029676 -0.004721 0.049342 0.015546 -0.076775 -0.142604 0.014818 -0.054955 0.169664 0.243731 0.070116 -0.099229 0.013003 0.270398 -0.194494 0.314039 -0.079699 0.191558 0.101131 0.224252 0.002115 -0.267611 -0.062147 -0.074025 -0.021126 -0.022071 -0.028057 0.168734 -0.069983 0.121289 -0.134108 0.325087 0.133615 -0.115020 -0.151584 0.167471 0.113340 0.027193 0.059069 -0.284907 0.125811 0.092794 0.189071 0.106047 -0.012605 -0.004569 -0.170844 0.181413 -0.178314 0.090102 0.108833 0.038917 -0.077250 -0.042182 -0.199238 0.160580 0.087134 -0.117334 0.021843 0.209574 -0.291295 0.068042 -0.039820 0.083621 0.208194 -0.131117 0.154737 -0.112529 0.035624 -0.081503 0.190897 -0.080845 -0.013623 -0.013782 0.007106 -0.438868 -0.100474 -0.189282 0.094596 -0.039921 -0.258612 0.007661 0.002467 0.067224 0.038402 0.288134 0.068261 -0.130382 -0.228342 0.435532 0.049922 0.105040 0.061714 0.072280 0.187301 -0.190659 0.124169 -0.274526 0.083897 0.104061 -0.041663 0.020704 0.060035 -0.038345 -0.088078 0.146993 0.306592 -0.111828 -0.113315 0.106864 0.117907 0.285477 0.073640 0.324490 0.151737 0.197138 -0.086364 0.025358 -0.076410 0.089225 -0.050672 -0.164526 0.030460 0.133676 0.158760 -0.001817 0.093342 -0.376953 -0.094261
51 0.290865 -0.067318 0.025142 0.177127 -0.274845 0.019624 -0.301492 -0.073865 0.063757 -0.018528 -0.033685 0.294554 -0.041070 -0.286562 0.324009 0.467218 0.008245 0.169212 0.078101 0.017740 -0.222800 -0.075583 0.250060 0.058167 -0.192636 -0.088349 -0.235824 -0.211885 -0.011645 -0.319355 0.210598 -0.244672 0.082146 -0.413457 0.029630 -0.005705 -0.148375 -0.160642 -0.248431 -0.101320 0.074804 -0.235343 0.195361 -0.032849 0.018272 0.126113 -0.022483 -0.080728 0.084821 -0.022226 0.022422 0.000149 0.053931 -0.031310 -0.173755 0.013733 -0.108700 -0.074352 0.248091 -0.120938 -0.260106 0.102409 -0.044681 0.066359 -0.063753 0.102923 0.029630 -0.166953 0.029963 0.104916 -0.090898 -0.299234 -0.222618 -0.345161 0.168134 -0.036600 0.047266 0.260706 0.072352 0.067516 0.099138 0.001664 -0.196482 0.039797 0.115354 0.147329 0.203295 -0.290022 0.076486 -0.197431 -0.166510 -0.183650 -0.066763 0.160881 -0.026469 -0.122750 -0.289550 -0.065741 -0.301683 -0.215403 -0.044784 -0.129674 0.141514 0.077086 -0.124178 -0.143006 0.056925 0.016460 0.051962 -0.190971 -0.079112 -0.125176 0.084600 -0.226406 -0.013298 0.226737 0.069058 0.064203 -0.250002 0.000983 -0.059676 -0.072512 0.246703 0.058307 0.018594 0.141495 -0.027625 0.033255 -0.017837 0.050832 0.004121 -0.065850 -0.143681 -0.006460 -0.044597 0.169970 0.248365 0.075316 -0.069892 0.000088 0.296951 -0.185330 0.329996 -0.080863 0.191634 0.103846 0.198350 0.002063 -0.271010 -0.048811 -0.080872 -0.016093 -0.021854 -0.027716 0.163925 -0.075953 0.123266 -0.125284 0.324505 0.135881 -0.132536 -0.185237 0.170272 0.114796 0.048496 0.077707 -0.278668 0.130085 0.120587 0.183968 0.116994 0.003538 -0.013362 -0.178813 0.203484 -0.156601 0.101357 0.120832 0.051344 -0.092097 -0.039990 -0.207676 0.165679 0.089045 -0.112808 0.013376 0.199610 -0.284187 0.082718 -0.044496 0.093702 0.222832 -0.132275 0.168447 -0.111450 0.036954 -0.085354 0.178105 -0.085152 -0.003171 -0.006182 0.008761 -0.440846 -0.087898 -0.202772 0.113737 -0.029357 -0.259162 0.019422 0.006464 0.071029 0.029842 0.311043 0.074102 -0.145457 -0.222864 0.437527 0.051574 0.105291 0.074118 0.067680 0.178336 -0.183207 0.115863 -0.265078 0.105618 0.081560 -0.040257 0.012047 0.030745 -0.016493 -0.060935 0.163235 0.310324 -0.128809 -0.099666 0.118364 0.100224 0.292990 0.084809 0.321953 0.129067 0.193805 -0.090597 0.035842 -0.067391 0.063357 -0.025950 -0.168448 0.037004 0.155745 0.168250 0.012648 0.088115 -0.397753 -0.119866
145 0.218588 0.073746 -0.099369 0.034325 -0.225074 0.038122 -0.317197 -0.187039 0.029472 -0.124115 -0.068718 0.310244 -0.015020 -0.294676 0.393985 0.484147 -0.026000 0.146136 -0.068547 0.000490 -0.206312 0.024040 0.242092 0.099422 -0.144547 -0.222047 -0.137029 -0.141150 -0.040598 -0.150267 0.246527 -0.079181 0.051931 -0.221739 -0.024841 -0.004996 -0.106218 -0.085958 -0.236871 -0.010562 0.060543 -0.196352 0.231779 -0.076139 -0.030902 0.091263 -0.039867 0.166638 0.164540 -0.081136 -0.038421 0.017890 0.096940 -0.067537 -0.135029 -0.060713 -0.020631 -0.137122 0.244742 -0.202958 -0.307427 -0.003074 -0.006939 0.041298 -0.124467 0.002484 -0.013817 -0.366673 -0.027899 0.134265 -0.068176 -0.250081 -0.119518 -0.228309 0.166338 -0.083324 0.079602 0.267272 0.107527 -0.084362 0.071552 0.008479 -0.109719 0.163875 0.073067 0.224692 0.092188 -0.269288 0.069647 -0.069121 0.012267 -0.242630 -0.019811 0.131578 -0.043012 -0.011925 -0.268449 0.048738 -0.249513 -0.121803 -0.009678 -0.150699 0.169568 0.027816 -0.083057 -0.164429 0.165859 -0.094168 0.035777 -0.164630 -0.081091 -0.121876 0.071784 -0.085376 0.044023 0.251995 0.143342 0.044975 -0.195633 0.100628 -0.070203 -0.056937 0.147580 0.127840 0.050099 0.051318 -0.103174 0.044422 0.048234 0.018292 -0.038765 -0.015694 -0.118011 0.027112 -0.000930 0.336029 0.256770 0.081124 -0.216478 0.158688 0.155638 -0.235520 0.197034 -0.216062 0.199936 0.027726 0.266638 0.104650 -0.056438 -0.059253 -0.005436 0.025567 -0.042786 -0.061628 0.114344 -0.103740 0.082590 -0.161041 0.169140 0.220939 -0.143814 -0.267495 0.062450 0.110406 -0.074287 0.057516 -0.255722 0.055339 0.109935 0.140009 0.042515 -0.017366 -0.103221 -0.107141 0.028107 -0.193564 0.078121 0.063437 0.022506 0.030272 0.029864 -0.292752 0.135063 0.162501 -0.014253 0.004104 0.097885 -0.252946 0.050073 -0.119463 0.019372 0.179715 -0.173067 0.263679 -0.083002 0.040510 -0.001207 0.060046 -0.064662 -0.077013 -0.063907 -0.044251 -0.395666 -0.073732 -0.107935 0.027662 -0.132277 -0.216351 -0.059636 -0.037384 0.132729 -0.034084 0.171605 0.075281 -0.046907 -0.280796 0.299312 0.061501 0.062099 0.077296 0.046970 0.197755 -0.221090 0.028575 -0.233988 -0.013690 0.048849 0.037717 0.071280 0.063906 -0.037646 -0.107887 0.119461 0.290910 0.030446 -0.098411 0.131249 0.179686 0.176731 -0.000920 0.144186 0.141520 0.145618 -0.127199 0.011366 -0.087506 0.084202 -0.056823 -0.170402 0.022009 0.148698 0.194438 -0.063674 0.143844 -0.277197 -0.075938
14 0.399700 0.248679 0.009175 -0.039577 -0.274257 0.150722 -0.164273 0.182484 -0.146046 0.061623 0.071593 0.260679 0.094643 -0.303407 0.121932 -0.077733 -0.095429 -0.065642 0.272567 0.209558 -0.063300 -0.025214 0.449221 0.051741 -0.036574 -0.087742 -0.149244 -0.406527 0.241379 -0.083371 -0.031563 0.017065 0.067969 0.372372 -0.253808 0.123408 -0.277044 -0.238228 -0.087603 -0.177721 0.068767 0.132989 -0.013231 0.104418 -0.073266 -0.289706 -0.005376 0.094930 0.293636 -0.280466 0.044153 0.156043 0.076871 -0.285925 0.111017 0.069156 0.101001 0.116540 0.065313 -0.147538 0.114267 0.050133 0.043891 0.323216 0.247351 0.020760 0.077456 -0.147841 0.039542 -0.181666 0.282085 0.100378 0.074217 -0.172371 -0.141591 0.026521 0.061018 -0.015562 0.442907 0.301236 -0.010676 -0.188405 0.000863 -0.093796 -0.283422 0.294565 0.367450 -0.261767 -0.133908 0.171588 0.059843 0.332503 0.169290 0.138921 -0.221210 -0.217369 -0.197526 -0.007405 -0.151886 -0.222898 0.227002 -0.086406 -0.075783 -0.062260 -0.029517 0.079344 0.010296 -0.371376 0.179495 -0.140065 0.427958 0.055345 0.059225 -0.189874 -0.130808 0.140611 0.151600 0.083496 0.038988 0.193421 0.202571 -0.232762 0.183585 0.248865 -0.127674 0.002544 0.030667 -0.135204 -0.157823 0.241342 0.141854 -0.248657 -0.426786 0.089157 -0.232358 -0.048265 -0.099190 0.361366 -0.166430 0.073602 -0.167859 -0.039598 0.173895 0.031690 0.162487 -0.133603 0.255692 -0.140388 -0.502912 -0.009580 -0.089881 0.199473 -0.165689 0.126596 -0.236093 0.078603 0.054545 -0.017350 0.140438 -0.006875 0.203625 0.388792 0.035754 -0.165178 -0.121220 -0.140676 -0.158442 0.184777 -0.252730 0.189284 -0.115786 -0.340544 0.031637 0.146925 0.100747 -0.013624 0.059007 -0.037529 -0.215813 0.322349 0.155174 0.012505 0.060921 0.032453 -0.228572 0.290251 0.076812 -0.460662 -0.249105 0.252752 -0.259088 0.212600 0.053378 -0.194952 -0.133185 -0.137633 0.140124 0.295758 0.219015 -0.027893 -0.057938 0.117340 0.047266 -0.145449 0.059816 -0.419826 -0.048823 -0.081275 0.206276 0.248710 -0.132313 -0.109327 -0.158456 -0.156197 0.407313 -0.210760 -0.072457 0.043613 0.015064 -0.011128 0.215165 0.314913 -0.341140 0.198228 -0.290849 0.347918 0.112534 -0.167003 0.290429 0.228606 -0.346625 -0.272773 -0.138665 0.235993 -0.031061 0.029227 -0.079488 0.200025 0.183454 -0.145544 -0.209568 0.056479 0.208140 0.258998 -0.191679 -0.162212 0.295830 -0.388061 -0.210763 -0.014083 0.085425 -0.114173 -0.090811 0.055177 -0.126925 0.067024
20 0.383538 0.243944 0.000847 -0.062831 -0.277041 0.162227 -0.174147 0.189662 -0.133302 0.071598 0.079509 0.278836 0.117207 -0.313889 0.144180 -0.075642 -0.152076 -0.093824 0.269583 0.231381 -0.092995 0.007616 0.472471 0.051413 -0.033606 -0.125385 -0.138877 -0.421750 0.254541 -0.109786 -0.027835 0.002481 0.054857 0.393091 -0.280199 0.152731 -0.300380 -0.233795 -0.108549 -0.218351 0.062363 0.154066 -0.002259 0.111008 -0.083761 -0.298271 -0.030696 0.116400 0.292175 -0.289240 0.028725 0.157833 0.085408 -0.298951 0.118559 0.087298 0.111446 0.109271 0.096899 -0.140385 0.092588 0.074657 0.035547 0.348521 0.265454 0.002134 0.090712 -0.168559 0.028101 -0.178019 0.291786 0.083861 0.066458 -0.177016 -0.154848 0.014794 0.051496 -0.003230 0.463868 0.333999 -0.033386 -0.194563 0.023379 -0.117759 -0.267964 0.314624 0.377877 -0.290281 -0.150319 0.180570 0.055855 0.352383 0.159911 0.162397 -0.223287 -0.203468 -0.217145 -0.011514 -0.179771 -0.209716 0.215122 -0.095943 -0.058921 -0.058934 -0.026497 0.108135 0.033960 -0.374419 0.189350 -0.152253 0.427206 0.064912 0.038317 -0.174426 -0.136059 0.152897 0.137085 0.098931 0.049032 0.209544 0.214587 -0.238959 0.180361 0.289785 -0.136355 -0.004047 -0.000293 -0.154380 -0.152877 0.205031 0.161092 -0.255331 -0.436550 0.096864 -0.229951 -0.059588 -0.133038 0.395954 -0.151544 0.067250 -0.157617 -0.017031 0.177436 0.020383 0.152178 -0.131285 0.280886 -0.145955 -0.511239 -0.019358 -0.138223 0.177337 -0.169798 0.113707 -0.230855 0.081055 0.034765 -0.022267 0.147426 -0.023268 0.177786 0.412941 0.003243 -0.171226 -0.151047 -0.144542 -0.148701 0.179610 -0.280401 0.192653 -0.113866 -0.346664 0.018355 0.145963 0.088255 -0.039831 0.095609 -0.036482 -0.252211 0.341319 0.165003 0.049581 0.067814 0.015948 -0.205534 0.323967 0.075546 -0.474592 -0.264845 0.249305 -0.288569 0.195386 0.048627 -0.205763 -0.123435 -0.135170 0.130145 0.302984 0.227516 -0.047439 -0.054533 0.132227 0.043794 -0.173669 0.052928 -0.438702 -0.033188 -0.077648 0.198814 0.254819 -0.132263 -0.104503 -0.164538 -0.150864 0.431691 -0.208979 -0.073377 0.059195 0.029925 -0.004097 0.232134 0.342310 -0.361901 0.216774 -0.272065 0.367496 0.133172 -0.172738 0.294520 0.229043 -0.404897 -0.282218 -0.160573 0.237100 -0.021644 0.035533 -0.066396 0.177379 0.208488 -0.165274 -0.211199 0.065273 0.227960 0.277237 -0.202275 -0.151608 0.329683 -0.385766 -0.204776 -0.009482 0.091755 -0.124160 -0.094703 0.066405 -0.127952 0.076379
65 -0.075386 -0.176543 0.294819 0.188194 -0.514598 0.205278 -0.389139 0.382623 0.098475 0.257003 0.065983 0.291305 0.084569 0.000362 -0.100377 0.080441 -0.554440 -0.392376 0.001477 0.104023 -0.391000 0.143407 0.396521 -0.101289 0.030166 -0.122570 -0.323403 -0.469227 0.019171 0.036930 -0.023784 -0.072104 0.083477 0.173981 -0.304266 0.145162 -0.527154 -0.022824 -0.192896 -0.487598 0.159749 -0.178574 0.370570 0.038290 -0.112796 0.093067 0.022372 0.110761 -0.331100 0.204597 -0.102688 0.384917 0.160189 -0.239463 -0.259653 0.143764 -0.022865 0.029040 0.098941 -0.309059 -0.019892 0.248003 -0.160463 0.428982 0.236323 -0.307152 -0.166694 -0.033546 -0.262969 -0.070681 0.144061 -0.000179 -0.459555 -0.513680 0.439917 -0.404580 0.212452 0.210452 0.768729 0.235664 -0.217633 0.029853 -0.118584 -0.218405 -0.141330 0.259999 0.017657 -0.428268 -0.409298 -0.295862 -0.575462 0.272518 0.063162 0.097234 -0.244544 -0.364716 -0.232747 -0.028571 -0.319135 -0.105347 -0.042831 -0.400490 -0.026067 -0.052481 0.330113 0.319045 0.282947 0.263727 0.357311 -0.159150 0.011339 -0.249949 0.248745 0.003010 -0.083878 0.400913 -0.121807 0.495373 0.079408 0.260044 -0.276201 -0.159599 0.237210 0.336574 0.234190 0.066058 -0.010603 -0.198804 -0.247595 -0.126585 0.137606 -0.267597 -0.384426 -0.019488 0.073889 -0.034372 -0.375342 0.536206 0.337340 -0.211157 0.239047 -0.252717 0.318134 -0.456997 -0.011252 -0.237960 0.046367 -0.147743 -0.586977 -0.055776 -0.185415 0.249029 -0.140672 -0.057603 -0.167714 -0.141127 -0.047516 0.015122 -0.110260 -0.303297 -0.352360 0.023770 -0.137431 -0.034738 0.076030 0.107812 0.216712 -0.055618 0.263562 0.270715 -0.194088 0.129111 -0.150018 -0.203240 0.155759 0.084544 0.379749 0.135968 -0.109812 0.034305 0.262852 0.135673 0.077170 -0.225145 0.031022 0.121821 0.162610 -0.384263 -0.019763 0.501029 -0.089091 0.126082 0.262643 0.171720 -0.177834 -0.129717 -0.106235 0.148393 -0.008943 -0.037257 0.136039 0.295746 -0.169827 -0.121291 -0.139801 -0.149254 0.093555 0.202442 0.083183 0.173712 0.273557 -0.131630 0.570125 0.271235 0.235203 -0.360893 0.166949 0.257567 -0.196642 0.477278 0.119614 0.229381 -0.644172 0.479089 -0.084730 0.685361 -0.003015 -0.087842 0.389138 -0.006934 -0.700659 -0.066334 0.164938 0.253216 -0.201592 0.551246 0.133130 -0.283674 0.205012 -0.097326 -0.094406 -0.077763 0.035001 0.027487 -0.108010 0.084195 0.206617 -0.008158 -0.127527 0.476351 0.289313 -0.098592 0.386560 -0.109872 -0.336351 -0.261653
67 0.252308 0.002619 0.366057 0.313435 -0.226306 0.013897 -0.478879 0.259775 0.110662 0.438837 -0.118786 0.522355 -0.045853 -0.451917 0.110620 0.055413 -0.474056 -0.292731 0.171830 0.604150 -0.164675 0.226822 0.428447 -0.062027 -0.146805 0.212192 -0.229977 -0.155357 0.495136 -0.223380 0.018210 -0.090966 0.509701 0.073745 0.037208 0.028418 -0.123653 0.098618 -0.073270 -0.360425 0.087916 0.036611 0.374482 -0.044181 0.095141 0.067914 0.240943 -0.033156 -0.078061 0.414955 -0.201327 0.678328 0.117403 -0.286330 -0.325818 0.398565 -0.431549 0.062181 0.079744 -0.429139 -0.259950 0.198973 -0.106580 0.228812 0.130352 -0.117096 0.035053 0.067110 0.214893 -0.544687 0.374087 -0.026632 -0.223465 -0.409902 0.212706 -0.323055 0.534247 0.063888 0.216527 0.423650 0.088433 -0.363957 -0.088343 -0.046859 -0.394270 0.276936 0.070353 -0.178709 0.162006 0.062261 -0.598292 0.297413 -0.197224 0.178578 -0.440080 -0.192440 -0.083156 -0.232400 -0.159590 -0.381061 0.039196 -0.267581 -0.170799 -0.210762 0.219378 -0.058877 -0.156504 0.088847 0.127362 -0.090878 -0.108645 -0.350461 0.121957 -0.526711 0.300917 0.357469 -0.038618 0.061356 -0.334958 0.156974 -0.478475 -0.477922 -0.098361 0.328641 0.110534 0.120840 0.141031 -0.335107 -0.494787 0.220401 0.035249 0.314768 -0.312390 -0.088492 -0.044565 0.111264 0.162635 0.256787 -0.065471 -0.358805 -0.059193 0.144873 0.200364 0.103434 0.424571 -0.177484 -0.157114 -0.013412 -0.723876 0.471132 -0.345228 0.469465 -0.442870 -0.099174 -0.149596 0.208663 0.382989 0.086916 0.110265 0.213405 0.268005 -0.362795 -0.011808 -0.148813 -0.035583 0.059179 -0.414349 0.014815 0.324808 0.499039 -0.094947 -0.200562 -0.166618 0.373621 0.025439 0.304783 0.342284 0.057728 -0.036496 0.161081 0.215768 -0.264950 -0.044136 0.184962 0.032883 0.027083 -0.214113 -0.581189 -0.154809 0.143224 -0.039944 0.455492 0.310973 0.093853 0.171793 -0.074187 0.052678 -0.026708 0.175424 -0.302063 -0.103344 -0.029189 -0.169921 0.353840 -0.196083 -0.379203 0.063536 -0.243323 0.522479 0.141086 -0.230095 -0.289417 0.131876 -0.201899 0.461124 -0.321700 -0.130725 0.227419 -0.037500 -0.008051 0.057233 0.205870 -0.315187 0.014081 -0.174904 0.177564 -0.047522 0.159655 0.037580 0.010355 -0.013083 0.152822 0.251296 0.184489 -0.190838 -0.074692 -0.061745 -0.010381 0.128854 -0.021347 -0.364742 -0.379069 0.369163 0.129266 0.079023 0.054974 0.057423 0.042474 -0.371816 0.299157 0.033352 0.024899 0.010985 0.154933 -0.641378 -0.259558
64 -0.094656 -0.193809 0.308867 0.193015 -0.521270 0.206534 -0.398451 0.368628 0.093087 0.254071 0.048015 0.299322 0.078906 -0.008113 -0.083621 0.091631 -0.557809 -0.393579 0.010490 0.108744 -0.392518 0.139528 0.405870 -0.086445 0.032726 -0.113383 -0.323273 -0.481666 0.033308 0.020600 -0.001059 -0.076649 0.065328 0.168541 -0.301153 0.150727 -0.527031 -0.028070 -0.198270 -0.484376 0.156999 -0.197605 0.380133 0.039486 -0.103186 0.088699 0.013429 0.118875 -0.320553 0.202179 -0.114378 0.376275 0.153101 -0.251134 -0.251606 0.149415 -0.032541 0.017827 0.114568 -0.318893 -0.037462 0.247692 -0.151484 0.445950 0.230076 -0.293657 -0.164541 -0.053016 -0.267282 -0.058291 0.131392 -0.011125 -0.451231 -0.516191 0.431523 -0.406963 0.215222 0.214539 0.767266 0.237847 -0.203489 0.016827 -0.118686 -0.206400 -0.141698 0.256146 0.029450 -0.425794 -0.385461 -0.288409 -0.569628 0.275468 0.069691 0.107280 -0.240724 -0.359726 -0.227358 -0.033267 -0.326236 -0.107664 -0.052336 -0.405042 -0.011323 -0.043522 0.321326 0.306652 0.270129 0.256624 0.344880 -0.159412 0.013116 -0.234925 0.256444 -0.006498 -0.071961 0.419482 -0.113673 0.481884 0.071363 0.251696 -0.268150 -0.166476 0.249333 0.338188 0.232132 0.061863 -0.010874 -0.204115 -0.248970 -0.127032 0.149450 -0.262204 -0.394842 -0.021111 0.068343 -0.015172 -0.364058 0.540372 0.333781 -0.212137 0.237868 -0.243001 0.327556 -0.443356 -0.017924 -0.232036 0.060563 -0.141588 -0.587271 -0.043966 -0.196818 0.239288 -0.145706 -0.052785 -0.179437 -0.121591 -0.025460 -0.006353 -0.097710 -0.295074 -0.347776 0.032112 -0.133034 -0.025651 0.073325 0.102689 0.201564 -0.042403 0.268222 0.266685 -0.180445 0.117128 -0.152011 -0.187091 0.154115 0.076461 0.377547 0.120804 -0.114702 0.034101 0.258426 0.126580 0.087136 -0.227126 0.030289 0.149248 0.170704 -0.387610 -0.023326 0.493449 -0.087804 0.132562 0.248180 0.176592 -0.182162 -0.121624 -0.110025 0.145062 -0.000372 -0.056592 0.134194 0.275334 -0.175233 -0.120654 -0.152329 -0.152694 0.089344 0.192182 0.081005 0.177094 0.265647 -0.127931 0.557141 0.266741 0.248818 -0.368106 0.176024 0.277509 -0.180243 0.465696 0.122552 0.235498 -0.634486 0.472782 -0.091871 0.671246 -0.011421 -0.082078 0.375335 -0.006196 -0.705148 -0.059390 0.180682 0.245372 -0.193494 0.527449 0.139018 -0.289808 0.213842 -0.107208 -0.103652 -0.074765 0.037160 0.034755 -0.100050 0.070212 0.225995 0.010320 -0.125234 0.466426 0.278841 -0.091538 0.378357 -0.082186 -0.349601 -0.253895
71 0.238073 0.267823 -0.091043 0.043454 -0.274106 0.131785 -0.344106 0.292015 0.099274 0.044742 0.399465 0.220531 0.280752 -0.518805 0.354940 0.075585 -0.110411 0.023503 -0.134962 0.333088 -0.086045 -0.079151 0.214282 -0.089828 -0.071884 -0.272404 -0.218759 -0.090887 -0.117469 0.008972 -0.124206 -0.072468 0.601500 -0.029616 -0.208091 -0.146323 -0.177973 -0.151029 -0.244034 -0.300654 0.080199 0.324338 -0.031000 -0.072877 -0.137342 0.094685 0.194893 -0.073423 -0.048761 -0.088063 0.122520 0.477259 0.223249 0.005967 -0.354089 -0.059235 -0.100274 0.359697 -0.236702 -0.049472 0.287714 -0.058368 -0.155551 -0.175056 0.242163 -0.168212 -0.002418 0.171563 0.241409 -0.396758 0.293972 0.169483 -0.206739 -0.186797 0.162649 0.073100 0.160193 0.384885 0.240534 0.138708 -0.183599 -0.105982 -0.143170 -0.110910 -0.372055 0.394121 0.208684 -0.479377 -0.496806 0.036412 -0.293196 -0.036472 -0.039189 0.038186 -0.246806 -0.403508 -0.426943 -0.174839 -0.063465 -0.460806 0.418483 -0.110901 -0.264533 -0.398388 0.075389 0.134452 0.230415 -0.192718 0.326078 -0.263533 0.049214 -0.318818 0.030667 -0.044836 -0.019895 0.176753 0.096800 0.409404 -0.162216 0.488578 -0.296616 -0.198998 -0.112689 0.053045 -0.092399 0.025996 -0.069283 0.119022 -0.273439 0.305510 -0.403957 0.091742 -0.246298 0.120500 -0.099568 0.086868 0.073603 0.358559 -0.381495 0.110428 0.092149 -0.293448 0.228748 -0.408849 0.288572 -0.452737 -0.233024 -0.099879 -0.403437 0.067874 0.346482 0.565121 -0.231721 -0.099825 0.014009 -0.277170 -0.156387 0.346341 -0.053797 0.259710 -0.117021 -0.566476 0.085277 -0.218496 -0.129478 0.371632 -0.046492 0.052263 -0.026136 0.520636 -0.317955 -0.061387 -0.151598 -0.182020 0.170716 0.176726 0.229580 0.423143 -0.156967 0.214520 0.327526 -0.327503 0.022910 0.375759 -0.189441 -0.396706 -0.191979 -0.434479 -0.041622 0.091221 -0.069651 0.534761 0.188978 0.031494 -0.054874 -0.389836 0.105134 0.069347 0.134412 0.304661 -0.339017 0.413259 -0.145196 0.128093 0.163495 -0.292506 0.023241 -0.078520 0.317356 0.390409 0.040518 -0.254340 0.262981 -0.243425 0.210055 -0.240390 -0.053187 -0.350833 -0.206866 0.286450 -0.044969 0.285792 -0.891912 0.170784 -0.381474 0.562948 0.110175 -0.066541 0.469696 0.091919 0.120690 -0.020259 -0.256942 0.692195 -0.241506 0.333813 -0.023643 0.496432 0.098516 0.088046 -0.057028 -0.217325 0.428162 -0.204675 -0.281946 0.170878 -0.254695 -0.688286 -0.408701 0.316084 0.457519 0.369723 0.165474 -0.088566 -0.377851 -0.234313
68 0.249379 -0.003166 0.367355 0.310396 -0.240102 0.010389 -0.479873 0.260160 0.110287 0.443530 -0.124249 0.519087 -0.054437 -0.450854 0.106021 0.056023 -0.463512 -0.285056 0.174937 0.598244 -0.161212 0.223108 0.425262 -0.058544 -0.159892 0.213594 -0.219736 -0.160976 0.495082 -0.224097 0.011458 -0.099895 0.513782 0.065977 0.036036 0.019523 -0.126287 0.078362 -0.065568 -0.365551 0.093009 0.024579 0.377024 -0.043546 0.092048 0.065772 0.247943 -0.035826 -0.070191 0.417582 -0.194586 0.674420 0.118446 -0.291765 -0.332206 0.383719 -0.434348 0.076335 0.066822 -0.430945 -0.258209 0.203264 -0.109256 0.224408 0.130812 -0.109994 0.034183 0.081013 0.214140 -0.550084 0.383142 -0.022373 -0.222991 -0.415939 0.216760 -0.324823 0.533465 0.062386 0.224759 0.436314 0.095151 -0.362959 -0.095211 -0.038327 -0.400796 0.275685 0.076022 -0.179142 0.166592 0.069973 -0.604144 0.305147 -0.192019 0.177515 -0.445809 -0.204286 -0.083543 -0.229427 -0.145761 -0.373573 0.051555 -0.258924 -0.179321 -0.216407 0.209885 -0.061569 -0.173733 0.081324 0.119245 -0.086096 -0.107682 -0.353304 0.112327 -0.534674 0.306753 0.359665 -0.032408 0.058709 -0.333301 0.155340 -0.476020 -0.473887 -0.095878 0.322823 0.107761 0.119948 0.150148 -0.339234 -0.491780 0.229534 0.029076 0.312775 -0.315013 -0.087145 -0.051925 0.106890 0.164952 0.249355 -0.065801 -0.366785 -0.068294 0.140091 0.207922 0.100616 0.426833 -0.174657 -0.167758 -0.014463 -0.738570 0.475049 -0.334919 0.474634 -0.439000 -0.099128 -0.149799 0.212239 0.399756 0.090243 0.108208 0.215224 0.275798 -0.355725 -0.006506 -0.148694 -0.035067 0.060371 -0.414490 0.019799 0.330375 0.489526 -0.088786 -0.212678 -0.160571 0.378215 0.038003 0.312830 0.339848 0.057126 -0.035044 0.159793 0.222611 -0.264759 -0.046637 0.191940 0.019620 0.029927 -0.207190 -0.573365 -0.154894 0.141900 -0.051591 0.464908 0.313516 0.096255 0.178399 -0.083432 0.058883 -0.018040 0.173348 -0.297523 -0.099197 -0.033893 -0.174036 0.358947 -0.199031 -0.384681 0.071364 -0.247118 0.524091 0.144239 -0.245118 -0.291785 0.132798 -0.208729 0.460961 -0.328726 -0.134497 0.229587 -0.040220 -0.006414 0.055002 0.201910 -0.316465 0.013983 -0.180944 0.177628 -0.050833 0.159449 0.043640 0.023108 -0.008253 0.154953 0.258920 0.186567 -0.198360 -0.081858 -0.061757 -0.014357 0.126689 -0.027017 -0.360005 -0.381549 0.371658 0.139036 0.081855 0.043135 0.047240 0.052445 -0.372285 0.298992 0.027676 0.028893 0.008372 0.148649 -0.644524 -0.256646
79 0.222722 0.267210 -0.094802 0.032897 -0.279042 0.120716 -0.355381 0.287292 0.092241 0.042499 0.393300 0.202586 0.272210 -0.505876 0.356876 0.076279 -0.107161 0.020907 -0.157631 0.303131 -0.091877 -0.077988 0.208247 -0.085607 -0.061557 -0.289208 -0.210517 -0.082026 -0.126451 0.023529 -0.119770 -0.072113 0.586054 -0.042273 -0.203776 -0.150445 -0.178793 -0.153336 -0.234287 -0.291581 0.084026 0.308487 -0.022047 -0.073321 -0.140001 0.106440 0.198841 -0.051188 -0.038386 -0.091578 0.116861 0.456881 0.223652 0.012349 -0.355657 -0.077182 -0.097165 0.356895 -0.240785 -0.052946 0.270118 -0.065264 -0.155765 -0.170820 0.236569 -0.166387 -0.003676 0.163251 0.223032 -0.379603 0.292153 0.170143 -0.206237 -0.189800 0.173096 0.067971 0.160760 0.387452 0.248859 0.129711 -0.175799 -0.076850 -0.134407 -0.109176 -0.357889 0.384856 0.206774 -0.474164 -0.496440 0.025109 -0.282840 -0.047802 -0.037465 0.042108 -0.242016 -0.402430 -0.427098 -0.170620 -0.064623 -0.436753 0.403403 -0.109837 -0.250392 -0.395659 0.079119 0.129799 0.233853 -0.179860 0.305267 -0.260764 0.037486 -0.316952 0.025000 -0.029839 -0.015906 0.183279 0.097584 0.409066 -0.141842 0.492554 -0.296418 -0.189042 -0.105754 0.045390 -0.086386 0.016603 -0.072298 0.123243 -0.259287 0.292366 -0.403549 0.085739 -0.246219 0.114954 -0.096330 0.096858 0.071560 0.352938 -0.366495 0.113185 0.096346 -0.302062 0.226928 -0.423398 0.268220 -0.444419 -0.229003 -0.089275 -0.376221 0.061591 0.347470 0.541365 -0.219953 -0.107359 0.012268 -0.285559 -0.149652 0.334507 -0.069721 0.251171 -0.133995 -0.567721 0.082766 -0.208228 -0.132167 0.373449 -0.037677 0.051879 -0.019474 0.505317 -0.312246 -0.054978 -0.155798 -0.189848 0.169304 0.172513 0.222930 0.418524 -0.149183 0.216312 0.329334 -0.327241 0.024885 0.373351 -0.182747 -0.386798 -0.185442 -0.420021 -0.035747 0.086278 -0.069872 0.518756 0.184479 0.053297 -0.061603 -0.387901 0.105693 0.062653 0.134717 0.299190 -0.332099 0.403648 -0.149768 0.126202 0.166384 -0.281075 0.027121 -0.071503 0.296179 0.380696 0.058941 -0.254218 0.266086 -0.231500 0.201789 -0.253208 -0.048391 -0.340360 -0.201524 0.294129 -0.051698 0.271824 -0.882123 0.169418 -0.364471 0.553808 0.096780 -0.065159 0.471413 0.086115 0.119571 -0.014590 -0.251210 0.682986 -0.237569 0.334105 -0.012980 0.472541 0.097087 0.080317 -0.048658 -0.208744 0.413192 -0.205135 -0.276311 0.165769 -0.258986 -0.660491 -0.403140 0.311836 0.456400 0.375152 0.156790 -0.084067 -0.368029 -0.237673
57 0.223366 -0.119209 0.051428 0.192842 -0.125086 0.199361 -0.010104 0.011005 0.096333 -0.058060 0.037589 0.357702 -0.019128 -0.208340 0.269433 0.452845 0.047546 0.223686 0.318228 0.217642 -0.178875 -0.019328 0.154991 0.073641 -0.193726 0.063469 -0.214042 -0.238682 0.056764 -0.555920 0.233924 -0.219871 0.126167 -0.259668 0.000600 0.112851 -0.048879 -0.165717 -0.295090 -0.189384 0.018724 -0.251610 0.003765 0.024956 0.026850 0.016485 -0.234899 -0.298813 -0.196808 -0.002959 0.093478 0.177097 0.025968 -0.104252 -0.067163 0.164104 -0.105189 -0.032941 0.252506 -0.157772 0.032193 0.214189 -0.164729 -0.036036 -0.067329 0.051664 -0.062706 -0.100497 0.091963 0.085024 -0.198390 -0.339034 -0.210671 -0.196830 0.001692 0.081168 -0.054779 0.187723 0.062806 0.150438 0.005681 -0.316367 -0.337528 0.145073 -0.030567 0.137987 0.070998 -0.343249 0.035275 0.029477 -0.236648 0.004889 0.121540 0.047708 0.064198 -0.182716 -0.268466 -0.008883 -0.184971 -0.264683 0.207595 -0.117505 0.045748 0.019279 -0.091501 0.045892 -0.104072 -0.077461 0.177208 -0.199085 -0.044456 -0.089211 0.199862 -0.328640 0.000612 0.153725 0.186092 -0.045402 -0.398216 -0.071725 -0.027249 -0.049785 0.168769 0.045887 -0.146794 0.124569 0.029628 0.019734 -0.115000 0.014505 -0.000506 -0.145063 -0.066186 0.146528 -0.007870 0.026797 0.142075 0.094036 -0.276951 -0.038449 0.177431 -0.152145 0.347488 0.024560 0.228625 0.039449 0.039763 -0.094117 -0.514324 0.008654 0.052052 0.184251 -0.119771 0.187539 0.166927 0.039478 -0.019947 -0.098168 0.419856 0.097159 -0.103622 -0.045130 0.205378 0.010032 0.117335 0.104275 -0.263411 0.109409 0.095345 0.211854 0.027712 0.086929 0.084012 -0.129540 0.283573 -0.121909 0.013772 0.081031 -0.043616 -0.162447 -0.059751 -0.146093 0.170499 0.001953 -0.142606 -0.086840 0.259074 -0.300560 0.180766 0.044219 0.157149 0.207027 -0.104144 0.032013 -0.022237 0.114048 -0.129026 0.179313 -0.096528 0.112575 -0.131929 0.066663 -0.289683 -0.019779 -0.274289 0.015467 -0.056328 -0.309239 0.105608 0.118583 -0.099115 0.084389 0.326077 0.030345 -0.073765 -0.033934 0.394936 0.049467 0.035187 -0.050305 -0.068391 0.340488 -0.361232 0.110361 -0.285842 0.104954 0.267640 -0.041976 0.018378 0.160420 -0.120867 -0.021252 0.124439 0.306056 -0.148841 0.001327 -0.050077 0.234458 0.293554 0.194632 0.347450 0.065578 0.216946 -0.215651 -0.007372 0.042000 0.153121 -0.191718 -0.095310 0.110347 0.097599 0.115983 0.216631 0.066649 -0.332691 0.061893
46 0.207462 -0.092696 0.001375 0.133904 -0.138757 0.169120 -0.092698 -0.051096 0.109320 -0.091609 -0.006300 0.372505 -0.017010 -0.199706 0.292727 0.497440 0.005321 0.224832 0.203555 0.150501 -0.221172 0.038796 0.180669 0.084082 -0.206759 -0.028628 -0.169749 -0.224489 0.021835 -0.480652 0.250951 -0.194697 0.092910 -0.243301 -0.014666 0.111894 -0.055755 -0.130782 -0.276079 -0.169042 0.025562 -0.262318 0.080651 -0.004194 -0.008405 0.028519 -0.209353 -0.182560 -0.125858 -0.021771 0.059789 0.137277 0.048946 -0.091621 -0.077492 0.129801 -0.060514 -0.089824 0.307321 -0.182408 -0.081965 0.194610 -0.146373 -0.002591 -0.097953 0.013953 -0.044508 -0.203317 0.039003 0.123416 -0.189493 -0.361605 -0.203437 -0.203732 0.052356 0.013008 -0.044548 0.196944 0.092411 0.107554 0.010869 -0.238139 -0.290289 0.163053 0.039341 0.181166 0.049440 -0.325974 0.060352 0.007116 -0.176460 -0.068886 0.084052 0.076468 0.043432 -0.112502 -0.285073 0.027972 -0.230090 -0.193810 0.129833 -0.125181 0.091633 0.057789 -0.106752 -0.003151 -0.020731 -0.065145 0.147140 -0.195103 -0.082324 -0.115063 0.161547 -0.255915 0.011983 0.167164 0.167031 -0.037818 -0.353174 -0.037979 -0.040916 -0.021131 0.157570 0.099056 -0.100578 0.107409 -0.031795 0.022645 -0.049272 -0.020649 0.012140 -0.125489 -0.058604 0.112230 0.010551 0.099336 0.151364 0.075602 -0.240893 0.000217 0.185136 -0.184558 0.309527 -0.045824 0.224138 0.070017 0.119420 -0.045356 -0.379435 -0.017777 0.004880 0.115356 -0.086640 0.125844 0.171673 -0.004441 -0.005275 -0.133137 0.378174 0.122061 -0.124526 -0.089617 0.139251 0.027539 0.063995 0.087654 -0.253550 0.068420 0.097674 0.185608 0.060849 0.074063 0.039122 -0.132789 0.216817 -0.168071 0.048021 0.046910 -0.039690 -0.142623 -0.054127 -0.157676 0.156094 0.027743 -0.079715 -0.045362 0.254949 -0.268785 0.165381 -0.007749 0.116483 0.153058 -0.139234 0.103917 -0.016024 0.123679 -0.114205 0.146891 -0.121609 0.036752 -0.097343 0.034966 -0.346438 -0.045855 -0.238250 0.036633 -0.062891 -0.293519 0.023646 0.047186 -0.034214 0.068389 0.304241 0.081405 -0.072767 -0.081286 0.392297 0.081019 0.040330 -0.023923 -0.040565 0.316938 -0.308468 0.094504 -0.240776 0.056754 0.241670 -0.013356 0.016620 0.136596 -0.134338 -0.054527 0.126355 0.286110 -0.101132 -0.026875 -0.002153 0.198938 0.280848 0.148170 0.325772 0.108405 0.195312 -0.194176 0.008088 0.003653 0.165290 -0.120758 -0.095900 0.084979 0.096878 0.115438 0.146178 0.074507 -0.303247 0.040772
147 0.253485 0.149222 -0.128435 0.017960 -0.208810 0.048355 -0.344008 -0.221847 0.015564 -0.153111 -0.079098 0.323534 -0.015872 -0.322904 0.429590 0.474310 -0.047253 0.128967 -0.132752 0.012660 -0.201394 0.044128 0.254029 0.094846 -0.113396 -0.263020 -0.128291 -0.085872 -0.036261 -0.093611 0.262408 0.007254 0.066201 -0.153662 -0.015838 -0.021464 -0.087937 -0.030721 -0.266905 0.023742 0.060102 -0.165229 0.248561 -0.093059 -0.034496 0.096824 -0.031187 0.268455 0.172080 -0.083184 -0.076926 0.052056 0.119032 -0.091277 -0.146854 -0.060576 -0.018970 -0.157537 0.234847 -0.244086 -0.321575 -0.053802 0.014574 0.022652 -0.163301 -0.042871 -0.046082 -0.449024 -0.036748 0.126078 -0.067578 -0.225185 -0.092275 -0.209600 0.182156 -0.091416 0.119528 0.297689 0.096241 -0.168822 0.058749 0.000252 -0.084026 0.209237 0.038399 0.247293 0.027503 -0.271072 0.059117 -0.030481 0.060024 -0.287844 0.008135 0.105234 -0.043399 0.016836 -0.265398 0.084438 -0.241936 -0.137241 0.009246 -0.181060 0.170418 -0.000214 -0.044843 -0.183567 0.220425 -0.135907 0.046398 -0.151617 -0.093570 -0.136044 0.104945 -0.043981 0.062635 0.273196 0.174469 0.037269 -0.199964 0.150135 -0.110560 -0.069197 0.112123 0.152460 0.070433 0.029058 -0.130462 0.068531 0.058423 0.021171 -0.062786 0.017046 -0.107814 0.035510 0.009472 0.418395 0.284175 0.098437 -0.290453 0.230174 0.117812 -0.269444 0.148070 -0.272068 0.231532 -0.035604 0.281717 0.151014 0.001659 -0.052065 0.038464 0.078568 -0.075734 -0.075752 0.113394 -0.121612 0.048924 -0.184184 0.101662 0.273090 -0.163759 -0.350094 0.047645 0.103468 -0.118537 0.076458 -0.277393 0.029662 0.138350 0.162872 -0.012587 -0.010161 -0.141162 -0.091385 -0.036925 -0.185632 0.059930 0.073098 0.018782 0.079240 0.054973 -0.358266 0.118098 0.195563 0.023382 -0.026230 0.028531 -0.269724 0.038679 -0.140973 0.017784 0.185755 -0.176766 0.303948 -0.096123 0.045395 0.046650 0.001828 -0.043079 -0.074166 -0.097261 -0.057722 -0.384019 -0.043703 -0.092782 -0.015434 -0.175740 -0.193447 -0.057753 -0.041968 0.169853 -0.067962 0.156103 0.073994 -0.015098 -0.305256 0.240538 0.049186 0.050623 0.086297 0.029000 0.219172 -0.258976 0.002678 -0.228917 -0.044216 0.028732 0.065808 0.098024 0.060957 -0.018571 -0.116258 0.114825 0.301531 0.095785 -0.085293 0.127068 0.245783 0.120338 -0.018466 0.059577 0.134365 0.138887 -0.164989 -0.013150 -0.063850 0.078144 -0.104406 -0.203977 0.043260 0.163097 0.224459 -0.081252 0.165724 -0.261531 -0.079679
137 0.230737 -0.095476 0.013298 0.146218 -0.194755 0.105060 -0.147763 -0.067718 0.082222 -0.065286 -0.016673 0.326913 -0.034164 -0.238573 0.303078 0.487219 0.031449 0.217401 0.170932 0.089204 -0.209992 -0.014654 0.195412 0.081401 -0.207193 -0.039658 -0.196789 -0.223302 0.004321 -0.429231 0.231719 -0.216221 0.092980 -0.327655 0.009030 0.058601 -0.088119 -0.161596 -0.258112 -0.136469 0.045715 -0.265175 0.120732 -0.016543 0.003514 0.071328 -0.144084 -0.157111 -0.034625 -0.020707 0.050322 0.064172 0.049782 -0.069471 -0.107645 0.064853 -0.090458 -0.075746 0.269095 -0.153974 -0.147318 0.161731 -0.113372 0.008414 -0.094087 0.065027 -0.019001 -0.176451 0.033283 0.119718 -0.155391 -0.335134 -0.205468 -0.262342 0.092277 0.011497 -0.018587 0.219782 0.078152 0.091414 0.060192 -0.142513 -0.259480 0.123857 0.067575 0.160390 0.110560 -0.310375 0.068296 -0.065857 -0.168590 -0.110784 0.035541 0.108580 0.025069 -0.129175 -0.288928 -0.004308 -0.244278 -0.203156 0.077379 -0.117956 0.108259 0.058164 -0.120739 -0.064486 -0.019028 -0.036321 0.106841 -0.193782 -0.078742 -0.116556 0.134195 -0.255978 0.006121 0.185967 0.142366 -0.013834 -0.323196 -0.026291 -0.038748 -0.036015 0.199021 0.075740 -0.066255 0.119999 -0.014621 0.025782 -0.027832 0.009648 0.007690 -0.109566 -0.091489 0.075555 -0.017801 0.127827 0.199417 0.059735 -0.190835 -0.000610 0.226196 -0.194923 0.326468 -0.054784 0.212926 0.089420 0.153340 -0.028083 -0.346943 -0.037403 -0.007999 0.064288 -0.055394 0.072468 0.174483 -0.034126 0.055051 -0.134146 0.360878 0.131059 -0.126831 -0.112727 0.173907 0.071358 0.058867 0.081936 -0.273107 0.096034 0.102768 0.180355 0.085405 0.043232 0.034639 -0.151633 0.223149 -0.162368 0.050894 0.080446 0.001326 -0.127688 -0.056211 -0.181907 0.158847 0.059816 -0.108920 -0.033933 0.246238 -0.271569 0.134352 -0.020472 0.116835 0.181393 -0.132317 0.124028 -0.054167 0.085757 -0.103229 0.169378 -0.108906 0.032014 -0.064950 0.025715 -0.389944 -0.061078 -0.229646 0.073294 -0.054220 -0.288869 0.023708 0.028166 0.000752 0.060179 0.308163 0.071568 -0.117465 -0.140233 0.424886 0.065823 0.071464 0.012654 -0.009241 0.256513 -0.262473 0.108536 -0.261821 0.067342 0.184607 -0.025290 0.014014 0.110720 -0.075268 -0.056971 0.151112 0.301437 -0.112869 -0.059440 0.037480 0.161627 0.279890 0.123635 0.348196 0.122678 0.197248 -0.162575 0.023698 -0.028683 0.117162 -0.089378 -0.126777 0.064516 0.107043 0.146100 0.091558 0.078391 -0.337155 -0.012986
98 0.279947 0.123589 -0.103534 0.034179 -0.243136 0.055110 -0.349761 -0.220056 0.031811 -0.144642 -0.088361 0.317417 -0.032132 -0.312851 0.424189 0.499255 -0.025646 0.159081 -0.093645 -0.001674 -0.197530 0.018570 0.250824 0.109025 -0.153681 -0.255539 -0.136825 -0.148927 -0.044587 -0.116604 0.268716 -0.030643 0.050214 -0.191353 -0.019705 -0.029663 -0.095649 -0.072059 -0.263046 0.022717 0.053603 -0.198024 0.246470 -0.094639 -0.047191 0.082263 -0.037065 0.213256 0.182854 -0.070474 -0.046855 0.035162 0.102953 -0.073184 -0.133669 -0.073677 0.004914 -0.153566 0.226260 -0.237195 -0.331511 -0.044000 0.035785 0.017311 -0.155838 0.000838 -0.037449 -0.420681 -0.030428 0.122849 -0.082480 -0.243169 -0.116737 -0.211285 0.179325 -0.094108 0.108840 0.285045 0.102228 -0.134086 0.057817 -0.002640 -0.095360 0.203646 0.046185 0.243538 0.065383 -0.273712 0.092161 -0.048309 0.038386 -0.298719 -0.007974 0.113127 -0.062078 -0.001766 -0.259562 0.065423 -0.250558 -0.128081 0.009371 -0.152689 0.173927 0.018064 -0.070668 -0.206774 0.176333 -0.137009 0.038136 -0.142315 -0.091326 -0.122518 0.096880 -0.067045 0.069163 0.272622 0.181132 0.033250 -0.201253 0.120682 -0.097084 -0.068279 0.121989 0.132123 0.070879 0.027982 -0.105223 0.046305 0.049009 0.047306 -0.068368 0.007832 -0.115702 0.021464 -0.012063 0.403082 0.277894 0.097754 -0.275749 0.197842 0.134099 -0.278137 0.192409 -0.260723 0.232530 -0.008884 0.285090 0.124826 -0.024921 -0.057956 0.043210 0.076410 -0.056415 -0.069907 0.095953 -0.130716 0.075948 -0.181908 0.124210 0.271853 -0.152533 -0.310974 0.060166 0.124501 -0.092748 0.074526 -0.282030 0.031293 0.128173 0.136303 0.016755 -0.026500 -0.125804 -0.081823 0.005127 -0.180388 0.064957 0.052158 0.018983 0.050968 0.039440 -0.346539 0.122497 0.192735 -0.004380 -0.010617 0.065676 -0.260624 0.049279 -0.131521 0.018744 0.210518 -0.200836 0.287305 -0.093414 0.038593 0.033241 0.021293 -0.058691 -0.085386 -0.096601 -0.056552 -0.402502 -0.067654 -0.097126 0.010664 -0.166455 -0.217421 -0.070303 -0.057914 0.133184 -0.067073 0.152510 0.073987 -0.024149 -0.301689 0.266721 0.044072 0.058891 0.076347 0.037387 0.204418 -0.237777 0.003522 -0.249766 -0.024350 0.025324 0.057287 0.093439 0.073839 -0.013759 -0.116002 0.129265 0.307468 0.067028 -0.106641 0.136939 0.234422 0.138327 -0.017608 0.089293 0.136531 0.147776 -0.137994 0.003389 -0.084525 0.077484 -0.085529 -0.200699 0.012742 0.157158 0.227903 -0.070553 0.162852 -0.265844 -0.096290
52 0.377896 0.241558 0.016681 -0.035648 -0.295973 0.153027 -0.180200 0.187342 -0.151409 0.071992 0.062773 0.267228 0.093973 -0.304664 0.130038 -0.072456 -0.124055 -0.087100 0.273375 0.208763 -0.080414 -0.015595 0.470999 0.051737 -0.018290 -0.096933 -0.161100 -0.415331 0.259370 -0.083628 -0.012439 0.011048 0.040376 0.380190 -0.262730 0.135689 -0.297616 -0.237453 -0.095801 -0.183915 0.067330 0.118497 0.006702 0.100899 -0.067509 -0.292099 -0.014569 0.122142 0.293820 -0.277217 0.013346 0.148753 0.075466 -0.298024 0.115838 0.072513 0.095426 0.101885 0.070775 -0.165850 0.093618 0.050644 0.044734 0.354751 0.250121 0.014856 0.073189 -0.174600 0.016234 -0.175940 0.285452 0.087518 0.069678 -0.190160 -0.138060 0.003968 0.064055 -0.013916 0.459898 0.303755 -0.014146 -0.175602 0.020659 -0.098370 -0.280111 0.288829 0.382474 -0.270231 -0.127024 0.162642 0.055258 0.340306 0.173012 0.146746 -0.227880 -0.221829 -0.193787 -0.008824 -0.163094 -0.216809 0.210944 -0.103994 -0.055770 -0.059651 -0.015958 0.076969 0.017464 -0.363593 0.172799 -0.144281 0.421599 0.073331 0.070198 -0.188963 -0.122948 0.165199 0.146813 0.082845 0.056650 0.199953 0.196028 -0.245467 0.201720 0.259099 -0.124091 0.000476 0.021278 -0.155318 -0.152095 0.229578 0.151041 -0.248569 -0.440481 0.085464 -0.234413 -0.032681 -0.113715 0.389101 -0.157580 0.065253 -0.164528 -0.038035 0.169537 0.029719 0.144426 -0.137899 0.271718 -0.127293 -0.505072 -0.014270 -0.116675 0.189033 -0.167629 0.117480 -0.248824 0.086430 0.073329 -0.032615 0.127105 -0.015506 0.186852 0.400145 0.029062 -0.160409 -0.127926 -0.143991 -0.147437 0.190751 -0.243202 0.184447 -0.122411 -0.344402 0.019598 0.154944 0.094338 -0.015067 0.074292 -0.047333 -0.221642 0.334254 0.166866 0.018510 0.070078 0.022708 -0.219078 0.318967 0.082236 -0.468252 -0.253420 0.261295 -0.269421 0.208672 0.044366 -0.183534 -0.143594 -0.136977 0.136055 0.301028 0.220534 -0.049760 -0.051743 0.108228 0.051853 -0.144646 0.052954 -0.425227 -0.048476 -0.074837 0.201864 0.253652 -0.128149 -0.110144 -0.159246 -0.147118 0.427288 -0.233727 -0.075377 0.071493 0.029890 -0.006942 0.221942 0.323483 -0.349565 0.207152 -0.275637 0.351797 0.101905 -0.166584 0.296479 0.221193 -0.376818 -0.270661 -0.124689 0.228232 -0.024359 0.027609 -0.062111 0.166803 0.190528 -0.167213 -0.223585 0.059668 0.208626 0.276496 -0.182709 -0.169854 0.311525 -0.371023 -0.208964 -0.010319 0.093175 -0.111799 -0.085725 0.078226 -0.129125 0.060687
5 0.208351 0.169712 -0.069955 -0.015594 -0.224439 0.107048 -0.464252 -0.172919 0.032635 -0.116774 -0.104647 0.297313 0.005056 -0.241823 0.423249 0.456769 -0.180969 0.026044 -0.177157 -0.055680 -0.238442 0.169475 0.323506 0.110050 -0.054645 -0.323699 -0.090548 -0.150655 0.035689 -0.056157 0.290215 0.003746 0.012443 0.023806 -0.110226 0.018821 -0.079117 0.007760 -0.198138 -0.055206 0.055301 -0.191985 0.290671 -0.093003 -0.085661 -0.010041 -0.068400 0.326275 0.133258 -0.108540 -0.156219 0.065111 0.133053 -0.100843 -0.065517 -0.020021 0.050570 -0.189750 0.213429 -0.365158 -0.404026 -0.055540 0.043839 0.139842 -0.110607 -0.140798 0.023966 -0.525116 -0.150078 0.101793 -0.011377 -0.206862 -0.115625 -0.199760 0.195861 -0.183450 0.163558 0.224220 0.206508 -0.089218 -0.024046 0.018851 0.022023 0.166152 0.065394 0.325780 0.105225 -0.263101 0.062522 -0.004314 0.029399 -0.208569 -0.003675 0.133980 -0.154724 0.040266 -0.277093 0.068255 -0.320250 -0.023990 -0.059702 -0.180319 0.210285 -0.010532 0.007558 -0.144432 0.255930 -0.100518 -0.021129 -0.170671 -0.130071 -0.105336 0.125405 0.024544 0.133962 0.347913 0.167077 0.066370 -0.067925 0.165483 -0.117993 -0.104550 0.086765 0.192581 0.055503 -0.036832 -0.186693 -0.016058 0.021242 -0.037258 -0.015318 0.024977 -0.176623 -0.040740 0.030704 0.423623 0.127899 0.179753 -0.201217 0.203385 0.078057 -0.214843 0.126762 -0.294214 0.137589 -0.025687 0.290841 0.181821 0.118637 -0.020313 -0.074899 0.060917 -0.067762 -0.056387 -0.070471 -0.107926 0.085714 -0.181231 0.002485 0.193212 -0.179680 -0.278031 -0.090219 0.057518 -0.180163 0.056888 -0.171127 0.004054 0.100030 0.081678 -0.023404 -0.045124 -0.215433 0.008528 -0.077281 -0.136606 0.138054 -0.036449 -0.060729 0.161046 0.134127 -0.295128 0.116971 0.162553 0.117394 0.149669 0.013298 -0.247007 0.008127 -0.132673 -0.082236 0.118284 -0.196365 0.331472 -0.063619 0.048484 0.055889 -0.059109 -0.023077 -0.203652 -0.063193 -0.091317 -0.292364 -0.055299 -0.062876 -0.067638 -0.149819 -0.146129 -0.084034 -0.031539 0.198402 -0.111575 0.079619 0.100080 0.150462 -0.313500 0.119743 0.181676 0.049115 0.082271 0.058766 0.225595 -0.274932 -0.012161 -0.108754 0.032808 -0.038182 0.041782 0.116825 0.009343 -0.138908 -0.052056 0.100302 0.200709 0.107155 -0.015231 0.170219 0.105184 0.107417 -0.134278 -0.104480 0.071659 0.128670 -0.068577 0.030762 -0.111676 0.168694 0.024349 -0.158091 0.054940 0.188257 0.154997 -0.087358 0.215058 -0.179074 -0.083381
39 0.350780 0.296497 0.085727 0.279335 0.147978 0.226846 -0.215950 0.173639 0.030397 0.082849 0.288351 0.290284 0.387597 -0.286619 0.561006 0.012043 -0.601278 -0.338810 0.173797 0.571480 -0.249169 -0.077100 0.346582 -0.028861 0.192013 -0.100328 -0.348129 0.069925 0.287445 -0.444185 0.282442 -0.216441 0.070876 -0.060482 -0.214047 0.273982 -0.102549 0.255691 -0.560281 -0.323483 -0.252118 0.441357 -0.105787 0.050979 0.112299 -0.055764 -0.324438 -0.029016 -0.392963 -0.161037 -0.256161 0.326791 0.045128 -0.080144 -0.058303 0.453899 -0.124113 -0.071422 0.114309 0.034341 -0.135547 0.000395 0.113156 0.183961 0.217682 -0.180826 0.094130 -0.130214 0.124978 -0.057819 -0.127030 -0.249468 -0.140592 0.153966 -0.347626 0.180881 0.118720 0.339271 -0.239250 0.191749 -0.187453 -0.389077 0.174760 -0.196685 -0.251973 0.131769 0.331247 -0.436061 -0.161270 0.096044 -0.180116 0.143526 -0.105269 0.126460 -0.033748 0.058692 -0.220117 -0.297319 -0.354240 -0.503042 -0.103901 -0.378249 0.321542 -0.121156 0.121674 0.191918 0.326724 -0.073247 0.175073 -0.360967 -0.068541 0.283084 0.095603 0.048742 -0.065416 0.400412 0.003083 0.280713 -0.048803 0.164742 -0.101590 -0.353571 -0.072813 0.109685 -0.047824 0.083145 -0.333614 0.067477 -0.312358 -0.164516 -0.106488 0.240902 -0.189549 0.132770 -0.074888 0.170290 -0.017072 0.458411 -0.208346 -0.015582 0.313379 0.425345 0.268366 0.144411 -0.107956 -0.313569 0.030405 0.027023 -0.183622 0.130460 -0.350740 0.163860 -0.245068 0.003378 -0.024496 0.362823 -0.272728 0.020136 0.120534 0.064611 -0.270397 -0.274977 -0.152499 -0.104049 -0.147847 0.201867 -0.088486 0.231141 -0.085694 0.451746 -0.228156 0.089095 -0.407203 0.083954 -0.064326 -0.074680 0.329505 0.186423 -0.321513 0.238463 0.188758 -0.072684 0.216357 -0.173760 0.209975 0.168375 -0.430667 -0.477688 -0.034788 -0.074194 0.048840 0.326126 -0.127038 -0.123368 -0.118622 0.035898 -0.232282 -0.174124 0.268633 -0.083199 -0.357785 0.041756 0.156152 -0.145041 -0.229647 -0.173152 -0.033807 -0.053719 0.439411 0.510188 0.058261 -0.114466 -0.045263 -0.245992 0.334068 0.049271 -0.013144 -0.140267 0.214714 -0.013701 0.039440 0.534770 -0.570314 0.102721 -0.077582 0.297109 0.044294 -0.065228 0.051299 -0.270858 -0.226553 0.214251 -0.295289 0.278449 0.066336 0.042856 0.212360 0.206854 0.331210 0.021334 -0.330887 -0.275096 0.358932 -0.085870 -0.349550 0.303907 0.289159 -0.398259 -0.160738 0.115089 0.326293 0.298784 0.262014 0.481711 -0.454164 -0.070035
28 0.304548 0.053976 -0.060701 0.090093 -0.257618 0.038817 -0.351920 -0.177384 0.036395 -0.100038 -0.068289 0.322526 -0.046447 -0.322859 0.421812 0.512598 -0.008363 0.177613 -0.039273 -0.008292 -0.214375 -0.013536 0.252809 0.096996 -0.167100 -0.202566 -0.173393 -0.151351 -0.031010 -0.214673 0.264250 -0.115718 0.067124 -0.305181 0.015852 -0.026346 -0.105255 -0.109336 -0.262873 -0.023863 0.069319 -0.231512 0.240342 -0.069414 -0.016428 0.112956 -0.033809 0.112096 0.155164 -0.056176 -0.035339 0.007610 0.090425 -0.062186 -0.156572 -0.047531 -0.061591 -0.128824 0.247758 -0.212618 -0.324350 0.012361 -0.008462 0.031827 -0.144940 0.041002 -0.004276 -0.341746 -0.017905 0.135741 -0.089227 -0.283981 -0.154975 -0.286694 0.187148 -0.065187 0.086129 0.293168 0.080438 -0.071892 0.090709 0.007941 -0.142057 0.156404 0.087266 0.203073 0.116511 -0.293668 0.095966 -0.106671 -0.031679 -0.270612 -0.025528 0.136314 -0.033971 -0.051563 -0.288983 0.021550 -0.281493 -0.167903 -0.011519 -0.150507 0.175014 0.041716 -0.097037 -0.191342 0.128138 -0.074543 0.030262 -0.174234 -0.100336 -0.136912 0.098628 -0.139587 0.047023 0.270501 0.143346 0.026076 -0.235078 0.081740 -0.083489 -0.067506 0.188185 0.102952 0.038068 0.073567 -0.080558 0.054191 0.038778 0.040585 -0.036056 -0.018815 -0.122779 0.017341 -0.020580 0.336924 0.292063 0.077966 -0.209131 0.132891 0.207445 -0.260094 0.244543 -0.197252 0.222443 0.040682 0.263964 0.098072 -0.112119 -0.059133 -0.004482 0.033372 -0.043561 -0.057544 0.146027 -0.109342 0.103211 -0.183040 0.214762 0.232422 -0.159183 -0.282706 0.123142 0.130174 -0.044089 0.082043 -0.302077 0.082207 0.137744 0.163075 0.054839 -0.009714 -0.076460 -0.138038 0.079396 -0.187576 0.066708 0.088924 0.033487 -0.005516 -0.000417 -0.311525 0.145246 0.163993 -0.044089 -0.000343 0.128321 -0.273181 0.067644 -0.113076 0.058590 0.209234 -0.179237 0.267117 -0.106583 0.047914 -0.013224 0.089054 -0.071145 -0.047307 -0.067087 -0.043377 -0.444668 -0.066584 -0.154985 0.060001 -0.114850 -0.242820 -0.041432 -0.034194 0.124174 -0.016442 0.233413 0.076242 -0.088523 -0.280339 0.355173 0.058138 0.090982 0.074572 0.035842 0.200071 -0.229778 0.054297 -0.260681 0.008267 0.052104 0.017901 0.056804 0.058622 -0.003270 -0.092976 0.152897 0.315165 -0.005074 -0.115605 0.131930 0.190898 0.205290 0.021174 0.205145 0.151064 0.170177 -0.135371 0.026151 -0.079627 0.073397 -0.057529 -0.197846 0.030779 0.151834 0.224023 -0.048906 0.146111 -0.329573 -0.096544
45 0.168290 0.158822 0.158186 0.504628 -0.069972 0.015534 -0.228907 0.216802 -0.320800 0.143166 0.215923 0.197522 -0.069548 -0.202535 0.202309 -0.150311 -0.130770 -0.301646 0.293514 -0.032662 -0.264725 -0.009241 0.631777 -0.344245 0.606374 0.124042 -0.757134 0.148135 0.229689 -0.297899 0.150257 0.061516 0.085258 0.294701 0.101429 0.054058 -0.069269 0.256956 -0.128849 -0.154877 0.236069 -0.032546 -0.074843 0.314461 0.245326 -0.005817 -0.019933 0.071451 -0.126345 -0.297074 -0.184610 0.036598 0.224192 -0.250996 0.043651 0.497453 -0.469006 -0.120579 0.125799 -0.369693 0.153247 -0.121586 -0.101069 0.460564 0.054936 -0.335957 0.198509 -0.344700 -0.100496 0.023293 0.142540 -0.074048 -0.042204 -0.701529 0.172003 0.135332 0.229545 0.055444 -0.006348 -0.231867 0.002210 -0.111380 -0.096210 -0.282735 0.086400 0.150815 0.189026 -0.262522 -0.295033 -0.220639 -0.046829 0.324039 0.337835 0.033236 0.116878 -0.222666 -0.297314 -0.046244 -0.484504 -0.482100 -0.072569 -0.441326 0.046879 -0.008024 0.313598 0.271828 0.296539 0.226126 0.234793 -0.373673 0.219408 -0.134490 0.513184 -0.287818 -0.323054 0.371128 0.043054 -0.106985 -0.127174 0.064103 -0.088057 -0.279162 0.670526 0.080900 -0.208589 0.093652 -0.233831 0.256850 -0.199772 0.079523 0.301009 -0.286774 -0.272501 -0.040856 -0.119959 -0.116635 -0.007137 0.390271 -0.077608 0.332672 0.074712 -0.109779 -0.175859 0.229548 -0.061930 -0.230718 0.240156 0.044648 -0.319670 0.008457 -0.300824 -0.044763 -0.325341 0.223195 0.035880 -0.000982 -0.073865 -0.114986 0.293500 -0.301658 0.057242 0.020279 0.302019 -0.234473 -0.027327 0.028814 -0.225457 0.348753 0.061566 0.573904 -0.336037 0.125389 0.070117 -0.320461 -0.062005 0.126438 -0.082795 0.323816 0.005201 0.261838 -0.004569 -0.275795 0.259902 -0.183077 -0.049750 0.233002 -0.054101 -0.702313 -0.099203 0.229962 0.309388 -0.086469 0.290162 -0.065794 -0.556935 0.132438 0.115860 0.309062 0.110015 0.206607 0.149256 0.062871 0.051749 0.097466 -0.161975 -0.130465 0.004046 0.000228 0.428068 0.335354 0.540195 0.067546 0.502937 0.128013 0.120745 -0.094110 0.099736 0.249174 0.208028 -0.043563 0.289366 0.378271 -0.246802 0.257724 -0.052597 0.376423 0.097145 -0.519306 0.101441 -0.280129 -0.174649 -0.115493 0.098839 -0.048652 -0.125914 0.303720 -0.130257 0.190867 0.128011 0.160661 -0.098732 0.085343 0.084154 -0.189396 -0.071247 0.073451 0.380559 -0.405557 -0.219485 0.463369 0.342343 -0.237214 0.089475 0.159535 -0.250235 0.020848
90 0.240207 0.243101 0.368925 0.518131 -0.518490 0.140818 -0.359002 0.264335 -0.278645 0.108310 0.128632 0.007911 -0.123797 -0.206484 0.405735 -0.034579 -0.041362 -0.216608 0.164808 -0.035344 -0.051057 -0.411379 0.480631 0.027022 0.326929 0.111689 -0.639805 -0.088887 0.231101 -0.038737 0.290933 -0.135177 -0.009197 -0.201137 -0.067921 -0.153192 -0.208136 -0.202210 -0.156899 -0.018983 0.053298 -0.393284 0.105832 -0.013456 0.259394 0.123678 -0.010066 0.066606 -0.116603 -0.099507 -0.285381 0.064487 -0.038048 -0.077361 -0.110813 -0.037792 -0.388735 0.146993 -0.445236 -0.387637 -0.008568 -0.300421 0.162268 0.309130 0.087100 0.185784 -0.021750 -0.002386 -0.086080 -0.031671 0.036367 0.061943 -0.072483 -0.310789 0.117359 0.025710 0.321155 0.257459 0.151445 -0.117585 0.126217 0.013383 0.090163 0.029555 -0.447434 -0.062112 0.541387 -0.232717 -0.045820 -0.070271 -0.230629 0.106952 0.222754 0.035499 -0.121797 -0.480887 -0.069826 -0.226899 -0.033469 -0.347374 0.119580 -0.284398 0.230767 -0.259151 0.211129 -0.057813 -0.018092 0.019628 -0.141955 -0.256585 0.012209 0.220789 0.441980 -0.263969 0.162848 0.700843 0.274853 0.088229 0.106759 0.143002 -0.180499 -0.414580 0.391129 -0.403896 0.029934 -0.036920 0.091577 0.025808 -0.334616 0.266706 -0.227598 0.021402 -0.455274 -0.020265 -0.171636 0.431371 0.151149 0.454237 -0.154901 0.056542 0.030144 -0.033689 0.328597 -0.032661 -0.229167 -0.323708 -0.090429 0.179791 -0.390491 0.222262 0.130317 0.296430 -0.246135 0.123985 -0.387183 0.294263 0.382407 -0.110613 -0.186502 0.024376 -0.129656 -0.171507 0.402212 0.074730 0.101192 0.281118 -0.076661 0.485422 0.360439 0.153697 -0.276530 -0.080241 -0.172093 0.066903 0.256310 0.325264 -0.024636 0.107766 0.098861 0.267134 0.315249 -0.596608 0.255230 -0.008747 -0.219411 0.220187 -0.070999 -0.336454 0.089352 0.157355 0.127087 0.562600 -0.030223 0.240216 -0.344268 -0.168262 0.097680 -0.031406 0.263324 0.091073 -0.186415 -0.209554 0.245030 0.228201 -0.208777 -0.068168 -0.153211 0.051633 0.355749 0.546470 0.087229 -0.193747 0.117443 -0.246144 0.322715 -0.477819 -0.042752 0.208436 0.148012 0.134996 -0.058959 0.127004 -0.556055 0.048112 -0.291866 0.401671 -0.300030 -0.139535 0.283606 -0.215374 0.063587 0.269129 0.277864 0.313617 -0.067294 0.109426 0.231224 -0.095982 0.065308 -0.124306 -0.305916 -0.257444 0.078054 0.018864 -0.013262 -0.104962 -0.010097 -0.068130 -0.272145 0.206967 0.313154 0.384284 0.265306 0.574003 -0.453311 -0.171322
117 0.240755 0.236432 0.373700 0.524812 -0.516495 0.137293 -0.342822 0.260658 -0.280479 0.099094 0.120190 0.001781 -0.129879 -0.201464 0.392982 -0.030832 -0.026475 -0.211362 0.170813 -0.035732 -0.045541 -0.418311 0.472927 0.026477 0.324678 0.121257 -0.644248 -0.083151 0.225549 -0.031153 0.289804 -0.129985 -0.010072 -0.206741 -0.060003 -0.160942 -0.199144 -0.198739 -0.152833 -0.004033 0.052083 -0.400369 0.105013 -0.018281 0.261950 0.124169 -0.007994 0.059982 -0.123948 -0.089224 -0.275665 0.063053 -0.048013 -0.069770 -0.112832 -0.041889 -0.384021 0.148257 -0.453112 -0.379627 0.001307 -0.302034 0.161928 0.295177 0.081441 0.194370 -0.033254 0.008554 -0.081266 -0.026120 0.022169 0.066473 -0.070399 -0.302277 0.121736 0.021900 0.318643 0.249967 0.148437 -0.131353 0.129852 0.008481 0.081540 0.036322 -0.446769 -0.069511 0.526280 -0.217640 -0.036215 -0.073654 -0.229764 0.098601 0.227306 0.023818 -0.114627 -0.485343 -0.057289 -0.227633 -0.021666 -0.343611 0.126665 -0.280452 0.223388 -0.253770 0.209524 -0.058370 -0.026432 0.022181 -0.139123 -0.243024 0.006912 0.224541 0.445881 -0.267563 0.163510 0.691038 0.275488 0.080991 0.100020 0.131356 -0.182887 -0.407686 0.392680 -0.414461 0.036405 -0.033362 0.100895 0.029698 -0.334750 0.271225 -0.231980 0.018310 -0.448458 -0.020807 -0.168511 0.429900 0.156215 0.442408 -0.153535 0.048799 0.024678 -0.036891 0.328490 -0.027821 -0.230378 -0.322998 -0.095822 0.177400 -0.388763 0.226839 0.143491 0.300277 -0.242767 0.126545 -0.384195 0.290906 0.379453 -0.111569 -0.188852 0.024944 -0.127290 -0.170481 0.411450 0.083547 0.110742 0.283132 -0.076498 0.478101 0.369866 0.145247 -0.271630 -0.071043 -0.166059 0.071359 0.263059 0.330042 -0.034829 0.100695 0.110173 0.253301 0.309054 -0.598636 0.253409 -0.014075 -0.225609 0.204013 -0.066615 -0.324097 0.096181 0.157195 0.134020 0.563267 -0.035095 0.239811 -0.342277 -0.162550 0.100219 -0.035760 0.254070 0.101352 -0.184025 -0.209999 0.248046 0.234924 -0.215371 -0.059854 -0.155312 0.049752 0.351202 0.538802 0.079853 -0.193991 0.123250 -0.244200 0.309841 -0.468065 -0.042066 0.203072 0.145439 0.132672 -0.060454 0.113682 -0.545615 0.044672 -0.291076 0.394135 -0.302868 -0.137202 0.279561 -0.217525 0.073065 0.270098 0.281605 0.305397 -0.065068 0.109819 0.225008 -0.094872 0.056673 -0.112733 -0.302274 -0.262142 0.067717 0.013946 -0.007480 -0.106282 -0.016319 -0.066282 -0.266891 0.205044 0.306772 0.379292 0.272922 0.567270 -0.445523 -0.176846
84 0.169555 0.151875 0.171999 0.521647 -0.076861 0.017428 -0.220165 0.233823 -0.323449 0.150697 0.220469 0.195197 -0.070276 -0.195668 0.196441 -0.157577 -0.128590 -0.303670 0.308535 -0.030243 -0.264809 -0.023389 0.635493 -0.348071 0.610445 0.142155 -0.769992 0.142971 0.233620 -0.310696 0.149308 0.052920 0.083467 0.285076 0.103554 0.053709 -0.074948 0.250118 -0.127380 -0.164471 0.231817 -0.042856 -0.077910 0.318851 0.254736 -0.004097 -0.027629 0.052588 -0.136072 -0.296214 -0.183602 0.039606 0.216304 -0.252858 0.041856 0.502554 -0.481359 -0.112103 0.117934 -0.367342 0.165586 -0.114293 -0.105789 0.468713 0.064774 -0.328625 0.195902 -0.329416 -0.100811 0.021336 0.140255 -0.070572 -0.044371 -0.705977 0.167355 0.142663 0.226025 0.054366 -0.003136 -0.220144 0.005784 -0.115022 -0.100521 -0.288851 0.075455 0.139169 0.195593 -0.265643 -0.298629 -0.222002 -0.056824 0.340485 0.347279 0.030535 0.121377 -0.235758 -0.295450 -0.048914 -0.482617 -0.491361 -0.064229 -0.443042 0.048768 -0.011901 0.315767 0.279773 0.284165 0.234000 0.238889 -0.377684 0.226949 -0.124435 0.522443 -0.302549 -0.326128 0.379319 0.045986 -0.104044 -0.130632 0.060346 -0.082233 -0.283929 0.683454 0.071698 -0.213118 0.095679 -0.225479 0.252130 -0.209078 0.077991 0.304094 -0.292079 -0.277737 -0.035860 -0.126903 -0.125121 -0.012975 0.396711 -0.070656 0.317405 0.078760 -0.102527 -0.163932 0.238470 -0.067191 -0.230751 0.230864 0.038164 -0.348846 0.012029 -0.300648 -0.043033 -0.330347 0.233606 0.031350 0.012337 -0.064974 -0.115491 0.303388 -0.312400 0.054383 0.035433 0.312992 -0.235784 -0.015009 0.031706 -0.222547 0.364551 0.065668 0.577745 -0.338020 0.127567 0.079227 -0.322999 -0.045412 0.132200 -0.088401 0.325518 0.007978 0.259951 -0.004280 -0.273632 0.265123 -0.195487 -0.061886 0.238980 -0.042860 -0.707892 -0.094615 0.242049 0.315144 -0.080544 0.295198 -0.075170 -0.562970 0.128734 0.110959 0.317589 0.116718 0.217616 0.150929 0.061783 0.059200 0.099352 -0.172285 -0.127576 0.011607 0.000947 0.438679 0.347086 0.534221 0.072895 0.510601 0.124593 0.122189 -0.095052 0.104874 0.252837 0.212349 -0.044741 0.285205 0.382584 -0.254380 0.265800 -0.057917 0.388762 0.097435 -0.525983 0.105399 -0.279831 -0.178009 -0.110012 0.106258 -0.049124 -0.136860 0.307414 -0.133099 0.183021 0.133538 0.164967 -0.092960 0.081644 0.087189 -0.187753 -0.075357 0.074672 0.384049 -0.405499 -0.219220 0.469073 0.337486 -0.237889 0.106940 0.166553 -0.259749 0.025839
38 0.340229 0.290300 0.091065 0.275325 0.157878 0.218484 -0.209324 0.180244 0.033239 0.094256 0.287732 0.284059 0.389528 -0.276709 0.549338 -0.001526 -0.609047 -0.347519 0.168635 0.574234 -0.245354 -0.073614 0.331554 -0.028825 0.191320 -0.093812 -0.332977 0.082144 0.290337 -0.440141 0.273735 -0.218057 0.071799 -0.068174 -0.209584 0.275974 -0.098197 0.259326 -0.549974 -0.328373 -0.253891 0.448394 -0.104400 0.051766 0.114276 -0.053790 -0.319990 -0.031202 -0.399550 -0.153220 -0.263091 0.324518 0.039246 -0.075690 -0.059084 0.456158 -0.132127 -0.065788 0.107815 0.043256 -0.137537 0.003419 0.108124 0.178534 0.221129 -0.180113 0.096178 -0.112639 0.123804 -0.060102 -0.121060 -0.244491 -0.136585 0.160094 -0.349682 0.179600 0.118586 0.333909 -0.246663 0.200849 -0.184999 -0.384351 0.180564 -0.203358 -0.250795 0.123254 0.326575 -0.425626 -0.157521 0.096158 -0.186718 0.150836 -0.113726 0.128322 -0.030529 0.063061 -0.213423 -0.300562 -0.345434 -0.495467 -0.112709 -0.374806 0.318639 -0.120624 0.126035 0.194742 0.319361 -0.060632 0.167362 -0.354687 -0.074949 0.284863 0.087955 0.055310 -0.059825 0.392218 -0.009102 0.279305 -0.042382 0.165148 -0.104827 -0.347148 -0.080987 0.106615 -0.044626 0.084241 -0.329079 0.064346 -0.310180 -0.173275 -0.105059 0.249935 -0.183592 0.130674 -0.071613 0.162034 -0.023170 0.451492 -0.194321 -0.027108 0.315331 0.436717 0.260498 0.148169 -0.113845 -0.311499 0.015901 0.025148 -0.176476 0.134196 -0.357460 0.155483 -0.241457 -0.004856 -0.023160 0.367175 -0.268930 0.022817 0.112708 0.057027 -0.269604 -0.277603 -0.156168 -0.106131 -0.146499 0.202719 -0.082586 0.226300 -0.085508 0.448306 -0.226671 0.087771 -0.406036 0.087133 -0.066606 -0.069276 0.333014 0.186369 -0.319464 0.234579 0.189801 -0.061564 0.208328 -0.177798 0.217443 0.168412 -0.437751 -0.465924 -0.035949 -0.078213 0.047730 0.320709 -0.120321 -0.127915 -0.108633 0.032777 -0.235608 -0.179563 0.270607 -0.086875 -0.356102 0.041966 0.161830 -0.137495 -0.225905 -0.173827 -0.025276 -0.046330 0.440725 0.508267 0.053314 -0.111666 -0.052264 -0.247363 0.331849 0.054695 -0.020530 -0.139739 0.217293 -0.012480 0.034317 0.524033 -0.562122 0.103923 -0.063597 0.293794 0.041199 -0.062083 0.042318 -0.277072 -0.223230 0.224524 -0.295766 0.267364 0.066863 0.039558 0.211049 0.191897 0.325175 0.020067 -0.332440 -0.279245 0.354730 -0.079875 -0.346169 0.309981 0.281865 -0.385906 -0.155171 0.116387 0.320593 0.298794 0.262724 0.479988 -0.450917 -0.071782
101 0.330771 0.193474 0.154079 0.510999 -0.166149 0.315363 -0.183114 0.011341 -0.036618 -0.119322 -0.080975 0.338814 0.011409 -0.123660 -0.061475 0.129388 -0.110954 -0.221848 0.356940 0.428884 -0.102984 -0.229285 0.324078 -0.088050 0.040918 0.249640 -0.607827 -0.432529 0.044016 0.156788 0.172051 0.272231 0.031848 0.452946 -0.104982 -0.010940 -0.143399 0.293566 -0.411068 0.114155 0.032052 0.014691 0.027000 -0.008600 0.065420 -0.117075 -0.046604 0.031292 -0.256453 0.082052 0.141146 0.523247 0.051975 -0.184153 -0.080836 0.338976 0.179198 -0.249907 0.053405 -0.168827 0.185135 -0.231763 0.291441 0.121753 0.039991 -0.100474 -0.283966 -0.315500 0.198165 -0.116332 -0.180780 0.051622 -0.271638 -0.059415 0.158799 -0.194673 0.362222 0.032948 0.155146 -0.316364 -0.226865 -0.367066 -0.167818 0.124525 -0.375537 0.186183 -0.215447 -0.112173 -0.038063 -0.145482 -0.149872 -0.074006 0.100640 -0.207969 -0.154405 0.019898 0.071312 -0.025022 -0.133139 -0.444973 0.088564 -0.411337 -0.141921 0.066630 0.313905 -0.008523 0.375521 -0.164704 0.486915 0.086881 0.158079 0.043807 0.435683 -0.135057 -0.194257 0.136979 0.200262 0.286531 -0.217957 -0.107721 -0.305990 -0.314230 0.080997 0.099608 0.350002 0.066176 0.019693 -0.022620 -0.457298 0.351931 -0.048911 -0.028006 -0.155533 0.001020 -0.052514 0.162752 0.064290 0.389079 -0.321145 0.172671 0.007069 -0.172539 0.053117 -0.120774 0.334000 -0.414421 0.174635 -0.067113 -0.382296 0.145670 0.139354 0.539991 -0.251779 0.132068 -0.208927 -0.029688 -0.209330 0.084961 -0.028425 0.098805 0.062814 -0.168860 -0.071787 0.020392 0.193675 0.066797 -0.098329 -0.058714 0.295091 0.239531 -0.274737 0.217780 -0.170434 0.080919 -0.171809 0.137816 0.055917 0.062638 0.122596 0.054209 0.099845 -0.277555 0.188185 -0.081457 -0.051770 -0.181752 -0.308948 -0.431331 0.064126 0.325335 0.189515 0.392726 -0.076168 -0.077882 -0.327271 0.072687 0.145941 -0.171936 -0.112701 -0.044899 -0.072377 0.019161 -0.047264 -0.099179 -0.095032 -0.122931 -0.340461 -0.002203 0.259961 0.034557 0.048876 -0.222122 0.179120 0.132015 0.292129 -0.056378 -0.017513 -0.150851 -0.261587 0.073738 0.273576 0.274866 -0.231884 -0.083192 -0.376612 0.324582 -0.038519 0.042982 0.210986 -0.079795 -0.188524 -0.208098 0.164085 0.201272 0.057186 0.278329 -0.057571 0.493188 -0.120562 0.206406 -0.530832 -0.175798 0.049100 -0.196794 -0.178242 0.060264 0.187336 -0.502442 -0.127219 0.241763 0.272128 -0.169738 0.348603 0.025632 -0.167856 -0.289137
